{"learner":{"attributes":{},"feature_names":[],"feature_types":[],"gradient_booster":{"model":{"gbtree_model_param":{"num_parallel_tree":"1","num_trees":"400"},"iteration_indptr":[0,1,2,3,4,5,6,7,8,9,10,11,12,13,14,15,16,17,18,19,20,21,22,23,24,25,26,27,28,29,30,31,32,33,34,35,36,37,38,39,40,41,42,43,44,45,46,47,48,49,50,51,52,53,54,55,56,57,58,59,60,61,62,63,64,65,66,67,68,69,70,71,72,73,74,75,76,77,78,79,80,81,82,83,84,85,86,87,88,89,90,91,92,93,94,95,96,97,98,99,100,101,102,103,104,105,106,107,108,109,110,111,112,113,114,115,116,117,118,119,120,121,122,123,124,125,126,127,128,129,130,131,132,133,134,135,136,137,138,139,140,141,142,143,144,145,146,147,148,149,150,151,152,153,154,155,156,157,158,159,160,161,162,163,164,165,166,167,168,169,170,171,172,173,174,175,176,177,178,179,180,181,182,183,184,185,186,187,188,189,190,191,192,193,194,195,196,197,198,199,200,201,202,203,204,205,206,207,208,209,210,211,212,213,214,215,216,217,218,219,220,221,222,223,224,225,226,227,228,229,230,231,232,233,234,235,236,237,238,239,240,241,242,243,244,245,246,247,248,249,250,251,252,253,254,255,256,257,258,259,260,261,262,263,264,265,266,267,268,269,270,271,272,273,274,275,276,277,278,279,280,281,282,283,284,285,286,287,288,289,290,291,292,293,294,295,296,297,298,299,300,301,302,303,304,305,306,307,308,309,310,311,312,313,314,315,316,317,318,319,320,321,322,323,324,325,326,327,328,329,330,331,332,333,334,335,336,337,338,339,340,341,342,343,344,345,346,347,348,349,350,351,352,353,354,355,356,357,358,359,360,361,362,363,364,365,366,367,368,369,370,371,372,373,374,375,376,377,378,379,380,381,382,383,384,385,386,387,388,389,390,391,392,393,394,395,396,397,398,399,400],"tree_info":[0,0,0,0,0,0,0,0,0,0,0,0,0,0,0,0,0,0,0,0,0,0,0,0,0,0,0,0,0,0,0,0,0,0,0,0,0,0,0,0,0,0,0,0,0,0,0,0,0,0,0,0,0,0,0,0,0,0,0,0,0,0,0,0,0,0,0,0,0,0,0,0,0,0,0,0,0,0,0,0,0,0,0,0,0,0,0,0,0,0,0,0,0,0,0,0,0,0,0,0,0,0,0,0,0,0,0,0,0,0,0,0,0,0,0,0,0,0,0,0,0,0,0,0,0,0,0,0,0,0,0,0,0,0,0,0,0,0,0,0,0,0,0,0,0,0,0,0,0,0,0,0,0,0,0,0,0,0,0,0,0,0,0,0,0,0,0,0,0,0,0,0,0,0,0,0,0,0,0,0,0,0,0,0,0,0,0,0,0,0,0,0,0,0,0,0,0,0,0,0,0,0,0,0,0,0,0,0,0,0,0,0,0,0,0,0,0,0,0,0,0,0,0,0,0,0,0,0,0,0,0,0,0,0,0,0,0,0,0,0,0,0,0,0,0,0,0,0,0,0,0,0,0,0,0,0,0,0,0,0,0,0,0,0,0,0,0,0,0,0,0,0,0,0,0,0,0,0,0,0,0,0,0,0,0,0,0,0,0,0,0,0,0,0,0,0,0,0,0,0,0,0,0,0,0,0,0,0,0,0,0,0,0,0,0,0,0,0,0,0,0,0,0,0,0,0,0,0,0,0,0,0,0,0,0,0,0,0,0,0,0,0,0,0,0,0,0,0,0,0,0,0,0,0,0,0,0,0,0,0,0,0,0,0,0,0,0,0,0,0,0,0,0,0,0,0,0,0,0,0,0,0,0,0,0,0,0,0,0,0,0,0,0,0,0,0,0,0,0,0],"trees":[{"base_weights":[1.1023154E-8,-3.614089E-1,1.5443496E0,-8.9083934E-1,3.8695827E-1,4.5419037E-1,1.6371295E0,-2.2999352E-1,-1.197124E0,-3.764432E-1,5.7195735E-1,-4.6418992E-1,8.086148E-1,1.4407176E0,1.8598617E0,9.975155E-2,-1.0278676E0,-1.39335E0,-7.526846E-1,-9.273967E-1,-1.830218E-1,6.0237635E-2,7.215726E-1,-8.737978E-1,6.450734E-2,4.5839784E-1,1.4153594E0,1.2159463E0,1.6333774E0,1.7368431E0,1.9347986E0,5.410949E-2,-1.4216776E-2,-1.19578294E-1,5.4728776E-2,-1.1816748E-1,-1.7022158E-1,-4.849353E-2,-1.12488806E-1,-1.1652541E-1,-4.1847132E-2,-5.1345933E-2,1.0344842E-2,-9.940712E-2,1.44754E-2,4.2913534E-2,9.961424E-2,-3.350023E-2,-1.585765E-1,-1.0912701E-1,4.563063E-2,-1.9896239E-1,5.1553614E-2,-1.9503106E-1,1.4431015E-1,1.3881111E-1,7.167279E-2,1.2096925E-1,1.7100877E-1,1.4705567E-1,1.8078811E-1,1.8786804E-1,1.9782096E-1],"categories":[],"categories_nodes":[],"categories_segments":[],"categories_sizes":[],"default_left":[0,0,0,0,0,0,0,0,0,0,0,0,0,0,0,0,0,0,0,0,0,0,0,0,0,0,0,0,0,0,0,0,0,0,0,0,0,0,0,0,0,0,0,0,0,0,0,0,0,0,0,0,0,0,0,0,0,0,0,0,0,0,0],"id":0,"left_children":[1,3,5,7,9,11,13,15,17,19,21,23,25,27,29,31,33,35,37,39,41,43,45,47,49,51,53,55,57,59,61,-1,-1,-1,-1,-1,-1,-1,-1,-1,-1,-1,-1,-1,-1,-1,-1,-1,-1,-1,-1,-1,-1,-1,-1,-1,-1,-1,-1,-1,-1,-1,-1],"loss_changes":[6.922564E5,3.9822112E5,2.3789438E4,1.191455E5,5.881283E4,6.005533E3,9.4799375E3,4.9046703E4,3.5077188E4,8.656451E3,2.5663555E4,1.1127335E3,2.8280986E3,4.9862656E3,9.3296875E2,1.4083826E4,1.4419371E4,1.8240562E4,1.22769375E4,2.5546113E3,5.6915957E3,6.7575293E3,2.0825578E4,1.110052E3,1.01659625E3,1.1818389E3,4.5765625E2,4.5687344E3,2.0137344E3,7.24875E2,1.500625E2,0E0,0E0,0E0,0E0,0E0,0E0,0E0,0E0,0E0,0E0,0E0,0E0,0E0,0E0,0E0,0E0,0E0,0E0,0E0,0E0,0E0,0E0,0E0,0E0,0E0,0E0,0E0,0E0,0E0,0E0,0E0,0E0],"parents":[2147483647,0,0,1,1,2,2,3,3,4,4,5,5,6,6,7,7,8,8,9,9,10,10,11,11,12,12,13,13,14,14,15,15,16,16,17,17,18,18,19,19,20,20,21,21,22,22,23,23,24,24,25,25,26,26,27,27,28,28,29,29,30,30],"right_children":[2,4,6,8,10,12,14,16,18,20,22,24,26,28,30,32,34,36,38,40,42,44,46,48,50,52,54,56,58,60,62,-1,-1,-1,-1,-1,-1,-1,-1,-1,-1,-1,-1,-1,-1,-1,-1,-1,-1,-1,-1,-1,-1,-1,-1,-1,-1,-1,-1,-1,-1,-1,-1],"split_conditions":[2.7653396E0,6.498267E-1,-4.2287716E-1,-5.502891E-1,-2.9094508E-1,-8.4720755E-1,5.706863E0,3.346907E-1,-8.9412406E-2,-6.664458E-1,-4.9308035E-1,1.948676E-1,8.2661134E-1,8.733941E-1,8.648386E0,-1.24575E0,8.45989E-2,2.2467344E-1,3.346907E-1,1.0489676E0,3.4683888E0,2.2747964E-3,1.1570176E0,1.5417097E0,3.3638422E0,-9.5835984E-1,2.0855889E-3,-2.979254E-1,8.756807E-1,5.776738E-1,1.4531432E1,5.410949E-2,-1.4216776E-2,-1.19578294E-1,5.4728776E-2,-1.1816748E-1,-1.7022158E-1,-4.849353E-2,-1.12488806E-1,-1.1652541E-1,-4.1847132E-2,-5.1345933E-2,1.0344842E-2,-9.940712E-2,1.44754E-2,4.2913534E-2,9.961424E-2,-3.350023E-2,-1.585765E-1,-1.0912701E-1,4.563063E-2,-1.9896239E-1,5.1553614E-2,-1.9503106E-1,1.4431015E-1,1.3881111E-1,7.167279E-2,1.2096925E-1,1.7100877E-1,1.4705567E-1,1.8078811E-1,1.8786804E-1,1.9782096E-1],"split_indices":[0,2,6,7,1,4,0,5,1,1,14,8,8,2,0,7,13,5,5,2,20,21,2,7,20,1,21,7,9,6,0,0,0,0,0,0,0,0,0,0,0,0,0,0,0,0,0,0,0,0,0,0,0,0,0,0,0,0,0,0,0,0,0],"split_type":[0,0,0,0,0,0,0,0,0,0,0,0,0,0,0,0,0,0,0,0,0,0,0,0,0,0,0,0,0,0,0,0,0,0,0,0,0,0,0,0,0,0,0,0,0,0,0,0,0,0,0,0,0,0,0,0,0,0,0,0,0,0,0],"sum_hessian":[1.240286E6,1.0050782E6,2.352078E5,5.886436E5,4.164346E5,1.8448232E4,2.1675956E5,1.8642062E5,4.02223E5,8.123132E4,3.3520328E5,5.136997E3,1.3311235E4,1.1518947E5,1.0157009E5,1.3190702E5,5.4513605E4,2.790268E5,1.2319619E5,2.110649E4,6.0124832E4,7.583406E4,2.5936922E5,2.8941238E3,2.242873E3,8.440866E3,4.870368E3,5.3167555E4,6.202191E4,3.845894E4,6.3111152E4,4.6703203E4,8.520381E4,4.926236E4,5.2512446E3,1.6556495E5,1.1346186E5,7.165358E4,5.1542605E4,1.4382995E4,6.7234956E3,2.7919482E4,3.2205348E4,5.6271226E3,7.020694E4,1.2559925E5,1.3376997E5,1.6482489E3,1.2458748E3,5.673748E2,1.6754983E3,1.9175E2,8.249116E3,3.925E1,4.831118E3,3.953232E4,1.3635235E4,9.510487E3,5.251142E4,8.103739E3,3.0355203E4,2.7546082E4,3.5565066E4],"tree_param":{"num_deleted":"0","num_feature":"22","num_nodes":"63","size_leaf_vector":"1"}},{"base_weights":[1.2204643E-5,-3.260861E-1,1.3994876E0,-7.844617E-1,3.7852645E-1,6.599985E-1,1.5135218E0,-2.3082224E-1,-1.0846443E0,-1.5567422E-1,5.8288E-1,-3.618786E-1,8.853022E-1,1.344177E0,1.702495E0,8.361227E-2,-8.6543953E-1,-1.2588409E0,-6.073285E-1,-8.150675E-1,-1.9527346E-2,1.2054655E-1,7.3593473E-1,-8.280137E-1,1.5554641E-1,6.2012506E-1,1.3756807E0,1.1418617E0,1.4763865E0,1.5984931E0,1.7651328E0,5.1887434E-2,-1.230889E-2,-1.00550644E-1,3.726237E-2,-1.4066029E-1,-9.196509E-2,-4.1082628E-2,-1.0617156E-1,-1.060588E-1,-3.768014E-2,-9.2178226E-2,4.848522E-3,2.2440808E-2,-5.8272213E-2,7.152237E-3,8.287652E-2,1.6619777E-2,-1.2605596E-1,-7.6617084E-2,4.7100537E-2,4.316782E-2,1.5111189E-1,-1.9401537E-1,1.396281E-1,1.3919398E-1,9.0115584E-2,9.5629096E-2,1.5217395E-1,1.3926177E-1,1.6443624E-1,-2.0206363E-1,1.7658423E-1],"categories":[],"categories_nodes":[],"categories_segments":[],"categories_sizes":[],"default_left":[0,0,0,0,0,0,0,0,0,0,0,0,0,0,0,0,0,0,0,0,0,0,0,0,0,0,0,0,0,0,0,0,0,0,0,0,0,0,0,0,0,0,0,0,0,0,0,0,0,0,0,0,0,0,0,0,0,0,0,0,0,0,0],"id":1,"left_children":[1,3,5,7,9,11,13,15,17,19,21,23,25,27,29,31,33,35,37,39,41,43,45,47,49,51,53,55,57,59,61,-1,-1,-1,-1,-1,-1,-1,-1,-1,-1,-1,-1,-1,-1,-1,-1,-1,-1,-1,-1,-1,-1,-1,-1,-1,-1,-1,-1,-1,-1,-1,-1],"loss_changes":[5.642733E5,3.2387672E5,1.9703125E4,1.0097044E5,4.3146137E4,7.1882227E3,6.47625E3,4.2623234E4,3.2755031E4,9.81768E3,2.0229117E4,1.3605957E3,3.3255645E3,2.85425E3,6.204375E2,1.2850625E4,1.227259E4,1.4464094E4,9.404602E3,2.0134521E3,5.5624556E3,5.1935996E3,1.3246711E4,1.2763818E3,7.778906E2,2.7873022E3,6.159121E2,2.539129E3,1.521625E3,3.3742188E2,1.6390625E2,0E0,0E0,0E0,0E0,0E0,0E0,0E0,0E0,0E0,0E0,0E0,0E0,0E0,0E0,0E0,0E0,0E0,0E0,0E0,0E0,0E0,0E0,0E0,0E0,0E0,0E0,0E0,0E0,0E0,0E0,0E0,0E0],"parents":[2147483647,0,0,1,1,2,2,3,3,4,4,5,5,6,6,7,7,8,8,9,9,10,10,11,11,12,12,13,13,14,14,15,15,16,16,17,17,18,18,19,19,20,20,21,21,22,22,23,23,24,24,25,25,26,26,27,27,28,28,29,29,30,30],"right_children":[2,4,6,8,10,12,14,16,18,20,22,24,26,28,30,32,34,36,38,40,42,44,46,48,50,52,54,56,58,60,62,-1,-1,-1,-1,-1,-1,-1,-1,-1,-1,-1,-1,-1,-1,-1,-1,-1,-1,-1,-1,-1,-1,-1,-1,-1,-1,-1,-1,-1,-1,-1,-1],"split_conditions":[2.7653396E0,6.989257E-1,4.070014E-2,-4.676785E-1,-1.0710564E-1,-1.3486437E0,5.706863E0,2.2467344E-1,3.4472865E-1,-6.664458E-1,-4.929848E-1,1.8461467E-1,8.803079E-1,7.08596E-1,8.648386E0,-1.24575E0,-8.457832E-3,-2.5736886E-1,5.5472517E-1,1.0489676E0,-9.901151E-1,1.1048113E0,5.918581E-1,-1.5068228E0,1.3860731E0,8.648386E0,2.0295233E-3,-9.966906E-1,6.79022E-1,6.042231E-1,-1.9911698E0,5.1887434E-2,-1.230889E-2,-1.00550644E-1,3.726237E-2,-1.4066029E-1,-9.196509E-2,-4.1082628E-2,-1.0617156E-1,-1.060588E-1,-3.768014E-2,-9.2178226E-2,4.848522E-3,2.2440808E-2,-5.8272213E-2,7.152237E-3,8.287652E-2,1.6619777E-2,-1.2605596E-1,-7.6617084E-2,4.7100537E-2,4.316782E-2,1.5111189E-1,-1.9401537E-1,1.396281E-1,1.3919398E-1,9.0115584E-2,9.5629096E-2,1.5217395E-1,1.3926177E-1,1.6443624E-1,-2.0206363E-1,1.7658423E-1],"split_indices":[0,2,6,7,1,6,0,5,8,1,14,8,8,9,0,7,13,13,5,2,11,5,8,2,14,0,21,7,2,6,2,0,0,0,0,0,0,0,0,0,0,0,0,0,0,0,0,0,0,0,0,0,0,0,0,0,0,0,0,0,0,0,0],"split_type":[0,0,0,0,0,0,0,0,0,0,0,0,0,0,0,0,0,0,0,0,0,0,0,0,0,0,0,0,0,0,0,0,0,0,0,0,0,0,0,0,0,0,0,0,0,0,0,0,0,0,0,0,0,0,0,0,0,0,0,0,0,0,0],"sum_hessian":[1.2364456E6,1.0027831E6,2.3366244E5,6.0755006E5,3.9523306E5,3.1219168E4,2.0244327E5,2.1360014E5,3.9394994E5,1.0935872E5,2.8587434E5,5.639645E3,2.5579523E4,1.06770734E5,9.567253E4,1.4283192E5,7.076822E4,2.886173E5,1.0533263E5,1.871454E4,9.064418E4,7.110095E4,2.1477339E5,2.9665525E3,2.6730925E3,1.6603355E4,8.976168E3,4.2201297E4,6.4569438E4,3.5972125E4,5.9700406E4,4.5988945E4,9.684298E4,6.3575824E4,7.192394E3,2.0103633E5,8.758098E4,7.353425E4,3.1798385E4,1.1993986E4,6.720553E3,6.3529795E3,8.4291195E4,6.1952273E4,9.148679E3,2.6329293E4,1.8844411E5,8.9954767E2,2.067005E3,6.8122894E2,1.9918636E3,1.3705997E4,2.8973596E3,5.484655E1,8.921321E3,2.069536E4,2.1505938E4,5.180698E3,5.938874E4,6.5600273E3,2.9412096E4,1.0652621E1,5.9689754E4],"tree_param":{"num_deleted":"0","num_feature":"22","num_nodes":"63","size_leaf_vector":"1"}},{"base_weights":[6.7897665E-5,-2.9532737E-1,1.2824998E0,-7.908789E-1,2.4554001E-1,5.9881264E-1,1.3891103E0,-2.1994865E-1,-1.0426843E0,-4.0309533E-1,4.2195025E-1,-3.861798E-1,7.931604E-1,1.2285534E0,1.5697907E0,1.0077914E-1,-9.044385E-1,-1.3386794E0,-8.344949E-1,-7.418409E-1,-1.2247861E-1,1.4328395E-1,6.458084E-1,-5.9622705E-1,4.2297372E-1,5.442191E-1,1.2513833E0,1.0861474E0,1.3992397E0,1.4697192E0,1.6303244E0,4.125507E-2,-2.0791145E-2,-1.0485697E-1,3.2177564E-2,-1.1665537E-1,-1.53657E-1,-6.0980935E-2,-1.17669836E-1,-1.05029345E-1,-5.0397642E-2,-9.023569E-2,-2.0387208E-3,3.2152474E-2,-2.622055E-2,1.4685417E-2,7.65285E-2,-2.1639988E-2,-1.10243134E-1,-1.9431868E-1,5.648428E-2,3.6926236E-2,1.3793741E-1,-1.7741896E-1,1.2704971E-1,1.20041825E-1,7.6666586E-2,9.690061E-2,1.4613257E-1,1.2783091E-1,1.514855E-1,-1.8196136E-1,1.6309926E-1],"categories":[],"categories_nodes":[],"categories_segments":[],"categories_sizes":[],"default_left":[0,0,0,0,0,0,0,0,0,0,0,0,0,0,0,0,0,0,0,0,0,0,0,0,0,0,0,0,0,0,0,0,0,0,0,0,0,0,0,0,0,0,0,0,0,0,0,0,0,0,0,0,0,0,0,0,0,0,0,0,0,0,0],"id":2,"left_children":[1,3,5,7,9,11,13,15,17,19,21,23,25,27,29,31,33,35,37,39,41,43,45,47,49,51,53,55,57,59,61,-1,-1,-1,-1,-1,-1,-1,-1,-1,-1,-1,-1,-1,-1,-1,-1,-1,-1,-1,-1,-1,-1,-1,-1,-1,-1,-1,-1,-1,-1,-1,-1],"loss_changes":[4.647834E5,2.6728072E5,1.6741469E4,7.481525E4,5.4559152E4,5.932336E3,5.7625625E3,3.4966836E4,2.2252969E4,9.691098E3,2.338411E4,8.682855E2,2.9516416E3,2.5560312E3,5.639531E2,1.04382E4,8.981934E3,5.0774688E3,1.6300719E4,3.388498E3,4.4395835E3,1.2069074E4,1.2391711E4,7.794408E2,3.5462158E2,2.450191E3,5.291006E2,2.0933672E3,1.2768516E3,3.0259375E2,1.3723438E2,0E0,0E0,0E0,0E0,0E0,0E0,0E0,0E0,0E0,0E0,0E0,0E0,0E0,0E0,0E0,0E0,0E0,0E0,0E0,0E0,0E0,0E0,0E0,0E0,0E0,0E0,0E0,0E0,0E0,0E0,0E0,0E0],"parents":[2147483647,0,0,1,1,2,2,3,3,4,4,5,5,6,6,7,7,8,8,9,9,10,10,11,11,12,12,13,13,14,14,15,15,16,16,17,17,18,18,19,19,20,20,21,21,22,22,23,23,24,24,25,25,26,26,27,27,28,28,29,29,30,30],"right_children":[2,4,6,8,10,12,14,16,18,20,22,24,26,28,30,32,34,36,38,40,42,44,46,48,50,52,54,56,58,60,62,-1,-1,-1,-1,-1,-1,-1,-1,-1,-1,-1,-1,-1,-1,-1,-1,-1,-1,-1,-1,-1,-1,-1,-1,-1,-1,-1,-1,-1,-1,-1,-1],"split_conditions":[2.7653396E0,4.9495676E-1,4.070014E-2,-5.502891E-1,-2.9094508E-1,-8.4720755E-1,5.706863E0,2.2467344E-1,-6.0932636E-1,6.519763E-1,9.7943425E-1,2.4981943E-1,8.803079E-1,1.0165021E0,8.648386E0,1E0,-8.457832E-3,4.6389564E-3,3.346907E-1,-6.3217956E-1,2.7446427E0,5.5472517E-1,-4.9308035E-1,1.8340362E0,-2.2963142E-2,8.648386E0,2.0295233E-3,-4.5881784E-1,1.0117918E0,6.1420715E-1,-1.9911698E0,4.125507E-2,-2.0791145E-2,-1.0485697E-1,3.2177564E-2,-1.1665537E-1,-1.53657E-1,-6.0980935E-2,-1.17669836E-1,-1.05029345E-1,-5.0397642E-2,-9.023569E-2,-2.0387208E-3,3.2152474E-2,-2.622055E-2,1.4685417E-2,7.65285E-2,-2.1639988E-2,-1.10243134E-1,-1.9431868E-1,5.648428E-2,3.6926236E-2,1.3793741E-1,-1.7741896E-1,1.2704971E-1,1.20041825E-1,7.6666586E-2,9.690061E-2,1.4613257E-1,1.2783091E-1,1.514855E-1,-1.8196136E-1,1.6309926E-1],"split_indices":[0,2,6,7,1,4,0,5,1,8,9,2,8,9,0,16,13,5,5,1,20,5,14,7,11,0,21,7,2,6,2,0,0,0,0,0,0,0,0,0,0,0,0,0,0,0,0,0,0,0,0,0,0,0,0,0,0,0,0,0,0,0,0],"split_type":[0,0,0,0,0,0,0,0,0,0,0,0,0,0,0,0,0,0,0,0,0,0,0,0,0,0,0,0,0,0,0,0,0,0,0,0,0,0,0,0,0,0,0,0,0,0,0,0,0,0,0,0,0,0,0,0,0,0,0,0,0,0,0],"sum_hessian":[1.2269082E6,9.9721144E5,2.2969683E5,5.2040625E5,4.768052E5,3.0986809E4,1.9871002E5,1.5927545E5,3.611308E5,1.01949625E5,3.7485556E5,5.106267E3,2.5880543E4,1.05218336E5,9.349169E4,1.08457125E5,5.081833E4,1.4911698E5,2.1201381E5,4.6189945E4,5.5759684E4,1.6698658E5,2.0786898E5,4.0541248E3,1.0521423E3,1.6771295E4,9.109248E3,5.7365133E4,4.78532E4,3.5247445E4,5.8244242E4,5.3959113E4,5.449801E4,4.547345E4,5.3448794E3,7.975381E4,6.936318E4,1.2798415E5,8.4029664E4,2.0109451E4,2.6080492E4,6.453492E3,4.930619E4,1.1599773E5,5.0988855E4,4.0159273E4,1.677097E5,2.3170037E3,1.7371212E3,5.8797195E1,9.9334515E2,1.386761E4,2.9036843E3,5.660918E1,9.052639E3,4.2250426E4,1.5114708E4,6.0368223E3,4.1816375E4,6.7312295E3,2.8516217E4,1.0749608E1,5.8233492E4],"tree_param":{"num_deleted":"0","num_feature":"22","num_nodes":"63","size_leaf_vector":"1"}},{"base_weights":[1.1562665E-4,-2.6822227E-1,1.1850489E0,-6.314396E-1,3.4721646E-1,3.2507384E-1,1.2608495E0,-2.5772688E-1,-9.455259E-1,-9.869971E-2,5.112463E-1,-3.2963037E-1,6.118576E-1,1.0954919E0,1.4529829E0,-1.837296E-2,-8.0982846E-1,-1.1004183E0,-4.685508E-1,-8.0023235E-1,-7.7888006E-3,1.3928638E-1,6.6333294E-1,-6.124974E-1,1.0800842E0,7.439159E-1,-7.9700875E-1,8.4793454E-1,1.2259238E0,1.3467257E0,1.518602E0,-9.131383E-2,7.594303E-3,-9.298982E-2,4.050583E-2,-1.2686522E-1,-8.7727256E-2,-2.9005518E-2,-8.048014E-2,-9.523139E-2,-2.447987E-3,-3.2979228E-2,1.811105E-2,-1.5853485E-2,3.418991E-2,4.8156165E-2,8.968046E-2,-1.0173114E-1,3.739322E-3,-2.0348041E-1,1.19435124E-1,4.075731E-2,1.0017409E-1,-1.5533373E-1,-2.742671E-2,5.6011047E-2,1.0634642E-1,1.1324262E-1,1.3391705E-1,1.1323158E-1,1.4052401E-1,1.4622131E-1,1.5623502E-1],"categories":[],"categories_nodes":[],"categories_segments":[],"categories_sizes":[],"default_left":[0,0,0,0,0,0,0,0,0,0,0,0,0,0,0,0,0,0,0,0,0,0,0,0,0,0,0,0,0,0,0,0,0,0,0,0,0,0,0,0,0,0,0,0,0,0,0,0,0,0,0,0,0,0,0,0,0,0,0,0,0,0,0],"id":3,"left_children":[1,3,5,7,9,11,13,15,17,19,21,23,25,27,29,31,33,35,37,39,41,43,45,47,49,51,53,55,57,59,61,-1,-1,-1,-1,-1,-1,-1,-1,-1,-1,-1,-1,-1,-1,-1,-1,-1,-1,-1,-1,-1,-1,-1,-1,-1,-1,-1,-1,-1,-1,-1,-1],"loss_changes":[3.858261E5,2.2116419E5,1.46048125E4,7.303034E4,2.6858219E4,3.4080737E3,6.540125E3,3.7546266E4,2.4975312E4,6.297945E3,1.5186125E4,2.205557E3,2.348936E3,3.5723125E3,6.62E2,1.6726242E4,1.2534398E4,9.578844E3,4.9736777E3,1.3365181E3,5.3176006E3,4.701298E3,8.0858203E3,1.2117848E3,3.3146387E2,1.0003779E3,4.2743396E2,2.3685566E3,7.658906E2,4.546875E2,1.429375E2,0E0,0E0,0E0,0E0,0E0,0E0,0E0,0E0,0E0,0E0,0E0,0E0,0E0,0E0,0E0,0E0,0E0,0E0,0E0,0E0,0E0,0E0,0E0,0E0,0E0,0E0,0E0,0E0,0E0,0E0,0E0,0E0],"parents":[2147483647,0,0,1,1,2,2,3,3,4,4,5,5,6,6,7,7,8,8,9,9,10,10,11,11,12,12,13,13,14,14,15,15,16,16,17,17,18,18,19,19,20,20,21,21,22,22,23,23,24,24,25,25,26,26,27,27,28,28,29,29,30,30],"right_children":[2,4,6,8,10,12,14,16,18,20,22,24,26,28,30,32,34,36,38,40,42,44,46,48,50,52,54,56,58,60,62,-1,-1,-1,-1,-1,-1,-1,-1,-1,-1,-1,-1,-1,-1,-1,-1,-1,-1,-1,-1,-1,-1,-1,-1,-1,-1,-1,-1,-1,-1,-1,-1],"split_conditions":[2.7653396E0,7.586258E-1,-4.2287716E-1,-2.169185E-1,-1.0710564E-1,-6.435341E-1,5.706863E0,3.346907E-1,4.916896E-1,-7.1827865E-1,-4.9208772E-1,7.6880294E-1,1.9094477E0,6.765661E-1,8.648386E0,-7.24074E-1,8.45989E-2,-3.6687553E-1,4.4470793E-1,1.0415777E0,3.307905E0,2.9036984E0,1.2813767E0,-2.0249547E-1,8.197186E-2,4.330604E-1,2.1715899E0,5.112818E-1,1.1215959E0,5.776738E-1,1.4531432E1,-9.131383E-2,7.594303E-3,-9.298982E-2,4.050583E-2,-1.2686522E-1,-8.7727256E-2,-2.9005518E-2,-8.048014E-2,-9.523139E-2,-2.447987E-3,-3.2979228E-2,1.811105E-2,-1.5853485E-2,3.418991E-2,4.8156165E-2,8.968046E-2,-1.0173114E-1,3.739322E-3,-2.0348041E-1,1.19435124E-1,4.075731E-2,1.0017409E-1,-1.5533373E-1,-2.742671E-2,5.6011047E-2,1.0634642E-1,1.1324262E-1,1.3391705E-1,1.1323158E-1,1.4052401E-1,1.4622131E-1,1.5623502E-1],"split_indices":[0,2,6,7,1,1,0,5,9,1,14,2,7,6,0,1,13,13,5,9,20,20,2,13,12,8,7,9,9,6,0,0,0,0,0,0,0,0,0,0,0,0,0,0,0,0,0,0,0,0,0,0,0,0,0,0,0,0,0,0,0,0,0],"split_type":[0,0,0,0,0,0,0,0,0,0,0,0,0,0,0,0,0,0,0,0,0,0,0,0,0,0,0,0,0,0,0,0,0,0,0,0,0,0,0,0,0,0,0,0,0,0,0,0,0,0,0,0,0,0,0,0,0,0,0,0,0,0,0],"sum_hessian":[1.2134306E6,9.8937856E5,2.2405212E5,6.221816E5,3.671969E5,1.8149291E4,2.0590284E5,2.8412262E5,3.38059E5,9.874861E4,2.6844828E5,5.5283545E3,1.2620937E4,1.10666016E5,9.523682E4,1.981983E5,8.592434E4,2.5518811E5,8.287089E4,1.1327768E4,8.742084E4,7.79085E4,1.9053978E5,4.6049175E3,9.2343665E2,1.1539745E4,1.0811915E3,3.8189844E4,7.247617E4,3.636783E4,5.8868996E4,1.8898799E4,1.792995E5,7.819628E4,7.72806E3,1.4549333E5,1.096948E5,5.413544E4,2.8735453E4,9.47084E3,1.8569277E3,3.2322383E4,5.509846E4,3.1543219E4,4.636528E4,1.0713332E5,8.340647E4,2.8371218E3,1.7677958E3,3.208201E1,8.913547E2,5.008518E3,6.531227E3,4.410652E2,6.4012634E2,1.6353943E4,2.18359E4,3.970574E4,3.277043E4,7.8015557E3,2.8566273E4,2.5733836E4,3.313516E4],"tree_param":{"num_deleted":"0","num_feature":"22","num_nodes":"63","size_leaf_vector":"1"}},{"base_weights":[1.8614848E-4,-2.4404177E-1,1.1014655E0,-6.958527E-1,1.792179E-1,5.7692075E-1,1.2171732E0,-1.9339462E-1,-9.152441E-1,-4.622932E-1,3.1322968E-1,-2.919043E-1,7.2021383E-1,1.0714821E0,1.3841828E0,5.953915E-2,-8.506706E-1,-1.0584866E0,-5.6378925E-1,-9.130811E-1,-3.0219176E-1,9.374686E-2,5.510857E-1,-6.923777E-1,1.4902377E-1,5.049865E-1,1.1078186E0,9.6084887E-1,1.2342668E0,1.2899635E0,1.4417104E0,4.51888E-2,-1.5771223E-2,-9.821326E-2,4.1384436E-2,-8.560722E-2,-1.277795E-1,-9.326762E-2,-4.0212154E-2,-2.2001516E-3,-1.0498436E-1,-1.8734293E-2,-8.639818E-2,2.4924966E-2,-1.9751236E-2,1.574597E-2,6.7676574E-2,1.9702507E-2,-1.0858257E-1,9.9633135E-2,-1.7896267E-2,1.1704507E-2,8.230993E-2,9.5386855E-2,1.4020558E-1,7.864719E-2,1.0908353E-1,8.6579226E-2,1.2954462E-1,1.2176859E-1,1.3748853E-1,-1.7699352E-1,1.4423369E-1],"categories":[],"categories_nodes":[],"categories_segments":[],"categories_sizes":[],"default_left":[0,0,0,0,0,0,0,0,0,0,0,0,0,0,0,0,0,0,0,0,0,0,0,0,0,0,0,0,0,0,0,0,0,0,0,0,0,0,0,0,0,0,0,0,0,0,0,0,0,0,0,0,0,0,0,0,0,0,0,0,0,0,0],"id":4,"left_children":[1,3,5,7,9,11,13,15,17,19,21,23,25,27,29,31,33,35,37,39,41,43,45,47,49,51,53,55,57,59,61,-1,-1,-1,-1,-1,-1,-1,-1,-1,-1,-1,-1,-1,-1,-1,-1,-1,-1,-1,-1,-1,-1,-1,-1,-1,-1,-1,-1,-1,-1,-1,-1],"loss_changes":[3.2205388E5,1.8741788E5,1.31906875E4,5.225514E4,4.3502082E4,4.890501E3,4.3310938E3,2.3952086E4,1.6610781E4,6.310453E3,2.1851703E4,9.822312E2,2.8124316E3,1.7116172E3,4.4778125E2,8.86822E3,6.655867E3,1.0405031E4,5.697623E3,2.7926387E3,4.163085E3,9.859845E3,9.937547E3,1.02022156E3,7.360957E2,2.6757344E3,5.4395605E2,1.2826992E3,8.663164E2,1.9142188E2,1.061875E2,0E0,0E0,0E0,0E0,0E0,0E0,0E0,0E0,0E0,0E0,0E0,0E0,0E0,0E0,0E0,0E0,0E0,0E0,0E0,0E0,0E0,0E0,0E0,0E0,0E0,0E0,0E0,0E0,0E0,0E0,0E0,0E0],"parents":[2147483647,0,0,1,1,2,2,3,3,4,4,5,5,6,6,7,7,8,8,9,9,10,10,11,11,12,12,13,13,14,14,15,15,16,16,17,17,18,18,19,19,20,20,21,21,22,22,23,23,24,24,25,25,26,26,27,27,28,28,29,29,30,30],"right_children":[2,4,6,8,10,12,14,16,18,20,22,24,26,28,30,32,34,36,38,40,42,44,46,48,50,52,54,56,58,60,62,-1,-1,-1,-1,-1,-1,-1,-1,-1,-1,-1,-1,-1,-1,-1,-1,-1,-1,-1,-1,-1,-1,-1,-1,-1,-1,-1,-1,-1,-1,-1,-1],"split_conditions":[2.7653396E0,4.0735728E-1,2.572761E-1,-5.502891E-1,-4.0176857E-1,-1.3486437E0,5.706863E0,3.346907E-1,-8.9412406E-2,3.150168E-1,1.1013749E0,1.8461467E-1,5.706863E0,1.1215959E0,8.648386E0,-1.24575E0,1.0813304E-1,4.6389564E-3,2.1666427E0,-1.4255852E0,7.7475965E-1,4.4470793E-1,-4.9308035E-1,-1.5068228E0,3.9315188E-1,4.0369046E-1,1.1589909E1,7.545584E-1,1.11505E0,1.0939801E0,-1.9911698E0,4.51888E-2,-1.5771223E-2,-9.821326E-2,4.1384436E-2,-8.560722E-2,-1.277795E-1,-9.326762E-2,-4.0212154E-2,-2.2001516E-3,-1.0498436E-1,-1.8734293E-2,-8.639818E-2,2.4924966E-2,-1.9751236E-2,1.574597E-2,6.7676574E-2,1.9702507E-2,-1.0858257E-1,9.9633135E-2,-1.7896267E-2,1.1704507E-2,8.230993E-2,9.5386855E-2,1.4020558E-1,7.864719E-2,1.0908353E-1,8.6579226E-2,1.2954462E-1,1.2176859E-1,1.3748853E-1,-1.7699352E-1,1.4423369E-1],"split_indices":[0,2,6,7,1,6,0,5,1,8,2,8,0,9,0,7,13,5,20,5,5,5,14,2,9,8,0,6,2,9,2,0,0,0,0,0,0,0,0,0,0,0,0,0,0,0,0,0,0,0,0,0,0,0,0,0,0,0,0,0,0,0,0],"split_type":[0,0,0,0,0,0,0,0,0,0,0,0,0,0,0,0,0,0,0,0,0,0,0,0,0,0,0,0,0,0,0,0,0,0,0,0,0,0,0,0,0,0,0,0,0,0,0,0,0,0,0,0,0,0,0,0,0,0,0,0,0,0,0],"sum_hessian":[1.1973881E6,9.8004644E5,2.1734162E5,4.7403475E5,5.0601172E5,3.9279496E4,1.7806214E5,1.4407373E5,3.29961E5,8.7439336E4,4.185724E5,5.560945E3,3.371855E4,9.510473E4,8.295741E4,1.04038445E5,4.0035297E4,2.3441747E5,9.554354E4,2.2914809E4,6.4524527E4,2.1769481E5,2.0087758E5,2.913859E3,2.647086E3,2.16816E4,1.2036951E4,5.662658E4,3.847815E4,3.14582E4,5.1499207E4,3.7077188E4,6.696126E4,3.626529E4,3.7700046E3,1.2190658E5,1.1251088E5,2.9112047E4,6.643149E4,3.0491501E3,1.9865658E4,5.357361E4,1.0950918E4,1.4192269E5,7.577213E4,4.8616004E4,1.5226158E5,8.938284E2,2.0200305E3,7.381471E2,1.9089387E3,9.769263E3,1.1912337E4,7.905103E3,4.131848E3,2.4186898E4,3.2439678E4,5.4811484E3,3.2997E4,1.7002547E4,1.4455652E4,9.495077E0,5.148971E4],"tree_param":{"num_deleted":"0","num_feature":"22","num_nodes":"63","size_leaf_vector":"1"}},{"base_weights":[2.2924454E-4,-2.224235E-1,1.0284644E0,-6.130927E-1,1.9641006E-1,5.284611E-1,1.141275E0,-1.11974396E-1,-8.2269204E-1,-9.447504E-2,4.2273843E-1,-2.6475823E-1,6.607734E-1,9.9581033E-1,1.3110714E0,1.4961621E-1,-6.7656875E-1,-1.0827653E0,-6.3815904E-1,-2.6948634E-1,2.1581978E-1,1.3555087E-1,5.5684966E-1,-3.8573194E-1,1.0128312E0,4.6001637E-1,1.0319633E0,8.307379E-1,1.1033332E0,1.2142822E0,1.3707329E0,4.328207E-2,-1.1739714E-2,-8.476363E-2,1.5914116E-2,-9.3126975E-2,-1.2630416E-1,-8.149504E-2,-3.3574067E-2,-1.3380113E-2,-6.6987425E-2,2.9106552E-2,-6.2840916E-2,-5.8333557E-2,1.9614821E-2,1.888823E-2,7.159234E-2,-6.859026E-2,-1.2799322E-4,-1.8554226E-1,1.3415596E-1,3.123251E-2,1.1613567E-1,7.700826E-2,1.1895274E-1,1.0383928E-1,6.1133333E-2,6.11068E-2,1.1439949E-1,1.0358266E-1,1.2491919E-1,1.3177985E-1,1.4105219E-1],"categories":[],"categories_nodes":[],"categories_segments":[],"categories_sizes":[],"default_left":[0,0,0,0,0,0,0,0,0,0,0,0,0,0,0,0,0,0,0,0,0,0,0,0,0,0,0,0,0,0,0,0,0,0,0,0,0,0,0,0,0,0,0,0,0,0,0,0,0,0,0,0,0,0,0,0,0,0,0,0,0,0,0],"id":5,"left_children":[1,3,5,7,9,11,13,15,17,19,21,23,25,27,29,31,33,35,37,39,41,43,45,47,49,51,53,55,57,59,61,-1,-1,-1,-1,-1,-1,-1,-1,-1,-1,-1,-1,-1,-1,-1,-1,-1,-1,-1,-1,-1,-1,-1,-1,-1,-1,-1,-1,-1,-1,-1,-1],"loss_changes":[2.700189E5,1.5863489E5,1.1840875E4,5.268664E4,3.0803518E4,4.056373E3,4.2293906E3,2.1848822E4,1.6973312E4,1.1118678E4,1.0134879E4,8.544203E2,2.4678271E3,1.6365781E3,4.5470312E2,7.6448E3,6.696467E3,4.0079219E3,1.1061078E4,7.111784E3,4.69054E3,3.6492231E3,1.0499488E4,5.826019E2,4.534146E2,2.2264922E3,4.7879102E2,1.6575059E3,1.1174922E3,1.8651953E2,1.0109375E2,0E0,0E0,0E0,0E0,0E0,0E0,0E0,0E0,0E0,0E0,0E0,0E0,0E0,0E0,0E0,0E0,0E0,0E0,0E0,0E0,0E0,0E0,0E0,0E0,0E0,0E0,0E0,0E0,0E0,0E0,0E0,0E0],"parents":[2147483647,0,0,1,1,2,2,3,3,4,4,5,5,6,6,7,7,8,8,9,9,10,10,11,11,12,12,13,13,14,14,15,15,16,16,17,17,18,18,19,19,20,20,21,21,22,22,23,23,24,24,25,25,26,26,27,27,28,28,29,29,30,30],"right_children":[2,4,6,8,10,12,14,16,18,20,22,24,26,28,30,32,34,36,38,40,42,44,46,48,50,52,54,56,58,60,62,-1,-1,-1,-1,-1,-1,-1,-1,-1,-1,-1,-1,-1,-1,-1,-1,-1,-1,-1,-1,-1,-1,-1,-1,-1,-1,-1,-1,-1,-1,-1,-1],"split_conditions":[2.7653396E0,4.7268036E-1,2.572761E-1,-7.2614074E-1,2.0007303E-1,-1.3486437E0,5.706863E0,2.2467344E-1,-6.0932636E-1,1.11505E0,8.841405E-1,1.7381439E0,8.695948E-1,7.08596E-1,8.648386E0,1E0,-2.636126E-1,4.6389564E-3,2.9036984E0,5.5472517E-1,3.117768E-1,2.3448765E-3,-4.9208772E-1,3.4798605E0,9.84033E-1,8.648386E0,8.203127E-1,-9.966906E-1,6.79022E-1,6.2385565E-1,1.4531432E1,4.328207E-2,-1.1739714E-2,-8.476363E-2,1.5914116E-2,-9.3126975E-2,-1.2630416E-1,-8.149504E-2,-3.3574067E-2,-1.3380113E-2,-6.6987425E-2,2.9106552E-2,-6.2840916E-2,-5.8333557E-2,1.9614821E-2,1.888823E-2,7.159234E-2,-6.859026E-2,-1.2799322E-4,-1.8554226E-1,1.3415596E-1,3.123251E-2,1.1613567E-1,7.700826E-2,1.1895274E-1,1.0383928E-1,6.1133333E-2,6.11068E-2,1.1439949E-1,1.0358266E-1,1.2491919E-1,1.3177985E-1,1.4105219E-1],"split_indices":[0,8,6,7,1,6,0,5,1,2,2,10,8,9,0,16,13,5,20,5,13,21,14,20,8,0,2,7,2,6,0,0,0,0,0,0,0,0,0,0,0,0,0,0,0,0,0,0,0,0,0,0,0,0,0,0,0,0,0,0,0,0,0],"split_type":[0,0,0,0,0,0,0,0,0,0,0,0,0,0,0,0,0,0,0,0,0,0,0,0,0,0,0,0,0,0,0,0,0,0,0,0,0,0,0,0,0,0,0,0,0,0,0,0,0,0,0,0,0,0,0,0,0,0,0,0,0,0,0],"sum_hessian":[1.1794321E6,9.694989E5,2.0993327E5,5.0161466E5,4.678842E5,3.8646875E4,1.7128639E5,1.4793277E5,3.5368188E5,2.0474255E5,2.6314166E5,5.524742E3,3.3122133E4,9.225677E4,7.902962E4,1.0109409E5,4.6838676E4,1.4679298E5,2.068889E5,1.3090828E5,7.3834266E4,8.3766016E4,1.7937564E5,5.0474976E3,4.7724457E2,2.1497506E4,1.1624626E4,3.6393336E4,5.5863434E4,3.0145621E4,4.8883996E4,4.9059312E4,5.2034785E4,3.8880027E4,7.958649E3,7.976684E4,6.702613E4,1.3056182E5,7.632708E4,9.777515E4,3.3133137E4,6.779259E4,6.041667E3,6.511328E3,7.725469E4,5.414056E4,1.2523508E5,2.8339978E3,2.2134998E3,4.859493E1,4.2864966E2,1.7759152E4,3.7383538E3,4.3689927E3,7.2556333E3,1.8695395E4,1.7697941E4,4.2635327E3,5.1599902E4,4.9372896E3,2.5208332E4,2.0991463E4,2.7892535E4],"tree_param":{"num_deleted":"0","num_feature":"22","num_nodes":"63","size_leaf_vector":"1"}},{"base_weights":[3.0523838E-4,-2.0278126E-1,9.6351534E-1,-6.0698503E-1,1.4079222E-1,4.846622E-1,1.0743216E0,-2.9834938E-1,-8.8381785E-1,-8.910327E-2,4.094738E-1,-1.1330736E-1,6.3852066E-1,9.281573E-1,1.2484574E0,-8.182265E-2,-8.2782924E-1,-1.1680827E0,-7.736719E-1,-5.828172E-1,2.9367052E-2,-1.12549186E-1,4.9289262E-1,-2.807428E-1,1.0861669E0,6.884306E-1,-6.505109E-1,8.073631E-1,1.0745986E0,1.1481502E0,1.310964E0,-8.029323E-2,2.0229665E-3,-9.457248E-2,4.0660396E-2,-1.2746273E-1,-9.2022404E-2,-5.27352E-2,-9.560259E-2,-5.7565183E-3,-7.143424E-2,-6.780767E-2,9.904359E-3,-5.7892878E-2,6.6778995E-3,7.94479E-3,5.789074E-2,5.7976343E-2,-5.112324E-2,-2.5435176E-1,1.2109073E-1,5.234902E-2,9.9556066E-2,-1.231954E-1,9.763158E-3,9.3113124E-2,5.8439225E-2,6.666345E-2,1.1328792E-1,1.0731306E-1,1.2370139E-1,1.2563403E-1,1.3522416E-1],"categories":[],"categories_nodes":[],"categories_segments":[],"categories_sizes":[],"default_left":[0,0,0,0,0,0,0,0,0,0,0,0,0,0,0,0,0,0,0,0,0,0,0,0,0,0,0,0,0,0,0,0,0,0,0,0,0,0,0,0,0,0,0,0,0,0,0,0,0,0,0,0,0,0,0,0,0,0,0,0,0,0,0],"id":6,"left_children":[1,3,5,7,9,11,13,15,17,19,21,23,25,27,29,31,33,35,37,39,41,43,45,47,49,51,53,55,57,59,61,-1,-1,-1,-1,-1,-1,-1,-1,-1,-1,-1,-1,-1,-1,-1,-1,-1,-1,-1,-1,-1,-1,-1,-1,-1,-1,-1,-1,-1,-1,-1,-1],"loss_changes":[2.2709452E5,1.3314869E5,1.0725594E4,3.763786E4,3.2012105E4,3.4951816E3,4.1771875E3,2.3880377E4,7.2701406E3,1.6335697E4,1.0406387E4,1.56183E3,1.9443477E3,1.5779688E3,4.6817188E2,1.0879683E4,8.798996E3,1.7113906E3,7.5175E3,3.7338086E3,1.1102694E4,2.7538506E3,7.327383E3,1.3536699E3,4.343883E2,1.4730859E3,4.9028085E2,1.3493125E3,9.5839844E2,1.9044922E2,1.0233594E2,0E0,0E0,0E0,0E0,0E0,0E0,0E0,0E0,0E0,0E0,0E0,0E0,0E0,0E0,0E0,0E0,0E0,0E0,0E0,0E0,0E0,0E0,0E0,0E0,0E0,0E0,0E0,0E0,0E0,0E0,0E0,0E0],"parents":[2147483647,0,0,1,1,2,2,3,3,4,4,5,5,6,6,7,7,8,8,9,9,10,10,11,11,12,12,13,13,14,14,15,15,16,16,17,17,18,18,19,19,20,20,21,21,22,22,23,23,24,24,25,25,26,26,27,27,28,28,29,29,30,30],"right_children":[2,4,6,8,10,12,14,16,18,20,22,24,26,28,30,32,34,36,38,40,42,44,46,48,50,52,54,56,58,60,62,-1,-1,-1,-1,-1,-1,-1,-1,-1,-1,-1,-1,-1,-1,-1,-1,-1,-1,-1,-1,-1,-1,-1,-1,-1,-1,-1,-1,-1,-1,-1,-1],"split_conditions":[2.7653396E0,3.5828882E-1,2.572761E-1,-5.8533426E-2,9.7943425E-1,-6.5506047E-1,5.706863E0,3.346907E-1,-8.223485E-1,-5.0910556E-1,-1.6157968E-1,1.0240495E0,1.9094477E0,1.0165021E0,8.648386E0,-7.24074E-1,1.0813304E-1,-2.4175939E-1,-1.05378285E-1,-8.7549895E-1,2.8027296E-3,2.9234664E0,-4.9308035E-1,-4.1372022E-1,-3.0268535E-1,5.706863E0,4.575478E-1,-6.8558156E-1,1.0117918E0,1.0939801E0,1.4531432E1,-8.029323E-2,2.0229665E-3,-9.457248E-2,4.0660396E-2,-1.2746273E-1,-9.2022404E-2,-5.27352E-2,-9.560259E-2,-5.7565183E-3,-7.143424E-2,-6.780767E-2,9.904359E-3,-5.7892878E-2,6.6778995E-3,7.94479E-3,5.789074E-2,5.7976343E-2,-5.112324E-2,-2.5435176E-1,1.2109073E-1,5.234902E-2,9.9556066E-2,-1.231954E-1,9.763158E-3,9.3113124E-2,5.8439225E-2,6.666345E-2,1.1328792E-1,1.0731306E-1,1.2370139E-1,1.2563403E-1,1.3522416E-1],"split_indices":[0,2,6,7,9,1,0,5,1,1,11,2,7,9,0,1,13,13,5,5,21,20,14,7,14,0,11,7,2,9,0,0,0,0,0,0,0,0,0,0,0,0,0,0,0,0,0,0,0,0,0,0,0,0,0,0,0,0,0,0,0,0,0],"split_type":[0,0,0,0,0,0,0,0,0,0,0,0,0,0,0,0,0,0,0,0,0,0,0,0,0,0,0,0,0,0,0,0,0,0,0,0,0,0,0,0,0,0,0,0,0,0,0,0,0,0,0,0,0,0,0,0,0,0,0,0,0,0,0],"sum_hessian":[1.1609241E6,9.587738E5,2.0215034E5,4.4051753E5,5.1825628E5,3.798822E4,1.6416212E5,2.082952E5,2.3222231E5,2.79287E5,2.3896928E5,7.774183E3,3.0214035E4,8.925259E4,7.490953E4,1.4783881E5,6.0456395E4,6.4849355E4,1.6737295E5,5.404706E4,2.2523994E5,3.292555E4,2.0604373E5,6.8225806E3,9.516027E2,2.9088234E4,1.1257999E3,4.8912715E4,4.0339875E4,2.876628E4,4.614325E4,1.8327611E4,1.295112E5,5.5186043E4,5.2703506E3,4.5350758E4,1.94986E4,7.120058E4,9.617238E4,1.082367E4,4.322339E4,2.0194213E4,2.0504573E5,9.143579E3,2.3781973E4,3.5484285E4,1.7055945E5,1.4410547E3,5.381526E3,3.0972662E1,9.2063007E2,1.8926629E4,1.0161605E4,6.331108E2,4.9268915E2,3.1451322E4,1.746139E4,5.044042E3,3.5295836E4,1.5605262E4,1.3161018E4,1.9874387E4,2.6268861E4],"tree_param":{"num_deleted":"0","num_feature":"22","num_nodes":"63","size_leaf_vector":"1"}},{"base_weights":[3.151449E-4,-1.8500356E-1,9.0450567E-1,-5.239864E-1,1.6452596E-1,3.6725464E-1,9.985045E-1,-3.4222063E-2,-6.9845444E-1,-1.2783493E-1,3.3985174E-1,-1.9544834E-1,5.462107E-1,8.453168E-1,1.1872399E0,-5.058968E-1,2.2100045E-1,-8.3235306E-1,-3.605777E-1,-3.8725334E-1,4.9945556E-2,1.7965697E-1,5.374006E-1,-4.345796E-1,7.798904E-1,6.071646E-1,-6.5962875E-1,6.748372E-1,9.645645E-1,1.0763555E0,1.2576454E0,-1.9028295E-2,-8.089932E-2,2.743727E-2,-1.0730717E-1,-1.0169759E-1,-5.9521258E-2,-6.488701E-2,-1.7863547E-2,-1.079126E-1,-2.613369E-2,-6.427575E-2,1.2733172E-2,-1.3032231E-2,3.1238979E-2,1.4189852E-3,6.1795156E-2,-8.055614E-2,1.3742997E-2,-2.1622045E-1,9.243422E-2,-2.2320361E-1,6.2869884E-2,-1.4251083E-1,-1.5735485E-2,9.062758E-2,4.8371356E-2,4.9201492E-2,1.0097549E-1,8.757994E-2,1.1263465E-1,-1.9008228E-1,1.2584347E-1],"categories":[],"categories_nodes":[],"categories_segments":[],"categories_sizes":[],"default_left":[0,0,0,0,0,0,0,0,0,0,0,0,0,0,0,0,0,0,0,0,0,0,0,0,0,0,0,0,0,0,0,0,0,0,0,0,0,0,0,0,0,0,0,0,0,0,0,0,0,0,0,0,0,0,0,0,0,0,0,0,0,0,0],"id":7,"left_children":[1,3,5,7,9,11,13,15,17,19,21,23,25,27,29,31,33,35,37,39,41,43,45,47,49,51,53,55,57,59,61,-1,-1,-1,-1,-1,-1,-1,-1,-1,-1,-1,-1,-1,-1,-1,-1,-1,-1,-1,-1,-1,-1,-1,-1,-1,-1,-1,-1,-1,-1,-1,-1],"loss_changes":[1.9139861E5,1.1231829E5,9.811406E3,4.1120984E4,2.3923297E4,2.9136309E3,4.779797E3,1.521686E4,1.6052922E4,8.0692617E3,9.232906E3,1.6287822E3,1.6138823E3,1.8549531E3,5.7697656E2,4.2455127E3,5.6653936E3,1.11254375E4,5.2824307E3,6.197871E3,5.565319E3,6.6288833E3,5.5060703E3,1.190133E3,5.864155E2,1.2789966E3,4.0606943E2,1.6614922E3,1.1463906E3,2.8752734E2,1.153125E2,0E0,0E0,0E0,0E0,0E0,0E0,0E0,0E0,0E0,0E0,0E0,0E0,0E0,0E0,0E0,0E0,0E0,0E0,0E0,0E0,0E0,0E0,0E0,0E0,0E0,0E0,0E0,0E0,0E0,0E0,0E0,0E0],"parents":[2147483647,0,0,1,1,2,2,3,3,4,4,5,5,6,6,7,7,8,8,9,9,10,10,11,11,12,12,13,13,14,14,15,15,16,16,17,17,18,18,19,19,20,20,21,21,22,22,23,23,24,24,25,25,26,26,27,27,28,28,29,29,30,30],"right_children":[2,4,6,8,10,12,14,16,18,20,22,24,26,28,30,32,34,36,38,40,42,44,46,48,50,52,54,56,58,60,62,-1,-1,-1,-1,-1,-1,-1,-1,-1,-1,-1,-1,-1,-1,-1,-1,-1,-1,-1,-1,-1,-1,-1,-1,-1,-1,-1,-1,-1,-1,-1,-1],"split_conditions":[2.7653396E0,4.6296787E-1,4.070014E-2,-8.345643E-1,5.4642335E-2,-6.435341E-1,5.706863E0,-4.0601915E-1,-4.378694E-2,3.296833E0,1.1858325E0,7.6880294E-1,1.9094477E0,7.08596E-1,8.648386E0,2.2467344E-1,1.2148286E0,-3.6687553E-1,-4.0601915E-1,3.2769367E-3,-7.417502E-1,-4.8637044E-1,-1.6157968E-1,-2.0249547E-1,8.197186E-2,2.0295233E-3,1.5291606E0,-1.0381812E0,6.79022E-1,6.1420715E-1,-1.9911698E0,-1.9028295E-2,-8.089932E-2,2.743727E-2,-1.0730717E-1,-1.0169759E-1,-5.9521258E-2,-6.488701E-2,-1.7863547E-2,-1.079126E-1,-2.613369E-2,-6.427575E-2,1.2733172E-2,-1.3032231E-2,3.1238979E-2,1.4189852E-3,6.1795156E-2,-8.055614E-2,1.3742997E-2,-2.1622045E-1,9.243422E-2,-2.2320361E-1,6.2869884E-2,-1.4251083E-1,-1.5735485E-2,9.062758E-2,4.8371356E-2,4.9201492E-2,1.0097549E-1,8.757994E-2,1.1263465E-1,-1.9008228E-1,1.2584347E-1],"split_indices":[0,8,6,7,1,1,0,13,1,20,2,2,7,9,0,5,5,13,13,21,1,14,11,13,12,21,14,7,2,6,2,0,0,0,0,0,0,0,0,0,0,0,0,0,0,0,0,0,0,0,0,0,0,0,0,0,0,0,0,0,0,0,0],"split_type":[0,0,0,0,0,0,0,0,0,0,0,0,0,0,0,0,0,0,0,0,0,0,0,0,0,0,0,0,0,0,0,0,0,0,0,0,0,0,0,0,0,0,0,0,0,0,0,0,0,0,0,0,0,0,0,0,0,0,0,0,0,0,0],"sum_hessian":[1.1422436E6,9.479558E5,1.9428783E5,4.8123806E5,4.6671775E5,2.8931959E4,1.6535588E5,1.2640285E5,3.5483522E5,1.7496266E5,2.917551E5,6.9810156E3,2.1950943E4,9.127648E4,7.407939E4,4.4381242E4,8.202161E4,2.5412533E5,1.0070988E5,7.114551E4,1.0381715E5,1.6111052E5,1.3064456E5,5.6068867E3,1.3741288E3,2.0895209E4,1.0557343E3,3.7570855E4,5.370562E4,2.8775691E4,4.5303703E4,2.1742467E4,2.2638775E4,7.877349E4,3.2481174E3,1.4288255E5,1.1124279E5,3.896547E4,6.174441E4,1.0953234E4,6.0192273E4,1.0431837E4,9.3385305E4,4.830376E4,1.1280676E5,1.7430123E4,1.1321444E5,3.4008364E3,2.2060503E3,6.3656113E1,1.3104728E3,1.5651614E2,2.0738693E4,4.1754562E2,6.381886E2,1.6991492E4,2.0579365E4,4.6886724E3,4.901695E4,5.745239E3,2.3030453E4,1.0715828E1,4.529299E4],"tree_param":{"num_deleted":"0","num_feature":"22","num_nodes":"63","size_leaf_vector":"1"}},{"base_weights":[3.635526E-4,-1.6873123E-1,8.504811E-1,-5.768517E-1,8.406761E-2,4.4799235E-1,9.718678E-1,-7.5157267E-1,-1.233584E-1,-2.6348096E-1,2.2979069E-1,2.7220216E-1,8.8296914E-1,8.2719034E-1,1.1506454E0,-5.524184E-1,-9.8410475E-1,8.656703E-2,-6.1379874E-1,-6.2313795E-1,-1.3500772E-1,3.5452566E-1,-2.284027E-2,1.5321845E-1,1.154915E0,-1.9666809E0,9.3517137E-1,7.2870094E-1,9.781174E-1,1.0445501E0,1.2178907E0,-9.354093E-2,-4.004885E-2,-1.0631174E-1,-2.5001112E-2,2.7225766E-2,-1.5727893E-2,-7.62145E-2,5.481263E-2,-9.807917E-2,-4.7815766E-2,-2.6487168E-3,-6.403948E-2,4.660327E-2,-2.2983782E-2,-7.2187774E-2,7.4601504E-3,-4.099058E-2,2.6798962E-2,-1.7717858E-1,1.2068873E-1,-2.6452908E-1,1.121486E-1,2.7626509E-2,1.05930924E-1,6.335856E-2,9.087635E-2,5.7995714E-2,1.0428484E-1,9.762674E-2,1.1458331E-1,1.2187731E-1,-3.4545252E-1],"categories":[],"categories_nodes":[],"categories_segments":[],"categories_sizes":[],"default_left":[0,0,0,0,0,0,0,0,0,0,0,0,0,0,0,0,0,0,0,0,0,0,0,0,0,0,0,0,0,0,0,0,0,0,0,0,0,0,0,0,0,0,0,0,0,0,0,0,0,0,0,0,0,0,0,0,0,0,0,0,0,0,0],"id":8,"left_children":[1,3,5,7,9,11,13,15,17,19,21,23,25,27,29,31,33,35,37,39,41,43,45,47,49,51,53,55,57,59,61,-1,-1,-1,-1,-1,-1,-1,-1,-1,-1,-1,-1,-1,-1,-1,-1,-1,-1,-1,-1,-1,-1,-1,-1,-1,-1,-1,-1,-1,-1,-1,-1],"loss_changes":[1.6155216E5,9.671228E4,9.1090625E3,2.8409219E4,2.93159E4,3.3033906E3,3.7042031E3,1.1985609E4,1.0266927E4,7.901297E3,1.2851787E4,3.2316545E3,1.8515986E3,1.1762617E3,4.5583594E2,8.112242E3,6.9255625E3,3.1620237E3,5.152507E3,2.3332441E3,6.910256E3,1.7790996E4,9.18259E3,1.7527004E3,5.580752E2,4.72422E2,9.985635E2,8.2008203E2,8.051543E2,1.7082812E2,1.6585938E2,0E0,0E0,0E0,0E0,0E0,0E0,0E0,0E0,0E0,0E0,0E0,0E0,0E0,0E0,0E0,0E0,0E0,0E0,0E0,0E0,0E0,0E0,0E0,0E0,0E0,0E0,0E0,0E0,0E0,0E0,0E0,0E0],"parents":[2147483647,0,0,1,1,2,2,3,3,4,4,5,5,6,6,7,7,8,8,9,9,10,10,11,11,12,12,13,13,14,14,15,15,16,16,17,17,18,18,19,19,20,20,21,21,22,22,23,23,24,24,25,25,26,26,27,27,28,28,29,29,30,30],"right_children":[2,4,6,8,10,12,14,16,18,20,22,24,26,28,30,32,34,36,38,40,42,44,46,48,50,52,54,56,58,60,62,-1,-1,-1,-1,-1,-1,-1,-1,-1,-1,-1,-1,-1,-1,-1,-1,-1,-1,-1,-1,-1,-1,-1,-1,-1,-1,-1,-1,-1,-1,-1,-1],"split_conditions":[2.7653396E0,1.5919466E-1,3.773184E-1,6.2385565E-1,-1.9908853E-1,8.203127E-1,5.706863E0,4.6389564E-3,3.346907E-1,-6.664458E-1,5.5472517E-1,1.1589909E1,6.1051443E-2,1.1215959E0,8.648386E0,-8.2880026E-1,8.45989E-2,1E0,8.45989E-2,3.0680728E0,7.7475965E-1,3.117768E-1,2.3199077E0,-7.417502E-1,-8.433686E-1,1E0,8.110132E-1,8.638311E-1,1.11505E0,1.1596943E0,7.717766E-1,-9.354093E-2,-4.004885E-2,-1.0631174E-1,-2.5001112E-2,2.7225766E-2,-1.5727893E-2,-7.62145E-2,5.481263E-2,-9.807917E-2,-4.7815766E-2,-2.6487168E-3,-6.403948E-2,4.660327E-2,-2.2983782E-2,-7.2187774E-2,7.4601504E-3,-4.099058E-2,2.6798962E-2,-1.7717858E-1,1.2068873E-1,-2.6452908E-1,1.121486E-1,2.7626509E-2,1.05930924E-1,6.335856E-2,9.087635E-2,5.7995714E-2,1.0428484E-1,9.762674E-2,1.1458331E-1,1.2187731E-1,-3.4545252E-1],"split_indices":[0,2,6,6,1,2,0,5,5,1,5,0,12,9,0,1,13,16,13,20,5,13,20,1,4,18,9,6,2,10,7,0,0,0,0,0,0,0,0,0,0,0,0,0,0,0,0,0,0,0,0,0,0,0,0,0,0,0,0,0,0,0,0],"split_type":[0,0,0,0,0,0,0,0,0,0,0,0,0,0,0,0,0,0,0,0,0,0,0,0,0,0,0,0,0,0,0,0,0,0,0,0,0,0,0,0,0,0,0,0,0,0,0,0,0,0,0,0,0,0,0,0,0,0,0,0,0,0,0],"sum_hessian":[1.1238356E6,9.3738375E5,1.8645189E5,3.585448E5,5.7883894E5,4.3203684E4,1.432482E5,2.5882473E5,9.972008E4,1.7100125E5,4.078377E5,3.0770012E4,1.2433674E4,7.917815E4,6.4070055E4,1.394203E5,1.19404445E5,6.9830875E4,2.9889205E4,4.5005594E4,1.25995664E5,2.7303028E5,1.348074E5,2.7116115E4,3.6538955E3,2.2301315E2,1.221066E4,4.791586E4,3.126229E4,2.48616E4,3.9208457E4,3.9597137E4,9.982315E4,1.0780106E5,1.1603386E4,3.96426E4,3.0188271E4,2.6505516E4,3.383689E3,1.2979794E4,3.20258E4,1.0372425E5,2.2271408E4,2.292798E5,4.3750496E4,1.649164E4,1.1831577E5,4.590462E3,2.2525654E4,6.3176327E1,3.5907192E3,1.8295345E2,4.0059715E1,1.9362968E3,1.0274364E4,3.1356678E4,1.6559182E4,4.3731304E3,2.688916E4,1.485639E4,1.000521E4,3.9201793E4,6.6638265E0],"tree_param":{"num_deleted":"0","num_feature":"22","num_nodes":"63","size_leaf_vector":"1"}},{"base_weights":[3.527413E-4,-1.5396851E-1,8.003771E-1,-4.911181E-1,1.07543364E-1,4.1209283E-1,9.209465E-1,-1.396956E-1,-6.983797E-1,-7.534173E-2,3.3602527E-1,2.3306873E-1,7.933605E-1,7.742699E-1,1.1070023E0,-5.3615725E-1,7.655946E-2,-8.351685E-1,-4.083912E-1,-3.1711242E-1,7.163001E-2,-1.0315019E-1,4.068883E-1,1.2665582E-1,1.0955465E0,5.5982184E-1,9.623385E-1,6.767175E-1,9.2661285E-1,1.0278846E0,1.2086607E0,-4.2849675E-2,-1.1373676E-1,1.245598E-2,-1.0999363E-1,-9.322289E-2,-5.0816942E-2,-7.964689E-2,-2.727989E-2,1.645595E-2,-4.380907E-2,1.959387E-2,-2.0759333E-2,5.6771482E-3,-5.007375E-2,5.675516E-3,5.071196E-2,3.374007E-2,-2.1971988E-2,1.1436565E-1,-3.0578938E-1,1.2493836E-1,2.0084232E-2,-3.0685762E-1,9.799596E-2,7.62014E-2,4.8083916E-2,5.354318E-2,9.920447E-2,9.263495E-2,1.0899766E-1,-3.427191E-1,1.2092622E-1],"categories":[],"categories_nodes":[],"categories_segments":[],"categories_sizes":[],"default_left":[0,0,0,0,0,0,0,0,0,0,0,0,0,0,0,0,0,0,0,0,0,0,0,0,0,0,0,0,0,0,0,0,0,0,0,0,0,0,0,0,0,0,0,0,0,0,0,0,0,0,0,0,0,0,0,0,0,0,0,0,0,0,0],"id":9,"left_children":[1,3,5,7,9,11,13,15,17,19,21,23,25,27,29,31,33,35,37,39,41,43,45,47,49,51,53,55,57,59,61,-1,-1,-1,-1,-1,-1,-1,-1,-1,-1,-1,-1,-1,-1,-1,-1,-1,-1,-1,-1,-1,-1,-1,-1,-1,-1,-1,-1,-1,-1,-1,-1],"loss_changes":[1.3651942E5,8.172922E4,8.370531E3,2.9493086E4,2.181402E4,2.8917588E3,3.7225781E3,1.2879479E4,1.01030625E4,1.0303079E4,7.222949E3,2.6460925E3,5.336826E2,1.13325E3,4.824922E2,3.4312979E3,5.4893423E3,5.4924297E3,4.2956387E3,6.388002E3,6.259337E3,2.0503481E3,7.013336E3,1.8736971E3,6.3624414E2,1.407106E3,5.6078906E2,7.7681445E2,7.6174414E2,2.1226172E2,7.751953E1,0E0,0E0,0E0,0E0,0E0,0E0,0E0,0E0,0E0,0E0,0E0,0E0,0E0,0E0,0E0,0E0,0E0,0E0,0E0,0E0,0E0,0E0,0E0,0E0,0E0,0E0,0E0,0E0,0E0,0E0,0E0,0E0],"parents":[2147483647,0,0,1,1,2,2,3,3,4,4,5,5,6,6,7,7,8,8,9,9,10,10,11,11,12,12,13,13,14,14,15,15,16,16,17,17,18,18,19,19,20,20,21,21,22,22,23,23,24,24,25,25,26,26,27,27,28,28,29,29,30,30],"right_children":[2,4,6,8,10,12,14,16,18,20,22,24,26,28,30,32,34,36,38,40,42,44,46,48,50,52,54,56,58,60,62,-1,-1,-1,-1,-1,-1,-1,-1,-1,-1,-1,-1,-1,-1,-1,-1,-1,-1,-1,-1,-1,-1,-1,-1,-1,-1,-1,-1,-1,-1,-1,-1],"split_conditions":[2.7653396E0,2.9527965E-1,3.773184E-1,-5.502891E-1,1.0489676E0,8.695948E-1,5.706863E0,-4.0601915E-1,-2.5736886E-1,-1.2471601E-1,-1.5703155E-1,1.1589909E1,8.3100945E-1,1.1215959E0,1.1589909E1,1.1048113E0,1.2148286E0,3.9945464E-3,-8.2880026E-1,-8.7549895E-1,5.5472517E-1,1E0,-4.9308035E-1,3.7920517E-1,8.7379724E-1,8.4323204E-1,3.0822414E-1,-5.784063E-1,1.11505E0,8.010279E-1,-2.6726947E0,-4.2849675E-2,-1.1373676E-1,1.245598E-2,-1.0999363E-1,-9.322289E-2,-5.0816942E-2,-7.964689E-2,-2.727989E-2,1.645595E-2,-4.380907E-2,1.959387E-2,-2.0759333E-2,5.6771482E-3,-5.007375E-2,5.675516E-3,5.071196E-2,3.374007E-2,-2.1971988E-2,1.1436565E-1,-3.0578938E-1,1.2493836E-1,2.0084232E-2,-3.0685762E-1,9.799596E-2,7.62014E-2,4.8083916E-2,5.354318E-2,9.920447E-2,9.263495E-2,1.0899766E-1,-3.427191E-1,1.2092622E-1],"split_indices":[0,8,6,7,2,8,0,13,13,1,11,0,2,9,0,5,5,1,1,5,5,19,14,7,12,9,12,7,2,6,11,0,0,0,0,0,0,0,0,0,0,0,0,0,0,0,0,0,0,0,0,0,0,0,0,0,0,0,0,0,0,0,0],"split_type":[0,0,0,0,0,0,0,0,0,0,0,0,0,0,0,0,0,0,0,0,0,0,0,0,0,0,0,0,0,0,0,0,0,0,0,0,0,0,0,0,0,0,0,0,0,0,0,0,0,0,0,0,0,0,0,0,0,0,0,0,0,0,0],"sum_hessian":[1.1057699E6,9.269634E5,1.7880644E5,4.0492284E5,5.2204053E5,4.2368023E4,1.3643842E5,1.5021958E5,2.5470325E5,2.899527E5,2.3208784E5,2.8831713E4,1.3536309E4,7.629589E4,6.014253E4,5.301867E4,9.720091E4,1.730656E5,8.163766E4,1.096219E5,1.803308E5,3.2245436E4,1.998424E5,2.5666156E4,3.1655557E3,5.6844053E3,7.8519033E3,4.651536E4,2.9780527E4,3.382707E4,2.6315459E4,4.496786E4,8.0508115E3,9.3391484E4,3.8094238E3,1.3345223E5,3.9613363E4,2.1136932E4,6.0500727E4,2.2005848E4,8.7616055E4,1.2477981E5,5.555099E4,2.2996432E4,9.249004E3,4.447646E4,1.5536594E5,1.5957304E4,9.708854E3,3.130025E3,3.5530926E1,1.9452688E3,3.7391362E3,3.342135E1,7.818482E3,3.2402559E4,1.4112801E4,4.268812E3,2.5511717E4,1.2842491E4,2.098458E4,2.6746304E0,2.6312783E4],"tree_param":{"num_deleted":"0","num_feature":"22","num_nodes":"63","size_leaf_vector":"1"}},{"base_weights":[3.7333422E-4,-1.4053673E-1,7.534407E-1,-4.622265E-1,9.641863E-2,4.129356E-1,8.85487E-1,-1.9949347E-1,-7.064881E-1,-7.396947E-2,3.0722737E-1,3.0320683E-1,9.7730595E-1,7.383871E-1,1.0737244E0,-2.630576E-2,-6.6136473E-1,-5.2755505E-1,-8.6485046E-1,-5.621796E-1,-5.9869997E-3,-3.1198797E-1,3.5399553E-1,9.272216E-2,6.668497E-1,1.0030891E0,-2.0009084E0,6.4503336E-1,8.816315E-1,9.927502E-1,1.1777772E0,3.54244E-2,-1.4941233E-2,-7.689883E-2,3.5786845E-2,-7.0640765E-2,-2.7265538E-2,-9.592953E-2,-4.0497128E-2,-7.572069E-2,-2.802152E-2,-6.345289E-2,5.2883597E-3,-6.713793E-2,4.7306655E-4,4.5346323E-2,9.2439605E-3,8.870278E-2,1.7320196E-3,-2.7150357E-2,7.9378426E-2,-6.7152004E-3,1.02985E-1,-1.6818403E-1,-2.9756436E-1,5.5121463E-2,8.077414E-2,4.6802722E-2,9.468983E-2,9.279996E-2,1.0806936E-1,-2.7680218E-1,1.17842436E-1],"categories":[],"categories_nodes":[],"categories_segments":[],"categories_sizes":[],"default_left":[0,0,0,0,0,0,0,0,0,0,0,0,0,0,0,0,0,0,0,0,0,0,0,0,0,0,0,0,0,0,0,0,0,0,0,0,0,0,0,0,0,0,0,0,0,0,0,0,0,0,0,0,0,0,0,0,0,0,0,0,0,0,0],"id":10,"left_children":[1,3,5,7,9,11,13,15,17,19,21,23,25,27,29,31,33,35,37,39,41,43,45,47,49,51,53,55,57,59,61,-1,-1,-1,-1,-1,-1,-1,-1,-1,-1,-1,-1,-1,-1,-1,-1,-1,-1,-1,-1,-1,-1,-1,-1,-1,-1,-1,-1,-1,-1,-1,-1],"loss_changes":[1.1541672E5,6.984E4,7.7079297E3,2.494011E4,1.895093E4,2.9664985E3,3.4197812E3,1.4976951E4,5.7062266E3,9.683811E3,6.829539E3,3.0700515E3,6.007876E2,9.267617E2,4.5538672E2,6.379584E3,5.601324E3,4.310623E3,4.6398125E3,1.9609062E3,9.476768E3,1.885102E3,5.7044688E3,1.5216377E3,1.7517256E3,2.2150586E2,1.5914551E1,6.4050977E2,7.381035E2,1.7255664E2,6.3804688E1,0E0,0E0,0E0,0E0,0E0,0E0,0E0,0E0,0E0,0E0,0E0,0E0,0E0,0E0,0E0,0E0,0E0,0E0,0E0,0E0,0E0,0E0,0E0,0E0,0E0,0E0,0E0,0E0,0E0,0E0,0E0,0E0],"parents":[2147483647,0,0,1,1,2,2,3,3,4,4,5,5,6,6,7,7,8,8,9,9,10,10,11,11,12,12,13,13,14,14,15,15,16,16,17,17,18,18,19,19,20,20,21,21,22,22,23,23,24,24,25,25,26,26,27,27,28,28,29,29,30,30],"right_children":[2,4,6,8,10,12,14,16,18,20,22,24,26,28,30,32,34,36,38,40,42,44,46,48,50,52,54,56,58,60,62,-1,-1,-1,-1,-1,-1,-1,-1,-1,-1,-1,-1,-1,-1,-1,-1,-1,-1,-1,-1,-1,-1,-1,-1,-1,-1,-1,-1,-1,-1,-1,-1],"split_conditions":[2.7653396E0,2.9938567E-1,4.7571027E-1,-5.8533426E-2,9.7943425E-1,8.648386E0,5.706863E0,3.346907E-1,-1.05378285E-1,-6.3217956E-1,-9.901151E-1,6.692424E-1,2.2968159E0,1.1215959E0,1.1589909E1,-1.2280962E0,1.0813304E-1,-4.7382897E-1,3.4315896E-1,3.6700785E0,2.8027296E-3,5.855037E-1,7.7475965E-1,-1.0816395E0,5.015659E-1,-8.459962E-1,-8.433686E-1,8.638311E-1,1.11505E0,1.1164552E0,-2.6726947E0,3.54244E-2,-1.4941233E-2,-7.689883E-2,3.5786845E-2,-7.0640765E-2,-2.7265538E-2,-9.592953E-2,-4.0497128E-2,-7.572069E-2,-2.802152E-2,-6.345289E-2,5.2883597E-3,-6.713793E-2,4.7306655E-4,4.5346323E-2,9.2439605E-3,8.870278E-2,1.7320196E-3,-2.7150357E-2,7.9378426E-2,-6.7152004E-3,1.02985E-1,-1.6818403E-1,-2.9756436E-1,5.5121463E-2,8.077414E-2,4.6802722E-2,9.468983E-2,9.279996E-2,1.0806936E-1,-2.7680218E-1,1.17842436E-1],"split_indices":[0,2,6,7,9,0,0,5,5,1,11,2,14,9,0,7,13,2,1,20,21,1,5,7,9,4,4,6,2,10,11,0,0,0,0,0,0,0,0,0,0,0,0,0,0,0,0,0,0,0,0,0,0,0,0,0,0,0,0,0,0,0,0],"split_type":[0,0,0,0,0,0,0,0,0,0,0,0,0,0,0,0,0,0,0,0,0,0,0,0,0,0,0,0,0,0,0,0,0,0,0,0,0,0,0,0,0,0,0,0,0,0,0,0,0,0,0,0,0,0,0,0,0,0,0,0,0,0,0],"sum_hessian":[1.0876574E6,9.1621994E5,1.7143752E5,3.8862416E5,5.2759575E5,4.7906418E4,1.2353109E5,1.8723352E5,2.0139062E5,2.9177038E5,2.358254E5,4.010957E4,7.796844E3,6.93454E4,5.41857E4,1.361736E5,5.105991E4,9.455626E4,1.06834375E5,3.56617E4,2.5610867E5,1.6560246E4,2.1926516E5,2.5405533E4,1.4704039E4,7.7305815E3,6.626255E1,4.198734E4,2.7358055E4,3.0478107E4,2.3707592E4,3.3283875E4,1.0288973E5,4.6183516E4,4.876394E3,5.556607E4,3.8990188E4,8.8631195E4,1.8203182E4,2.1079732E4,1.4581968E4,2.1932527E4,2.3417614E5,7.7569985E3,8.803247E3,1.5885362E5,6.0411547E4,2.2016775E3,2.3203855E4,1.7519269E3,1.2952112E4,1.8854716E2,7.5420347E3,5.1974686E1,1.4287867E1,2.6634227E4,1.5353114E4,3.7298247E3,2.362823E4,1.7560373E4,1.2917735E4,3.1864805E0,2.3704406E4],"tree_param":{"num_deleted":"0","num_feature":"22","num_nodes":"63","size_leaf_vector":"1"}},{"base_weights":[3.620389E-4,-1.2828504E-1,7.091945E-1,-4.5930758E-1,6.703902E-2,5.393236E-1,9.650534E-1,-7.197665E-1,-2.0619959E-1,-1.2603211E-1,2.4754833E-1,1.8585409E-1,6.787927E-1,3.6606407E-1,1.0049495E0,-5.8131844E-1,-9.5849794E-1,-5.742542E-2,-6.5881306E-1,-2.311024E-2,-4.293596E-1,-4.6079656E-1,2.8523245E-1,-1.897791E-1,4.5789862E-1,5.836724E-1,8.334138E-1,-5.4527414E-1,5.596969E-1,8.668568E-1,1.1002399E0,-7.321707E-2,-3.7335105E-2,-1.0336717E-1,8.488069E-3,2.0579803E-4,-9.729287E-2,-7.0351556E-2,1.0819103E-1,2.8657177E-3,-7.08125E-2,-6.0273655E-2,-5.6653596E-3,-1.11089304E-1,-2.6795153E-2,1.5728144E-2,4.872393E-2,3.2312446E-3,-8.336266E-2,-3.8474645E-2,5.5757023E-2,6.699593E-2,3.9558917E-2,4.5668475E-2,9.004807E-2,-1.6095996E-1,3.1465718E-3,6.5688394E-2,-1.1414265E-1,6.72772E-2,9.411234E-2,1.0176879E-1,1.1672187E-1],"categories":[],"categories_nodes":[],"categories_segments":[],"categories_sizes":[],"default_left":[0,0,0,0,0,0,0,0,0,0,0,0,0,0,0,0,0,0,0,0,0,0,0,0,0,0,0,0,0,0,0,0,0,0,0,0,0,0,0,0,0,0,0,0,0,0,0,0,0,0,0,0,0,0,0,0,0,0,0,0,0,0,0],"id":11,"left_children":[1,3,5,7,9,11,13,15,17,19,21,23,25,27,29,31,33,35,37,39,41,43,45,47,49,51,53,55,57,59,61,-1,-1,-1,-1,-1,-1,-1,-1,-1,-1,-1,-1,-1,-1,-1,-1,-1,-1,-1,-1,-1,-1,-1,-1,-1,-1,-1,-1,-1,-1,-1,-1],"loss_changes":[9.759192E4,5.8567043E4,7.144703E3,2.2159805E4,1.985381E4,4.870701E3,1.5671758E3,5.475E3,1.1479506E4,8.593334E3,7.8590547E3,2.8569082E3,1.0415234E3,7.234158E2,8.083008E2,3.2893867E3,4.7695312E3,6.9871836E3,3.2824902E3,7.288224E3,4.506211E3,1.8641926E3,7.225289E3,1.6792233E3,1.361998E3,7.116631E2,6.8131836E2,4.4114844E2,5.595829E2,3.613672E2,1.999961E2,0E0,0E0,0E0,0E0,0E0,0E0,0E0,0E0,0E0,0E0,0E0,0E0,0E0,0E0,0E0,0E0,0E0,0E0,0E0,0E0,0E0,0E0,0E0,0E0,0E0,0E0,0E0,0E0,0E0,0E0,0E0,0E0],"parents":[2147483647,0,0,1,1,2,2,3,3,4,4,5,5,6,6,7,7,8,8,9,9,10,10,11,11,12,12,13,13,14,14,15,15,16,16,17,17,18,18,19,19,20,20,21,21,22,22,23,23,24,24,25,25,26,26,27,27,28,28,29,29,30,30],"right_children":[2,4,6,8,10,12,14,16,18,20,22,24,26,28,30,32,34,36,38,40,42,44,46,48,50,52,54,56,58,60,62,-1,-1,-1,-1,-1,-1,-1,-1,-1,-1,-1,-1,-1,-1,-1,-1,-1,-1,-1,-1,-1,-1,-1,-1,-1,-1,-1,-1,-1,-1,-1,-1],"split_conditions":[2.7653396E0,1.5919466E-1,5.706863E0,-5.4717815E-1,2.0007303E-1,3.773184E-1,-4.2287716E-1,2.2467344E-1,4.5764694E-1,5.5472517E-1,1.8309653E-3,1.9970085E-1,1.1215959E0,-7.248649E-1,8.648386E0,-5.154277E-1,8.45989E-2,1.2148286E0,1.2034127E0,1.910908E0,1.0086018E0,-4.9257982E-1,1.1858325E0,4.6389564E-3,8.976199E-2,3.1214359E0,1.11505E0,-8.4931934E-1,2.2968159E0,6.2385565E-1,1.4531432E1,-7.321707E-2,-3.7335105E-2,-1.0336717E-1,8.488069E-3,2.0579803E-4,-9.729287E-2,-7.0351556E-2,1.0819103E-1,2.8657177E-3,-7.08125E-2,-6.0273655E-2,-5.6653596E-3,-1.11089304E-1,-2.6795153E-2,1.5728144E-2,4.872393E-2,3.2312446E-3,-8.336266E-2,-3.8474645E-2,5.5757023E-2,6.699593E-2,3.9558917E-2,4.5668475E-2,9.004807E-2,-1.6095996E-1,3.1465718E-3,6.5688394E-2,-1.1414265E-1,6.72772E-2,9.411234E-2,1.0176879E-1,1.1672187E-1],"split_indices":[0,2,0,4,1,6,6,5,11,5,21,2,9,3,0,2,13,5,8,13,8,14,2,5,9,20,2,4,14,6,0,0,0,0,0,0,0,0,0,0,0,0,0,0,0,0,0,0,0,0,0,0,0,0,0,0,0,0,0,0,0,0,0],"split_type":[0,0,0,0,0,0,0,0,0,0,0,0,0,0,0,0,0,0,0,0,0,0,0,0,0,0,0,0,0,0,0,0,0,0,0,0,0,0,0,0,0,0,0,0,0,0,0,0,0,0,0,0,0,0,0,0,0,0,0,0,0,0,0],"sum_hessian":[1.0702114E6,9.0581456E5,1.6439684E5,3.3614184E5,5.6967275E5,9.880258E4,6.5594266E4,1.6566433E5,1.7047752E5,2.7525875E5,2.9441397E5,2.7955266E4,7.084731E4,4.096756E3,6.149751E4,1.048575E5,6.080682E4,1.2830481E5,4.2172695E4,2.0552372E5,6.973505E4,1.4871153E4,2.7954284E5,1.1742196E4,1.6213068E4,4.3866277E4,2.6981035E4,7.1758887E2,3.379167E3,2.511359E4,3.638392E4,6.077265E4,4.4084855E4,5.6720227E4,4.0865955E3,1.20477945E5,7.826869E3,4.1117383E4,1.0553152E3,1.910842E5,1.4439513E4,4.7594312E4,2.2140734E4,3.4010786E3,1.1470075E4,1.7114281E5,1.0840001E5,8.731325E3,3.0108708E3,1.7146011E3,1.4498468E4,3.0068977E4,1.3797301E4,4.0785808E3,2.2902455E4,2.5156174E2,4.6602713E2,3.1971257E3,1.8204138E2,6.9529985E3,1.8160592E4,1.6304595E4,2.0079328E4],"tree_param":{"num_deleted":"0","num_feature":"22","num_nodes":"63","size_leaf_vector":"1"}},{"base_weights":[3.4558034E-4,-1.16975084E-1,6.673705E-1,-6.386653E-1,-7.2089727E-3,5.005517E-1,9.270858E-1,-4.77945E-1,-8.691059E-1,-1.6221188E-1,2.3006752E-1,1.6376668E-1,6.3259983E-1,3.3679667E-1,9.681452E-1,-6.8416387E-1,-2.7198085E-1,-9.3943477E-1,-2.4082734E-1,-8.856726E-3,-4.1342396E-1,1.8225057E-2,3.6613664E-1,-1.828495E-1,4.2061383E-1,4.7925794E-1,7.359951E-1,-5.002008E-1,5.1570064E-1,8.6647844E-1,1.1121839E0,-7.831731E-2,-2.8492464E-2,2.8700028E-2,-3.7702844E-2,-9.863655E-2,-3.0427E-2,-1.5599677E-1,-1.3910419E-2,7.360534E-3,-4.120098E-2,-7.1087204E-2,-2.3521556E-2,2.9537747E-2,-1.3757805E-2,2.212715E-2,5.9841212E-2,1.1862468E-3,-7.3300235E-2,-3.2624494E-2,5.1325537E-2,5.7856966E-2,8.96917E-3,-4.388282E-3,7.5929806E-2,-1.8074565E-1,-3.8301453E-3,5.813988E-2,-1.6739736E-1,6.726741E-2,9.345782E-2,1.0336421E-1,1.1554034E-1],"categories":[],"categories_nodes":[],"categories_segments":[],"categories_sizes":[],"default_left":[0,0,0,0,0,0,0,0,0,0,0,0,0,0,0,0,0,0,0,0,0,0,0,0,0,0,0,0,0,0,0,0,0,0,0,0,0,0,0,0,0,0,0,0,0,0,0,0,0,0,0,0,0,0,0,0,0,0,0,0,0,0,0],"id":12,"left_children":[1,3,5,7,9,11,13,15,17,19,21,23,25,27,29,31,33,35,37,39,41,43,45,47,49,51,53,55,57,59,61,-1,-1,-1,-1,-1,-1,-1,-1,-1,-1,-1,-1,-1,-1,-1,-1,-1,-1,-1,-1,-1,-1,-1,-1,-1,-1,-1,-1,-1,-1,-1,-1],"loss_changes":[8.249807E4,5.1338457E4,6.831367E3,5.771453E3,2.7241246E4,4.2699453E3,1.4943828E3,3.89942E3,2.8290781E3,1.725959E4,8.436242E3,2.4078032E3,1.0932051E3,6.0105896E2,8.4339453E2,1.8132207E3,2.6974612E3,1.7162461E3,8.6494214E2,9.248442E3,9.001826E3,4.942764E3,5.9962324E3,1.2331411E3,1.0749836E3,1.0747256E3,7.4866797E2,4.2687857E2,4.7658923E2,4.4554297E2,7.978125E1,0E0,0E0,0E0,0E0,0E0,0E0,0E0,0E0,0E0,0E0,0E0,0E0,0E0,0E0,0E0,0E0,0E0,0E0,0E0,0E0,0E0,0E0,0E0,0E0,0E0,0E0,0E0,0E0,0E0,0E0,0E0,0E0],"parents":[2147483647,0,0,1,1,2,2,3,3,4,4,5,5,6,6,7,7,8,8,9,9,10,10,11,11,12,12,13,13,14,14,15,15,16,16,17,17,18,18,19,19,20,20,21,21,22,22,23,23,24,24,25,25,26,26,27,27,28,28,29,29,30,30],"right_children":[2,4,6,8,10,12,14,16,18,20,22,24,26,28,30,32,34,36,38,40,42,44,46,48,50,52,54,56,58,60,62,-1,-1,-1,-1,-1,-1,-1,-1,-1,-1,-1,-1,-1,-1,-1,-1,-1,-1,-1,-1,-1,-1,-1,-1,-1,-1,-1,-1,-1,-1,-1,-1],"split_conditions":[2.7653396E0,-6.3217956E-1,5.706863E0,4.6389564E-3,8.627958E-1,3.5897785E-1,-4.2287716E-1,-8.2880026E-1,8.733941E-1,2.2467344E-1,-4.868965E-1,1.9970085E-1,6.786089E-1,-7.248649E-1,1.1589909E1,3.7066445E0,-9.352079E-1,2.2472392E-1,2.2747964E-3,5.007762E-1,2.3675895E0,-3.2541275E-1,7.6904106E-1,4.6389564E-3,8.976199E-2,3.1317606E0,-1.4570808E0,-2.2461993E-1,2.1341953E0,6.042231E-1,1.7472956E1,-7.831731E-2,-2.8492464E-2,2.8700028E-2,-3.7702844E-2,-9.863655E-2,-3.0427E-2,-1.5599677E-1,-1.3910419E-2,7.360534E-3,-4.120098E-2,-7.1087204E-2,-2.3521556E-2,2.9537747E-2,-1.3757805E-2,2.212715E-2,5.9841212E-2,1.1862468E-3,-7.3300235E-2,-3.2624494E-2,5.1325537E-2,5.7856966E-2,8.96917E-3,-4.388282E-3,7.5929806E-2,-1.8074565E-1,-3.8301453E-3,5.813988E-2,-1.6739736E-1,6.726741E-2,9.345782E-2,1.0336421E-1,1.1554034E-1],"split_indices":[0,1,0,5,2,6,6,1,2,5,14,2,9,3,0,20,3,13,21,7,20,5,1,5,9,20,11,12,7,6,0,0,0,0,0,0,0,0,0,0,0,0,0,0,0,0,0,0,0,0,0,0,0,0,0,0,0,0,0,0,0,0,0],"split_type":[0,0,0,0,0,0,0,0,0,0,0,0,0,0,0,0,0,0,0,0,0,0,0,0,0,0,0,0,0,0,0,0,0,0,0,0,0,0,0,0,0,0,0,0,0,0,0,0,0,0,0,0,0,0,0,0,0,0,0,0,0,0,0],"sum_hessian":[1.0542082E6,8.965229E5,1.5768542E5,1.558418E5,7.4068106E5,9.601596E4,6.166946E4,9.1811266E4,6.4030535E4,4.4801303E5,2.9266803E5,2.7043785E4,6.897218E4,4.0112373E3,5.7658223E4,4.58761E4,4.593516E4,5.7584125E4,6.4464077E3,2.7818997E5,1.6982305E5,1.1446367E5,1.7820436E5,1.1510547E4,1.5533237E4,2.7779305E4,4.1192875E4,7.060773E2,3.3051602E3,3.3804812E4,2.385341E4,3.6759086E4,9.117017E3,7.2665454E3,3.8668617E4,5.3621605E4,3.9625186E3,4.6048807E2,5.9859194E3,2.3095134E5,4.7238617E4,6.3624418E4,1.0619863E5,4.1190504E4,7.3273164E4,1.0975469E5,6.844967E4,8.502347E3,3.0082007E3,1.7138643E3,1.3819373E4,2.2135771E4,5.643533E3,1.195114E3,3.9997758E4,1.8358545E2,5.224919E2,3.2095952E3,9.5564964E1,8.792678E3,2.5012137E4,8.475672E3,1.5377737E4],"tree_param":{"num_deleted":"0","num_feature":"22","num_nodes":"63","size_leaf_vector":"1"}},{"base_weights":[3.3935267E-4,-1.06675416E-1,6.275262E-1,-3.660188E-1,8.442571E-2,5.1803774E-1,1.0210164E0,-6.139702E-1,-1.590358E-1,-8.4696926E-2,2.2911666E-1,2.7133733E-1,6.830236E-1,1.0264082E0,-1.7685207E0,-4.061107E-1,-7.8879607E-1,-4.9049857E-1,1.9895708E-2,-5.726052E-1,-1.7361972E-2,-4.502385E-1,2.6483434E-1,9.410958E-2,5.586991E-1,5.9556216E-1,8.2256055E-1,9.2308164E-1,1.1152786E0,-1.4803934E-1,-2.3793674E-1,-2.4047231E-2,-6.866243E-2,-8.945241E-2,-4.1309934E-2,-2.8336022E-2,-6.97375E-2,2.6763344E-2,-1.626461E-2,-1.1794581E-1,-3.9614584E-2,2.106784E-3,-6.2199272E-2,-6.998018E-2,6.0831276E-3,3.9172657E-2,5.0404975E-3,4.508139E-2,-7.1788626E-3,-3.2642037E-2,6.739341E-2,7.6015376E-2,5.079454E-2,3.1226862E-2,8.915305E-2,5.610946E-2,9.690183E-2,-1.6501278E-1,1.11826316E-1],"categories":[],"categories_nodes":[],"categories_segments":[],"categories_sizes":[],"default_left":[0,0,0,0,0,0,0,0,0,0,0,0,0,0,0,0,0,0,0,0,0,0,0,0,0,0,0,0,0,0,0,0,0,0,0,0,0,0,0,0,0,0,0,0,0,0,0,0,0,0,0,0,0,0,0,0,0,0,0],"id":13,"left_children":[1,3,5,7,9,11,13,15,17,19,21,23,25,27,29,31,33,35,37,39,41,43,45,47,49,51,53,55,57,-1,-1,-1,-1,-1,-1,-1,-1,-1,-1,-1,-1,-1,-1,-1,-1,-1,-1,-1,-1,-1,-1,-1,-1,-1,-1,-1,-1,-1,-1],"loss_changes":[6.970108E4,4.3966215E4,6.520699E3,1.9315316E4,1.2498524E4,4.8196875E3,4.9738672E2,6.2221562E3,1.216593E4,7.736849E3,6.679335E3,2.4169382E3,8.6552344E2,3.009453E2,7.72937E0,3.6346094E3,3.6939766E3,3.0814023E3,6.024389E3,3.0577676E3,4.808424E3,1.7537251E3,7.115592E3,1.7372003E3,1.8467573E3,6.28709E2,9.618867E2,2.524043E2,1.4772266E2,0E0,0E0,0E0,0E0,0E0,0E0,0E0,0E0,0E0,0E0,0E0,0E0,0E0,0E0,0E0,0E0,0E0,0E0,0E0,0E0,0E0,0E0,0E0,0E0,0E0,0E0,0E0,0E0,0E0,0E0],"parents":[2147483647,0,0,1,1,2,2,3,3,4,4,5,5,6,6,7,7,8,8,9,9,10,10,11,11,12,12,13,13,14,14,15,15,16,16,17,17,18,18,19,19,20,20,21,21,22,22,23,23,24,24,25,25,26,26,27,27,28,28],"right_children":[2,4,6,8,10,12,14,16,18,20,22,24,26,28,30,32,34,36,38,40,42,44,46,48,50,52,54,56,58,-1,-1,-1,-1,-1,-1,-1,-1,-1,-1,-1,-1,-1,-1,-1,-1,-1,-1,-1,-1,-1,-1,-1,-1,-1,-1,-1,-1,-1,-1],"split_conditions":[2.7653396E0,2.9527965E-1,8.648386E0,-5.2934325E-1,2.0007303E-1,6.1420715E-1,2.2968159E0,-3.2541275E-1,-4.0601915E-1,3.2769367E-3,-1.8529586E0,6.692424E-1,1.1787894E0,1.4531432E1,-8.4931934E-1,6.359975E-1,-2.5736886E-1,3.346907E-1,-8.817639E-1,2.5786467E0,1.6259749E0,9.0597373E-1,5.5472517E-1,-3.8731518E-1,5.015659E-1,2.3103266E0,1.1711671E0,4.070014E-2,-8.433686E-1,-1.4803934E-1,-2.3793674E-1,-2.4047231E-2,-6.866243E-2,-8.945241E-2,-4.1309934E-2,-2.8336022E-2,-6.97375E-2,2.6763344E-2,-1.626461E-2,-1.1794581E-1,-3.9614584E-2,2.106784E-3,-6.2199272E-2,-6.998018E-2,6.0831276E-3,3.9172657E-2,5.0404975E-3,4.508139E-2,-7.1788626E-3,-3.2642037E-2,6.739341E-2,7.6015376E-2,5.079454E-2,3.1226862E-2,8.915305E-2,5.610946E-2,9.690183E-2,-1.6501278E-1,1.11826316E-1],"split_indices":[0,8,0,4,1,6,14,5,13,21,11,2,9,0,4,7,13,5,7,20,13,6,5,7,9,20,2,6,4,0,0,0,0,0,0,0,0,0,0,0,0,0,0,0,0,0,0,0,0,0,0,0,0,0,0,0,0,0,0],"split_type":[0,0,0,0,0,0,0,0,0,0,0,0,0,0,0,0,0,0,0,0,0,0,0,0,0,0,0,0,0,0,0,0,0,0,0,0,0,0,0,0,0,0,0,0,0,0,0,0,0,0,0,0,0,0,0,0,0,0,0],"sum_hessian":[1.03847956E6,8.87115E5,1.513646E5,3.7635825E5,5.1075675E5,1.1841733E5,3.294727E4,1.7123203E5,2.0512622E5,2.3549631E5,2.7526044E5,4.7457547E4,7.095978E4,3.288434E4,6.292991E1,7.82271E4,9.300493E4,7.191152E4,1.3321469E5,2.8557982E4,2.0693833E5,1.3748596E4,2.6151183E5,2.9354656E4,1.810289E4,4.362255E4,2.7337227E4,1.5210737E4,1.7673604E4,4.5086697E1,1.7843214E1,4.9185668E4,2.9041438E4,7.25786E4,2.0426328E4,3.59342E4,3.5977324E4,5.6514805E4,7.669988E4,6.4320713E3,2.212591E4,1.9457244E5,1.2365893E4,9.23744E3,4.5111553E3,1.6428977E5,9.722207E4,9.31798E3,2.0036678E4,2.085136E3,1.6017754E4,1.5151736E4,2.8470814E4,3.2555706E3,2.4081656E4,1.7143827E3,1.34963545E4,1.8458345E1,1.7655145E4],"tree_param":{"num_deleted":"0","num_feature":"22","num_nodes":"59","size_leaf_vector":"1"}},{"base_weights":[3.218E-4,-9.721991E-2,5.894386E-1,-5.6457746E-1,-2.9688175E-3,4.2692843E-1,8.58832E-1,-4.3345675E-1,-8.350905E-1,-1.3390888E-1,2.0488371E-1,2.5216195E-1,6.407122E-1,3.7342262E-1,9.1149646E-1,-6.209094E-1,-2.546795E-1,-9.105703E-1,-2.3256777E-1,8.759983E-2,-2.845458E-1,2.5418645E-1,-2.2783212E-1,1.1125657E-1,5.4263175E-1,6.42747E-1,-4.3885508E-1,4.5318863E-1,-9.543836E-1,8.077152E-1,1.0656234E0,-7.2040245E-2,-2.5971184E-2,2.2681024E-2,-3.3973724E-2,-9.519313E-2,-2.4676466E-2,-1.4561573E-1,-1.1621069E-2,4.2269908E-2,-5.213974E-3,-6.4667486E-2,-1.72945E-2,3.6304727E-2,2.4030886E-3,-4.1267793E-3,-5.946756E-2,2.913094E-2,-2.359282E-2,-7.810661E-3,6.718953E-2,-2.086374E-2,6.5417804E-2,-1.6931386E-1,4.977425E-2,1.8702923E-1,-1.429698E-1,6.777923E-2,9.027754E-2,9.800186E-2,1.1135169E-1],"categories":[],"categories_nodes":[],"categories_segments":[],"categories_sizes":[],"default_left":[0,0,0,0,0,0,0,0,0,0,0,0,0,0,0,0,0,0,0,0,0,0,0,0,0,0,0,0,0,0,0,0,0,0,0,0,0,0,0,0,0,0,0,0,0,0,0,0,0,0,0,0,0,0,0,0,0,0,0,0,0],"id":14,"left_children":[1,3,5,7,9,11,13,15,17,19,21,23,25,27,29,31,33,35,37,39,41,43,45,47,49,51,-1,53,55,57,59,-1,-1,-1,-1,-1,-1,-1,-1,-1,-1,-1,-1,-1,-1,-1,-1,-1,-1,-1,-1,-1,-1,-1,-1,-1,-1,-1,-1,-1,-1],"loss_changes":[5.8842582E4,3.8698684E4,6.367836E3,5.229289E3,1.98978E4,3.3897793E3,1.3987969E3,3.3278477E3,2.1888086E3,1.4966545E4,6.028283E3,2.0432285E3,4.204414E2,5.6797845E2,7.8889453E2,1.7419023E3,2.0818499E3,1.1741602E3,7.629306E2,8.50184E3,1.0789545E4,6.3554805E3,1.9780402E3,2.1015413E3,1.3084849E3,3.9715234E2,0E0,4.842932E2,4.1081024E2,3.6385156E2,8.0353516E1,0E0,0E0,0E0,0E0,0E0,0E0,0E0,0E0,0E0,0E0,0E0,0E0,0E0,0E0,0E0,0E0,0E0,0E0,0E0,0E0,0E0,0E0,0E0,0E0,0E0,0E0,0E0,0E0,0E0,0E0],"parents":[2147483647,0,0,1,1,2,2,3,3,4,4,5,5,6,6,7,7,8,8,9,9,10,10,11,11,12,12,13,13,14,14,15,15,16,16,17,17,18,18,19,19,20,20,21,21,22,22,23,23,24,24,25,25,27,27,28,28,29,29,30,30],"right_children":[2,4,6,8,10,12,14,16,18,20,22,24,26,28,30,32,34,36,38,40,42,44,46,48,50,52,-1,54,56,58,60,-1,-1,-1,-1,-1,-1,-1,-1,-1,-1,-1,-1,-1,-1,-1,-1,-1,-1,-1,-1,-1,-1,-1,-1,-1,-1,-1,-1,-1,-1],"split_conditions":[2.7653396E0,-6.3217956E-1,5.706863E0,2.2467344E-1,8.540121E-1,7.545584E-1,-1.8042359E-1,-8.2880026E-1,8.5225844E-1,-3.2541275E-1,3.6869133E-1,8.695948E-1,4.7072864E0,2.2968159E0,1.1589909E1,3.7066445E0,-9.352079E-1,8.45989E-2,-9.4332695E-1,-1.0816395E0,2.1573753E0,6.647424E-1,-2.801231E-1,1.2224662E-1,8.7379724E-1,-2.195706E0,-4.3885508E-1,-1.0551618E0,-1.9036878E0,7.712759E-1,1.7472956E1,-7.2040245E-2,-2.5971184E-2,2.2681024E-2,-3.3973724E-2,-9.519313E-2,-2.4676466E-2,-1.4561573E-1,-1.1621069E-2,4.2269908E-2,-5.213974E-3,-6.4667486E-2,-1.72945E-2,3.6304727E-2,2.4030886E-3,-4.1267793E-3,-5.946756E-2,2.913094E-2,-2.359282E-2,-7.810661E-3,6.718953E-2,-2.086374E-2,6.5417804E-2,-1.6931386E-1,4.977425E-2,1.8702923E-1,-1.429698E-1,6.777923E-2,9.027754E-2,9.800186E-2,1.1135169E-1],"split_indices":[0,1,0,5,9,6,6,1,2,5,13,8,13,14,0,20,3,13,3,7,20,5,7,7,12,5,0,3,10,6,0,0,0,0,0,0,0,0,0,0,0,0,0,0,0,0,0,0,0,0,0,0,0,0,0,0,0,0,0,0,0],"split_type":[0,0,0,0,0,0,0,0,0,0,0,0,0,0,0,0,0,0,0,0,0,0,0,0,0,0,0,0,0,0,0,0,0,0,0,0,0,0,0,0,0,0,0,0,0,0,0,0,0,0,0,0,0,0,0,0,0,0,0,0,0],"sum_hessian":[1.023998E6,8.78537E5,1.4546098E5,1.4743827E5,7.3109875E5,9.073073E4,5.4730254E4,9.93061E4,4.8132164E4,4.4853634E5,2.825624E5,4.9922047E4,4.0808676E4,5.3575645E3,4.937269E4,4.847565E4,5.0830453E4,4.277331E4,5.3588516E3,1.8155848E5,2.6697788E5,2.5366119E5,2.890121E4,3.3616324E4,1.6305723E4,4.0793043E4,1.5631984E1,5.0545767E3,3.0298755E2,2.950904E4,1.9863652E4,3.8005824E4,1.0469822E4,7.6311016E3,4.319935E4,4.026407E4,2.509241E3,4.6434726E2,4.8945044E3,5.3429965E4,1.28128516E5,6.289325E4,2.0408461E5,1.7220817E5,8.145301E4,1.9158799E4,9.742412E3,2.213638E4,1.1479944E4,2.8103743E3,1.3495349E4,5.402187E2,4.0252824E4,1.0203762E2,4.952539E3,4.3218113E1,2.5976944E2,1.2471631E4,1.7037406E4,7.133935E3,1.2729718E4],"tree_param":{"num_deleted":"0","num_feature":"22","num_nodes":"61","size_leaf_vector":"1"}},{"base_weights":[3.13802E-4,-8.855013E-2,5.529574E-1,-4.0125293E-1,3.4539253E-2,4.4692144E-1,9.66817E-1,-2.456492E-1,-6.251897E-1,-9.552567E-2,2.0916823E-1,1.8345588E-1,5.799949E-1,-3.8356856E-1,9.7756374E-1,-5.6316E-1,-1.1565113E-1,-7.296545E-1,-9.787315E-2,2.4771768E-1,-1.7034963E-1,-3.1015014E-3,3.4763435E-1,6.2008895E-2,5.619981E-1,4.8458636E-1,7.30447E-1,-1.6310803E0,8.035302E-1,8.65803E-1,1.0762666E0,-6.5688096E-2,-2.0614726E-2,3.373467E-2,-1.909366E-2,-7.990126E-2,2.1872735E-3,4.4934805E-3,-1.1734577E-1,-6.5334566E-2,3.8161203E-2,-3.113601E-4,-3.2040197E-2,2.3125933E-2,-1.3218409E-2,4.150032E-2,-1.3492386E-3,-7.090546E-3,3.40069E-2,4.8684172E-4,7.45924E-2,3.774261E-2,6.3342534E-2,2.6303053E-2,8.046272E-2,-1.3704893E-1,-1.7484437E-1,-1.5696914E-1,1.3936569E-1,6.6657595E-2,9.429532E-2,-3.2969743E-1,1.07715264E-1],"categories":[],"categories_nodes":[],"categories_segments":[],"categories_sizes":[],"default_left":[0,0,0,0,0,0,0,0,0,0,0,0,0,0,0,0,0,0,0,0,0,0,0,0,0,0,0,0,0,0,0,0,0,0,0,0,0,0,0,0,0,0,0,0,0,0,0,0,0,0,0,0,0,0,0,0,0,0,0,0,0,0,0],"id":15,"left_children":[1,3,5,7,9,11,13,15,17,19,21,23,25,27,29,31,33,35,37,39,41,43,45,47,49,51,53,55,57,59,61,-1,-1,-1,-1,-1,-1,-1,-1,-1,-1,-1,-1,-1,-1,-1,-1,-1,-1,-1,-1,-1,-1,-1,-1,-1,-1,-1,-1,-1,-1,-1,-1],"loss_changes":[4.9618414E4,3.3501797E4,6.141461E3,8.566324E3,1.418553E4,3.9060996E3,4.146172E2,5.9871445E3,5.5520273E3,9.1932E3,7.836048E3,1.7189165E3,1.0622227E3,3.3612808E2,3.114629E2,1.4097441E3,3.5099956E3,4.3849375E3,2.5600886E3,7.7294883E3,7.3748174E3,3.1841228E3,3.9254805E3,1.0462947E3,9.306362E2,7.223047E2,9.957334E2,9.854126E-1,1.6537238E2,2.0358691E2,6.180078E1,0E0,0E0,0E0,0E0,0E0,0E0,0E0,0E0,0E0,0E0,0E0,0E0,0E0,0E0,0E0,0E0,0E0,0E0,0E0,0E0,0E0,0E0,0E0,0E0,0E0,0E0,0E0,0E0,0E0,0E0,0E0,0E0],"parents":[2147483647,0,0,1,1,2,2,3,3,4,4,5,5,6,6,7,7,8,8,9,9,10,10,11,11,12,12,13,13,14,14,15,15,16,16,17,17,18,18,19,19,20,20,21,21,22,22,23,23,24,24,25,25,26,26,27,27,28,28,29,29,30,30],"right_children":[2,4,6,8,10,12,14,16,18,20,22,24,26,28,30,32,34,36,38,40,42,44,46,48,50,52,54,56,58,60,62,-1,-1,-1,-1,-1,-1,-1,-1,-1,-1,-1,-1,-1,-1,-1,-1,-1,-1,-1,-1,-1,-1,-1,-1,-1,-1,-1,-1,-1,-1,-1,-1],"split_conditions":[2.7653396E0,-4.213912E-1,8.648386E0,4.6389564E-3,8.627958E-1,4.7571027E-1,-8.459962E-1,-8.2880026E-1,8.9528143E-1,-8.7549895E-1,-4.873848E-1,8.733941E-1,1.1215959E0,4.5833895E-1,1.4531432E1,3.7066445E0,-1.0816395E0,2.2472392E-1,2.5381941E-2,-2.3057232E0,-4.676785E-1,-3.2541275E-1,-1.6863504E-1,-1.7728038E-1,8.756807E-1,8.4182984E-1,1.11505E0,-8.561289E-1,3.6457536E0,6.042231E-1,-2.3678765E0,-6.5688096E-2,-2.0614726E-2,3.373467E-2,-1.909366E-2,-7.990126E-2,2.1872735E-3,4.4934805E-3,-1.1734577E-1,-6.5334566E-2,3.8161203E-2,-3.113601E-4,-3.2040197E-2,2.3125933E-2,-1.3218409E-2,4.150032E-2,-1.3492386E-3,-7.090546E-3,3.40069E-2,4.8684172E-4,7.45924E-2,3.774261E-2,6.3342534E-2,2.6303053E-2,8.046272E-2,-1.3704893E-1,-1.7484437E-1,-1.5696914E-1,1.3936569E-1,6.6657595E-2,9.429532E-2,-3.2969743E-1,1.07715264E-1],"split_indices":[0,1,0,5,2,6,4,1,2,5,14,2,9,11,0,20,7,13,4,5,7,5,13,13,9,6,2,4,20,6,11,0,0,0,0,0,0,0,0,0,0,0,0,0,0,0,0,0,0,0,0,0,0,0,0,0,0,0,0,0,0,0,0],"split_type":[0,0,0,0,0,0,0,0,0,0,0,0,0,0,0,0,0,0,0,0,0,0,0,0,0,0,0,0,0,0,0,0,0,0,0,0,0,0,0,0,0,0,0,0,0,0,0,0,0,0,0,0,0,0,0,0,0,0,0,0,0,0,0],"sum_hessian":[1.0103487E6,8.703923E5,1.399564E5,2.4584144E5,6.245509E5,1.1141307E5,2.854334E4,1.450528E5,1.0078864E5,3.579486E5,2.6660225E5,3.7389613E4,7.402346E4,2.2508755E2,2.8318254E4,4.2135816E4,1.02916984E5,8.412296E4,1.6665678E4,6.4063754E4,2.9388484E5,1.05251625E5,1.6135062E5,2.8308586E4,9.081026E3,4.5300543E4,2.8722916E4,1.0956873E2,1.1551882E2,1.3285234E4,1.5033019E4,3.3373863E4,8.761952E3,1.466617E4,8.825081E4,7.7015195E4,7.107761E3,1.4713137E4,1.9525404E3,8.287542E3,5.577621E4,1.3898481E5,1.5490005E5,3.7381473E4,6.787015E4,1.3598267E5,2.5367953E4,1.9153732E4,9.154853E3,2.2541143E3,6.8269116E3,2.6339969E4,1.8960574E4,3.9346753E3,2.478824E4,3.7960182E1,7.160855E1,2.2674072E1,9.284475E1,3.7112407E3,9.573993E3,2.2911382E0,1.5030728E4],"tree_param":{"num_deleted":"0","num_feature":"22","num_nodes":"63","size_leaf_vector":"1"}},{"base_weights":[3.2086563E-4,-8.063635E-2,5.179412E-1,-2.8084773E-1,8.364135E-2,4.1452667E-1,9.405255E-1,-6.07165E-1,-1.8808009E-1,-1.14513546E-1,1.8174148E-1,2.559608E-1,6.1957717E-1,9.526498E-1,-2.902576E-1,-4.8623756E-1,-8.783128E-1,-6.715681E-2,-4.1260284E-1,1.8452708E-1,-3.2370254E-1,7.227605E-2,3.7069097E-1,1.2789047E-1,5.39967E-1,5.6773597E-1,7.96687E-1,8.3702976E-1,1.0571289E0,-1.9712113E0,4.4080475E-1,-5.1624674E-2,5.211569E-2,-9.1541365E-2,1.0431279E-2,3.236133E-2,-1.3796923E-2,-7.2428696E-2,-2.0307539E-2,4.128218E-2,-1.9018488E-2,-5.1837545E-2,-1.2443892E-2,1.0038965E-2,-7.06796E-2,1.8461576E-2,4.543234E-2,6.854307E-2,5.069206E-3,-1.6139261E-3,6.9350086E-2,-4.886608E-1,5.7208348E-2,-4.9386677E-1,7.983845E-2,8.396875E-2,-4.9612495E-1,-1.5307368E-1,1.0593201E-1,-1.4476828E-1,-3.0989966E-1,1.166495E-1,-9.298041E-2],"categories":[],"categories_nodes":[],"categories_segments":[],"categories_sizes":[],"default_left":[0,0,0,0,0,0,0,0,0,0,0,0,0,0,0,0,0,0,0,0,0,0,0,0,0,0,0,0,0,0,0,0,0,0,0,0,0,0,0,0,0,0,0,0,0,0,0,0,0,0,0,0,0,0,0,0,0,0,0,0,0,0,0],"id":16,"left_children":[1,3,5,7,9,11,13,15,17,19,21,23,25,27,29,31,33,35,37,39,41,43,45,47,49,51,53,55,57,59,61,-1,-1,-1,-1,-1,-1,-1,-1,-1,-1,-1,-1,-1,-1,-1,-1,-1,-1,-1,-1,-1,-1,-1,-1,-1,-1,-1,-1,-1,-1,-1,-1],"loss_changes":[4.178801E4,2.8362428E4,5.893676E3,1.1765285E4,9.207802E3,3.5229512E3,3.9595508E2,2.8205117E3,8.216351E3,9.812007E3,6.5530146E3,2.2225315E3,4.3339258E2,3.1630078E2,3.1966916E2,1.7990127E3,9.6741016E2,5.4428613E3,6.918078E3,5.522922E3,3.5800059E3,4.3938906E3,1.8085029E3,1.8126952E3,1.6214873E3,8.6963574E2,1.0807617E2,1.9630957E2,7.98125E1,4.2046265E1,1.8172195E2,0E0,0E0,0E0,0E0,0E0,0E0,0E0,0E0,0E0,0E0,0E0,0E0,0E0,0E0,0E0,0E0,0E0,0E0,0E0,0E0,0E0,0E0,0E0,0E0,0E0,0E0,0E0,0E0,0E0,0E0,0E0,0E0],"parents":[2147483647,0,0,1,1,2,2,3,3,4,4,5,5,6,6,7,7,8,8,9,9,10,10,11,11,12,12,13,13,14,14,15,15,16,16,17,17,18,18,19,19,20,20,21,21,22,22,23,23,24,24,25,25,26,26,27,27,28,28,29,29,30,30],"right_children":[2,4,6,8,10,12,14,16,18,20,22,24,26,28,30,32,34,36,38,40,42,44,46,48,50,52,54,56,58,60,62,-1,-1,-1,-1,-1,-1,-1,-1,-1,-1,-1,-1,-1,-1,-1,-1,-1,-1,-1,-1,-1,-1,-1,-1,-1,-1,-1,-1,-1,-1,-1,-1],"split_conditions":[2.7653396E0,-8.9412406E-2,8.648386E0,-7.656802E-1,2.6173925E0,7.6465106E-1,1.2604729E0,2.2467344E-1,2.2467344E-1,-3.2541275E-1,1.1858325E0,8.733941E-1,5.706863E0,1.4531432E1,5.817598E-1,1.2046751E0,1.0889213E0,-1.1435965E0,2.5786467E0,-7.159015E-1,4.5967624E-3,2.469127E0,-4.9224818E-1,-1.0816395E0,8.756807E-1,-1.6358763E0,-3.6132503E0,3.6211926E-2,-8.433686E-1,-8.433686E-1,7.592413E-1,-5.1624674E-2,5.211569E-2,-9.1541365E-2,1.0431279E-2,3.236133E-2,-1.3796923E-2,-7.2428696E-2,-2.0307539E-2,4.128218E-2,-1.9018488E-2,-5.1837545E-2,-1.2443892E-2,1.0038965E-2,-7.06796E-2,1.8461576E-2,4.543234E-2,6.854307E-2,5.069206E-3,-1.6139261E-3,6.9350086E-2,-4.886608E-1,5.7208348E-2,-4.9386677E-1,7.983845E-2,8.396875E-2,-4.9612495E-1,-1.5307368E-1,1.0593201E-1,-1.4476828E-1,-3.0989966E-1,1.166495E-1,-9.298041E-2],"split_indices":[0,1,0,1,20,6,14,5,5,5,2,2,0,0,8,10,10,7,20,7,21,13,14,7,9,12,11,21,4,4,9,0,0,0,0,0,0,0,0,0,0,0,0,0,0,0,0,0,0,0,0,0,0,0,0,0,0,0,0,0,0,0,0],"split_type":[0,0,0,0,0,0,0,0,0,0,0,0,0,0,0,0,0,0,0,0,0,0,0,0,0,0,0,0,0,0,0,0,0,0,0,0,0,0,0,0,0,0,0,0,0,0,0,0,0,0,0,0,0,0,0,0,0,0,0,0,0,0,0],"sum_hessian":[9.9720375E5,8.623333E5,1.348704E5,3.8865916E5,4.7367416E5,1.08355664E5,2.6514744E4,8.603144E4,3.0262772E5,1.568496E5,3.1682456E5,6.1105184E4,4.7250484E4,2.6256322E4,2.58423E2,5.949876E4,2.6532672E4,1.9669381E5,1.0593391E5,6.455986E4,9.2289734E4,2.0060694E5,1.1621763E5,4.2115145E4,1.8990037E4,3.6554848E4,1.0695638E4,1.246792E4,1.3788401E4,7.7811745E1,1.8061125E2,5.77781E4,1.7206595E3,2.5567398E4,9.652749E2,3.0174697E4,1.6651912E5,4.2584523E4,6.3349383E4,4.011782E4,2.4442037E4,4.66818E4,4.560793E4,1.9362081E5,6.9861313E3,3.6038387E4,8.017924E4,5.1211855E3,3.699396E4,4.1087744E3,1.4881263E4,2.8219215E1,3.6526625E4,2.3039086E0,1.0693334E4,1.24630625E4,4.8573294E0,1.1074534E1,1.3777327E4,5.4702137E1,2.3109606E1,1.1818519E2,6.2426067E1],"tree_param":{"num_deleted":"0","num_feature":"22","num_nodes":"63","size_leaf_vector":"1"}},{"base_weights":[3.3127327E-4,-7.339958E-2,4.8443586E-1,-3.037921E-1,5.2813243E-2,3.8398853E-1,9.1454923E-1,-4.3564966E-1,2.0561216E-2,-1.6496548E-2,3.197106E-1,2.3404485E-1,5.83594E-1,7.847347E-1,1.0357747E0,-6.8579805E-1,-2.914672E-1,8.205022E-2,-8.609234E-1,-7.497376E-1,1.5134125E-2,-3.2297857E-2,4.0792838E-1,5.630851E-1,7.234641E-2,1.453143E-1,6.79785E-1,3.321679E-1,8.5174495E-1,-1.411571E-1,1.0403647E0,-8.622297E-2,-4.7898866E-2,-1.2497262E-2,-4.996998E-2,2.5885163E-2,-1.941151E-2,3.3056766E-2,-1.00456476E-1,-1.0395125E-1,-4.4315465E-2,3.4687202E-3,-7.939002E-2,-5.3543717E-2,9.134489E-3,6.176819E-4,4.6803854E-2,6.7295626E-2,3.0937979E-2,-4.6350736E-2,1.4027769E-2,-3.5067346E-2,2.7398435E-2,3.514882E-2,7.370953E-2,-5.068841E-4,8.321031E-2,-3.715547E-1,8.5605316E-2,-2.8503639E-1,1.04137085E-1],"categories":[],"categories_nodes":[],"categories_segments":[],"categories_sizes":[],"default_left":[0,0,0,0,0,0,0,0,0,0,0,0,0,0,0,0,0,0,0,0,0,0,0,0,0,0,0,0,0,0,0,0,0,0,0,0,0,0,0,0,0,0,0,0,0,0,0,0,0,0,0,0,0,0,0,0,0,0,0,0,0],"id":17,"left_children":[1,3,5,7,9,11,13,15,17,19,21,23,25,27,29,31,33,35,37,39,41,43,45,47,49,51,53,55,57,-1,59,-1,-1,-1,-1,-1,-1,-1,-1,-1,-1,-1,-1,-1,-1,-1,-1,-1,-1,-1,-1,-1,-1,-1,-1,-1,-1,-1,-1,-1,-1],"loss_changes":[3.5150246E4,2.4851072E4,5.623119E3,1.2936375E4,1.021394E4,3.1580566E3,3.869746E2,7.7560547E3,4.738618E3,1.0165955E4,3.5347021E3,3.2060002E3,1.9081602E3,3.6070996E2,1.4457715E2,2.868625E3,4.729629E3,3.9903726E3,9.760132E2,1.6098936E3,6.647151E3,1.4190958E3,2.1979824E3,5.5324365E2,1.4708235E3,5.2006616E2,6.9809375E2,2.5911075E2,2.0718115E2,0E0,5.274707E1,0E0,0E0,0E0,0E0,0E0,0E0,0E0,0E0,0E0,0E0,0E0,0E0,0E0,0E0,0E0,0E0,0E0,0E0,0E0,0E0,0E0,0E0,0E0,0E0,0E0,0E0,0E0,0E0,0E0,0E0],"parents":[2147483647,0,0,1,1,2,2,3,3,4,4,5,5,6,6,7,7,8,8,9,9,10,10,11,11,12,12,13,13,14,14,15,15,16,16,17,17,18,18,19,19,20,20,21,21,22,22,23,23,24,24,25,25,26,26,27,27,28,28,30,30],"right_children":[2,4,6,8,10,12,14,16,18,20,22,24,26,28,30,32,34,36,38,40,42,44,46,48,50,52,54,56,58,-1,60,-1,-1,-1,-1,-1,-1,-1,-1,-1,-1,-1,-1,-1,-1,-1,-1,-1,-1,-1,-1,-1,-1,-1,-1,-1,-1,-1,-1,-1,-1],"split_conditions":[2.7653396E0,1.5919466E-1,8.648386E0,6.424746E-1,1.3463072E0,8.733941E-1,1.4531432E1,-4.0601915E-1,1.2148286E0,2.0295233E-3,-4.929848E-1,-9.1861445E-1,8.756807E-1,4.070014E-2,-8.433686E-1,-4.8033252E-1,5.2971864E-1,1E0,2.7362118E-2,7.142996E-1,3.3511827E0,2.666288E0,-1.5703155E-1,4.1673896E-1,-7.299423E-1,-2.149948E-1,-4.9308035E-1,7.789085E-1,-1.6935107E0,-1.411571E-1,-2.3678765E0,-8.622297E-2,-4.7898866E-2,-1.2497262E-2,-4.996998E-2,2.5885163E-2,-1.941151E-2,3.3056766E-2,-1.00456476E-1,-1.0395125E-1,-4.4315465E-2,3.4687202E-3,-7.939002E-2,-5.3543717E-2,9.134489E-3,6.176819E-4,4.6803854E-2,6.7295626E-2,3.0937979E-2,-4.6350736E-2,1.4027769E-2,-3.5067346E-2,2.7398435E-2,3.514882E-2,7.370953E-2,-5.068841E-4,8.321031E-2,-3.715547E-1,8.5605316E-2,-2.8503639E-1,1.04137085E-1],"split_indices":[0,2,0,6,9,2,0,13,5,21,14,7,9,6,4,8,7,16,11,3,13,20,11,3,1,1,14,2,2,0,11,0,0,0,0,0,0,0,0,0,0,0,0,0,0,0,0,0,0,0,0,0,0,0,0,0,0,0,0,0,0],"split_type":[0,0,0,0,0,0,0,0,0,0,0,0,0,0,0,0,0,0,0,0,0,0,0,0,0,0,0,0,0,0,0,0,0,0,0,0,0,0,0,0,0,0,0,0,0,0,0,0,0,0,0,0,0,0,0,0,0,0,0,0,0],"sum_hessian":[9.847796E5,8.5461894E5,1.30160664E5,3.024736E5,5.521454E5,1.0551979E5,2.4640871E4,2.150501E5,8.7423484E4,4.3832022E5,1.1382516E5,6.0256938E4,4.5262855E4,1.1902515E4,1.2738355E4,7.8629195E4,1.364209E5,8.172366E4,5.6998237E3,1.8125451E4,4.2019478E5,2.2809764E4,9.101539E4,1.9853848E4,4.040309E4,8.1466055E3,3.711625E4,1.5358438E3,1.0366671E4,2.3272528E1,1.2715083E4,4.2429168E4,3.620003E4,7.580879E4,6.0612113E4,4.982542E4,3.1898238E4,6.1308026E2,5.086743E3,9.316926E3,8.808525E3,4.102799E5,9.914857E3,4.4989326E3,1.8310832E4,1.1845569E4,7.916982E4,1.3852952E4,6.0008945E3,4.5450576E3,3.585803E4,1.6777219E3,6.468884E3,5.517405E3,3.1598844E4,9.1775323E2,6.180905E2,8.957499E0,1.0357714E4,2.5552878E0,1.2712528E4],"tree_param":{"num_deleted":"0","num_feature":"22","num_nodes":"61","size_leaf_vector":"1"}},{"base_weights":[3.1021383E-4,-6.67582E-2,4.5270053E-1,-4.7663066E-1,-3.178286E-3,3.5546762E-1,8.8919944E-1,-3.3894202E-1,-7.039615E-1,-1.2914205E-1,1.2662873E-1,2.1074288E-1,5.51215E-1,7.5346196E-1,1.0189568E0,-4.171327E-1,-2.2957198E-2,-7.935249E-1,-2.8896463E-1,-3.514083E-1,-1.162368E-3,-1.2035434E-1,1.9287607E-1,9.2985556E-2,4.5658743E-1,5.7748127E-1,1.5381725E-1,3.0658692E-1,8.226759E-1,-1.3579202E-1,1.0235242E0,3.9489493E-3,-4.7338244E-2,1.2173645E-2,-6.8378374E-2,-8.585513E-2,-1.977836E-2,1.0491929E-2,-6.8116285E-2,-7.040184E-2,-2.6272658E-2,-7.585101E-2,4.0944843E-3,-3.193538E-2,1.1628516E-2,2.3986591E-2,-1.9878931E-2,2.4724064E-2,-1.894653E-2,-9.232103E-3,5.7731517E-2,-2.8643215E-2,5.884376E-2,1.9586608E-2,-4.5900843E-1,-4.5614442E-4,7.9445325E-2,-2.9949397E-1,8.269912E-2,1.02443926E-1,-3.6490402E-1],"categories":[],"categories_nodes":[],"categories_segments":[],"categories_sizes":[],"default_left":[0,0,0,0,0,0,0,0,0,0,0,0,0,0,0,0,0,0,0,0,0,0,0,0,0,0,0,0,0,0,0,0,0,0,0,0,0,0,0,0,0,0,0,0,0,0,0,0,0,0,0,0,0,0,0,0,0,0,0,0,0],"id":18,"left_children":[1,3,5,7,9,11,13,15,17,19,21,23,25,27,29,31,33,35,37,39,41,43,45,47,49,51,53,55,57,-1,59,-1,-1,-1,-1,-1,-1,-1,-1,-1,-1,-1,-1,-1,-1,-1,-1,-1,-1,-1,-1,-1,-1,-1,-1,-1,-1,-1,-1,-1,-1],"loss_changes":[2.9546938E4,2.2101006E4,5.336035E3,3.5646309E3,1.2004962E4,2.9129756E3,4.0265234E2,1.7525073E3,1.5965176E3,1.059934E4,5.9162866E3,1.7115093E3,4.561504E2,3.4610986E2,1.2848926E2,1.4604961E3,1.3455596E3,1.3686035E3,1.1783306E3,4.257377E3,7.540846E3,3.6013345E3,5.247334E3,1.7417416E3,1.2688867E3,3.8823633E2,5.4172156E2,2.2822095E2,1.6220801E2,0E0,5.3697266E1,0E0,0E0,0E0,0E0,0E0,0E0,0E0,0E0,0E0,0E0,0E0,0E0,0E0,0E0,0E0,0E0,0E0,0E0,0E0,0E0,0E0,0E0,0E0,0E0,0E0,0E0,0E0,0E0,0E0,0E0],"parents":[2147483647,0,0,1,1,2,2,3,3,4,4,5,5,6,6,7,7,8,8,9,9,10,10,11,11,12,12,13,13,14,14,15,15,16,16,17,17,18,18,19,19,20,20,21,21,22,22,23,23,24,24,25,25,26,26,27,27,28,28,30,30],"right_children":[2,4,6,8,10,12,14,16,18,20,22,24,26,28,30,32,34,36,38,40,42,44,46,48,50,52,54,56,58,-1,60,-1,-1,-1,-1,-1,-1,-1,-1,-1,-1,-1,-1,-1,-1,-1,-1,-1,-1,-1,-1,-1,-1,-1,-1,-1,-1,-1,-1,-1,-1],"split_conditions":[2.7653396E0,-6.778586E-1,8.648386E0,4.6389564E-3,6.4185953E-1,7.6465106E-1,1.4531432E1,3.7443373E0,6.400513E-1,-4.0601915E-1,-4.9308035E-1,8.695948E-1,9.2715055E-1,4.070014E-2,-8.433686E-1,-8.699766E-1,1.1623453E-2,8.45989E-2,-1.8042359E-1,-6.895162E-1,2.8027296E-3,9.0126497E-1,3.3939347E-1,9.0767115E-2,8.7379724E-1,-2.195706E0,-1.8035504E-1,7.789085E-1,-1.6935107E0,-1.3579202E-1,1.5417097E0,3.9489493E-3,-4.7338244E-2,1.2173645E-2,-6.8378374E-2,-8.585513E-2,-1.977836E-2,1.0491929E-2,-6.8116285E-2,-7.040184E-2,-2.6272658E-2,-7.585101E-2,4.0944843E-3,-3.193538E-2,1.1628516E-2,2.3986591E-2,-1.9878931E-2,2.4724064E-2,-1.894653E-2,-9.232103E-3,5.7731517E-2,-2.8643215E-2,5.884376E-2,1.9586608E-2,-4.5900843E-1,-4.5614442E-4,7.9445325E-2,-2.9949397E-1,8.269912E-2,1.02443926E-1,-3.6490402E-1],"split_indices":[0,1,0,5,8,6,0,20,2,13,14,8,13,6,4,7,6,13,6,8,21,6,13,7,12,5,7,2,2,0,7,0,0,0,0,0,0,0,0,0,0,0,0,0,0,0,0,0,0,0,0,0,0,0,0,0,0,0,0,0,0],"split_type":[0,0,0,0,0,0,0,0,0,0,0,0,0,0,0,0,0,0,0,0,0,0,0,0,0,0,0,0,0,0,0,0,0,0,0,0,0,0,0,0,0,0,0,0,0,0,0,0,0,0,0,0,0,0,0,0,0,0,0,0,0],"sum_hessian":[9.7382356E5,8.480919E5,1.2573167E5,1.1388938E5,7.342025E5,1.02827914E5,2.2903758E4,7.093083E4,4.2958547E4,3.7261738E5,3.6158516E5,5.911997E4,4.370795E4,1.1197254E4,1.1706503E4,5.686037E4,1.4070459E4,3.5332316E4,7.6262314E3,1.3615355E5,2.3646381E5,7.647407E4,2.8511106E5,3.997411E4,1.914586E4,4.0997727E4,2.710223E3,1.5024194E3,9.694835E3,2.1883984E1,1.1684619E4,6.236252E3,5.062412E4,1.1543686E4,2.5267734E3,3.1854855E4,3.4774614E3,3.805304E3,3.8209275E3,2.7359938E4,1.0879361E5,1.2453629E4,2.2401019E5,4.15406E4,3.4933473E4,2.5456961E5,3.054146E4,2.5854367E4,1.4119741E4,3.4518213E3,1.5694038E4,5.131168E2,4.048461E4,2.6873613E3,2.2861425E1,9.179596E2,5.844599E2,1.0163873E1,9.684671E3,1.1683112E4,1.5070263E0],"tree_param":{"num_deleted":"0","num_feature":"22","num_nodes":"61","size_leaf_vector":"1"}},{"base_weights":[2.690337E-4,-6.0713407E-2,4.2215645E-1,-2.0324028E-1,1.01127565E-1,2.7523294E-1,7.073243E-1,-1.0688405E-1,-4.289176E-1,-2.4791484E-1,1.4668542E-1,1.4701399E-1,4.6101207E-1,6.035388E-1,1.0027525E0,2.454237E-1,-1.6952902E-1,-6.339031E-1,-1.8386167E-1,-5.541495E-1,-3.204195E-2,1.7520922E-1,-5.1665956E-1,-4.8821256E-2,2.7233645E-1,-3.6682025E-1,4.654904E-1,3.5417694E-1,7.416105E-1,-1.347956E-1,1.0072339E0,5.3147156E-2,2.763177E-3,-3.1090925E-2,1.2124861E-2,-7.138297E-2,2.8124977E-2,-7.3143005E-2,-8.864845E-3,1.1737443E-2,-6.66087E-2,-9.292274E-2,1.108583E-2,1.3208123E-2,4.6951547E-2,-3.5214353E-2,-1.3817547E-1,-5.6681808E-2,8.8960435E-3,-2.4537704E-4,3.8262527E-2,4.9781524E-2,1.3742602E-2,2.0277519E-2,7.397805E-2,6.8619415E-2,8.625797E-2,-2.5811446E-1,1.00839E-1],"categories":[],"categories_nodes":[],"categories_segments":[],"categories_sizes":[],"default_left":[0,0,0,0,0,0,0,0,0,0,0,0,0,0,0,0,0,0,0,0,0,0,0,0,0,0,0,0,0,0,0,0,0,0,0,0,0,0,0,0,0,0,0,0,0,0,0,0,0,0,0,0,0,0,0,0,0,0,0],"id":19,"left_children":[1,3,5,7,9,11,13,15,17,19,21,23,25,27,29,31,33,35,37,39,41,43,45,47,49,-1,51,53,55,-1,57,-1,-1,-1,-1,-1,-1,-1,-1,-1,-1,-1,-1,-1,-1,-1,-1,-1,-1,-1,-1,-1,-1,-1,-1,-1,-1,-1,-1],"loss_changes":[2.4790543E4,1.9419445E4,5.09841E3,9.734348E3,6.2689355E3,1.9130522E3,1.2680879E3,6.923742E3,6.728209E3,3.00891E3,6.5981836E3,1.1662756E3,6.0816064E2,1.0540889E3,1.1466016E2,2.9505264E3,1.0949782E4,5.3349473E3,3.180726E3,1.4146763E3,3.422939E3,4.24366E3,2.0456511E3,1.3235552E3,8.781819E2,0E0,3.4734766E2,6.370946E2,1.3153027E2,0E0,4.714258E1,0E0,0E0,0E0,0E0,0E0,0E0,0E0,0E0,0E0,0E0,0E0,0E0,0E0,0E0,0E0,0E0,0E0,0E0,0E0,0E0,0E0,0E0,0E0,0E0,0E0,0E0,0E0,0E0],"parents":[2147483647,0,0,1,1,2,2,3,3,4,4,5,5,6,6,7,7,8,8,9,9,10,10,11,11,12,12,13,13,14,14,15,15,16,16,17,17,18,18,19,19,20,20,21,21,22,22,23,23,24,24,26,26,27,27,28,28,30,30],"right_children":[2,4,6,8,10,12,14,16,18,20,22,24,26,28,30,32,34,36,38,40,42,44,46,48,50,-1,52,54,56,-1,58,-1,-1,-1,-1,-1,-1,-1,-1,-1,-1,-1,-1,-1,-1,-1,-1,-1,-1,-1,-1,-1,-1,-1,-1,-1,-1,-1,-1],"split_conditions":[2.7653396E0,9.7357266E-2,5.706863E0,3.346907E-1,2.8027296E-3,7.6465106E-1,1.4531432E1,-1.0816395E0,5.1411515E-1,4.502314E-1,2.469127E0,1.9970085E-1,-1.6358763E0,6.042231E-1,-1.3486437E0,1E0,3.5618484E0,1.0813304E-1,2.8027296E-3,-1.4570808E0,1.21302865E-1,1.51695E0,4.568962E0,-4.08901E-1,-2.9094508E-1,-3.6682025E-1,2.370699E0,9.8746985E-1,1.3041607E0,-1.347956E-1,-2.3678765E0,5.3147156E-2,2.763177E-3,-3.1090925E-2,1.2124861E-2,-7.138297E-2,2.8124977E-2,-7.3143005E-2,-8.864845E-3,1.1737443E-2,-6.66087E-2,-9.292274E-2,1.108583E-2,1.3208123E-2,4.6951547E-2,-3.5214353E-2,-1.3817547E-1,-5.6681808E-2,8.8960435E-3,-2.4537704E-4,3.8262527E-2,4.9781524E-2,1.3742602E-2,2.0277519E-2,7.397805E-2,6.8619415E-2,8.625797E-2,-2.5811446E-1,1.00839E-1],"split_indices":[0,1,0,5,21,6,0,7,2,11,13,2,12,6,6,16,20,13,21,11,9,2,13,13,1,0,3,2,10,0,11,0,0,0,0,0,0,0,0,0,0,0,0,0,0,0,0,0,0,0,0,0,0,0,0,0,0,0,0],"split_type":[0,0,0,0,0,0,0,0,0,0,0,0,0,0,0,0,0,0,0,0,0,0,0,0,0,0,0,0,0,0,0,0,0,0,0,0,0,0,0,0,0,0,0,0,0,0,0,0,0,0,0,0,0,0,0,0,0,0,0],"sum_hessian":[9.6357106E5,8.418808E5,1.2169026E5,4.4765166E5,3.9422916E5,8.031336E4,4.137689E4,3.1371003E5,1.3394162E5,4.5514492E4,3.4871466E5,4.751901E4,3.279435E4,3.0622195E4,1.0754697E4,4.736004E4,2.6635E5,7.293284E4,6.100878E4,1.8817975E4,2.6696518E4,3.3433884E5,1.4375823E4,1.8543152E4,2.8975861E4,3.464227E1,3.2759707E4,1.0914261E4,1.9707934E4,1.9892801E1,1.0734805E4,2.047143E4,2.6888607E4,1.7921369E5,8.713631E4,6.7074945E4,5.857898E3,9.036051E3,5.197273E4,2.6886208E3,1.6129353E4,3.6671523E3,2.3029365E4,2.9160772E5,4.273112E4,1.207997E4,2.2958533E3,3.895336E3,1.4647815E4,8.299131E3,2.067673E4,2.9820879E4,2.9388281E3,7.8382207E3,3.07604E3,1.3520716E4,6.1872183E3,2.738767E0,1.0732065E4],"tree_param":{"num_deleted":"0","num_feature":"22","num_nodes":"59","size_leaf_vector":"1"}},{"base_weights":[2.4034886E-4,-4.1649133E-1,5.4291967E-2,-5.530978E-1,-1.9063285E-1,-2.0415615E-3,4.2773795E-1,-1.0638275E0,-4.917043E-1,-6.944657E-2,-5.508414E-1,4.1190684E-2,-3.058242E-1,3.3799848E-1,8.511665E-1,-1.1504596E0,-5.2742195E-1,-5.4927456E-1,1.608264E-1,-1.2250093E0,-3.8954142E-2,3.2275742E-1,-6.455238E-1,-4.6015272E-1,6.541817E-2,-4.886012E-1,7.90025E-2,2.2155382E-1,4.999141E-1,7.1300983E-1,9.900154E-1,2.0217983E-2,-1.1777457E-1,7.8814715E-2,-1.3241333E-1,-5.683097E-2,1.414353E-1,-1.6370779E-2,1.2505685E-1,-1.2164227E-1,-1.5202332E-1,-6.9200397E-3,1.1080631E-1,-1.0706589E-2,1.9012481E-1,-6.9590725E-2,1.3428693E-1,-6.49633E-2,3.7205454E-3,-1.895212E-3,1.9438485E-2,-6.441649E-2,-3.322602E-2,-2.2260474E-2,2.924797E-2,5.0940465E-2,1.1313006E-2,6.8467096E-3,5.9634537E-2,7.329218E-2,-9.140749E-2,-1.3471794E-1,9.933975E-2],"categories":[],"categories_nodes":[],"categories_segments":[],"categories_sizes":[],"default_left":[0,0,0,0,0,0,0,0,0,0,0,0,0,0,0,0,0,0,0,0,0,0,0,0,0,0,0,0,0,0,0,0,0,0,0,0,0,0,0,0,0,0,0,0,0,0,0,0,0,0,0,0,0,0,0,0,0,0,0,0,0,0,0],"id":20,"left_children":[1,3,5,7,9,11,13,15,17,19,21,23,25,27,29,31,33,35,37,39,41,43,45,47,49,51,53,55,57,59,61,-1,-1,-1,-1,-1,-1,-1,-1,-1,-1,-1,-1,-1,-1,-1,-1,-1,-1,-1,-1,-1,-1,-1,-1,-1,-1,-1,-1,-1,-1,-1,-1],"loss_changes":[2.1484316E4,3.3786074E3,1.7761785E4,2.139037E3,1.8016206E3,9.634869E3,4.2048184E3,3.396172E2,2.2884521E3,1.0881792E3,8.59603E2,7.8007295E3,6.428713E3,1.7215596E3,3.7051758E2,2.3285156E2,1.0699985E3,2.0931055E3,1.747057E3,1.6345215E-1,1.0440249E3,6.899604E2,9.4006714E2,2.7900107E3,6.6659463E3,1.5068682E3,1.8950989E3,1.6577332E3,1.5892012E3,3.1505322E2,7.7612305E1,0E0,0E0,0E0,0E0,0E0,0E0,0E0,0E0,0E0,0E0,0E0,0E0,0E0,0E0,0E0,0E0,0E0,0E0,0E0,0E0,0E0,0E0,0E0,0E0,0E0,0E0,0E0,0E0,0E0,0E0,0E0,0E0],"parents":[2147483647,0,0,1,1,2,2,3,3,4,4,5,5,6,6,7,7,8,8,9,9,10,10,11,11,12,12,13,13,14,14,15,15,16,16,17,17,18,18,19,19,20,20,21,21,22,22,23,23,24,24,25,25,26,26,27,27,28,28,29,29,30,30],"right_children":[2,4,6,8,10,12,14,16,18,20,22,24,26,28,30,32,34,36,38,40,42,44,46,48,50,52,54,56,58,60,62,-1,-1,-1,-1,-1,-1,-1,-1,-1,-1,-1,-1,-1,-1,-1,-1,-1,-1,-1,-1,-1,-1,-1,-1,-1,-1,-1,-1,-1,-1,-1,-1],"split_conditions":[-6.950947E-1,-3.025163E-1,2.7653396E0,3.2769367E-3,1.6259749E0,5.2971864E-1,8.648386E0,6.921911E-1,9.635724E-1,-1.3181305E0,-2.195706E0,2.0295233E-3,3.503077E0,9.0630764E-1,1.4531432E1,-8.5625523E-1,2.6167554E-1,2.4158154E-1,4.319103E-1,2.7653396E0,4.738205E0,1.5417097E0,5.5472517E-1,1.3467994E0,4.6423635E-1,5.5895597E-3,7.7421635E-1,-1.0816395E0,8.978123E-1,1.2604729E0,-1.3486437E0,2.0217983E-2,-1.1777457E-1,7.8814715E-2,-1.3241333E-1,-5.683097E-2,1.414353E-1,-1.6370779E-2,1.2505685E-1,-1.2164227E-1,-1.5202332E-1,-6.9200397E-3,1.1080631E-1,-1.0706589E-2,1.9012481E-1,-6.9590725E-2,1.3428693E-1,-6.49633E-2,3.7205454E-3,-1.895212E-3,1.9438485E-2,-6.441649E-2,-3.322602E-2,-2.2260474E-2,2.924797E-2,5.0940465E-2,1.1313006E-2,6.8467096E-3,5.9634537E-2,7.329218E-2,-9.140749E-2,-1.3471794E-1,9.933975E-2],"split_indices":[1,13,0,21,13,7,0,12,2,3,5,21,20,2,0,4,14,4,7,0,14,7,5,8,1,21,8,7,9,14,6,0,0,0,0,0,0,0,0,0,0,0,0,0,0,0,0,0,0,0,0,0,0,0,0,0,0,0,0,0,0,0,0],"split_type":[0,0,0,0,0,0,0,0,0,0,0,0,0,0,0,0,0,0,0,0,0,0,0,0,0,0,0,0,0,0,0,0,0,0,0,0,0,0,0,0,0,0,0,0,0,0,0,0,0,0,0,0,0,0,0,0,0,0,0,0,0,0,0],"sum_hessian":[9.537958E5,1.0950652E5,8.4428925E5,6.823461E4,4.1271918E4,7.3362456E5,1.106647E5,7.3203784E3,6.091423E4,3.0883023E4,1.0388896E4,6.42228E5,9.1396586E4,9.131387E4,1.9350838E4,6.3015083E3,1.0188699E3,5.5975855E4,4.938375E3,7.929681E2,3.0090055E4,1.01563257E3,9.373264E3,2.9604254E4,6.126237E5,6.1965316E4,2.9431271E4,5.311651E4,3.8197355E4,9.702672E3,9.648167E3,1.24476364E2,6.177032E3,3.8430206E2,6.345678E2,5.5439145E4,5.3670935E2,3.8058203E3,1.1325549E3,7.7553186E2,1.7436258E1,2.9317896E4,7.721581E2,7.9899756E2,2.1663501E2,9.14226E3,2.3100357E2,2.1437012E4,8.167243E3,3.703444E5,2.4227931E5,3.1058305E4,3.090701E4,1.2197798E4,1.7233473E4,1.4532072E4,3.8584438E4,6.9780947E3,3.1219262E4,9.585911E3,1.1676096E2,1.3367596E1,9.634799E3],"tree_param":{"num_deleted":"0","num_feature":"22","num_nodes":"63","size_leaf_vector":"1"}},{"base_weights":[1.8526793E-4,-3.712197E-1,5.1164746E-2,-2.4927387E-1,-5.888527E-1,-7.749019E-5,3.996993E-1,-4.9211678E-1,-1.6660944E-1,-6.8885523E-1,-1.8522525E-1,-4.7913425E-2,2.5952464E-1,3.1370574E-1,8.259098E-1,-6.187649E-1,-8.307949E-2,-2.423163E-2,-3.3404914E-1,-7.5695896E-1,-1.5181763E-1,1.7949982E-1,-5.885655E-1,2.3113535E-1,-1.10891424E-1,-4.219522E-2,3.3628634E-1,1.9865252E-1,4.6448857E-1,7.068345E-1,1.0052158E0,-6.657585E-2,5.3613108E-2,2.0726642E-2,-5.9225854E-2,1.0443943E-2,-5.088791E-2,-4.1354526E-2,2.3962189E-2,-8.100296E-2,-2.6280228E-3,1.5177846E-2,-1.3084848E-1,-8.044026E-2,4.3979865E-2,1.9602716E-1,-6.6072084E-2,-6.0103405E-2,3.4882136E-2,-4.8401505E-2,-6.9773174E-3,-1.7071725E-1,-1.2387135E-3,3.688582E-2,-2.172735E-2,5.244437E-2,1.12843895E-2,7.633773E-3,5.5558275E-2,7.25238E-2,-8.5628115E-2,-6.4275765E-1,1.0074856E-1],"categories":[],"categories_nodes":[],"categories_segments":[],"categories_sizes":[],"default_left":[0,0,0,0,0,0,0,0,0,0,0,0,0,0,0,0,0,0,0,0,0,0,0,0,0,0,0,0,0,0,0,0,0,0,0,0,0,0,0,0,0,0,0,0,0,0,0,0,0,0,0,0,0,0,0,0,0,0,0,0,0,0,0],"id":21,"left_children":[1,3,5,7,9,11,13,15,17,19,21,23,25,27,29,31,33,35,37,39,41,43,45,47,49,51,53,55,57,59,61,-1,-1,-1,-1,-1,-1,-1,-1,-1,-1,-1,-1,-1,-1,-1,-1,-1,-1,-1,-1,-1,-1,-1,-1,-1,-1,-1,-1,-1,-1,-1,-1],"loss_changes":[1.7899268E4,3.027962E3,1.4845877E4,1.4678911E3,1.6537012E3,8.999616E3,3.9048457E3,9.619629E2,1.3006151E3,1.2008721E3,1.1971437E3,1.07543E4,2.6116128E3,1.538E3,3.812041E2,7.699297E2,6.493688E2,1.838817E3,1.1434897E3,1.13E3,1.2983584E3,1.0949307E3,7.119763E2,1.103537E4,7.659812E3,1.1350343E3,1.6208633E3,1.4058422E3,1.356706E3,3.09937E2,1.2687158E2,0E0,0E0,0E0,0E0,0E0,0E0,0E0,0E0,0E0,0E0,0E0,0E0,0E0,0E0,0E0,0E0,0E0,0E0,0E0,0E0,0E0,0E0,0E0,0E0,0E0,0E0,0E0,0E0,0E0,0E0,0E0,0E0],"parents":[2147483647,0,0,1,1,2,2,3,3,4,4,5,5,6,6,7,7,8,8,9,9,10,10,11,11,12,12,13,13,14,14,15,15,16,16,17,17,18,18,19,19,20,20,21,21,22,22,23,23,24,24,25,25,26,26,27,27,28,28,29,29,30,30],"right_children":[2,4,6,8,10,12,14,16,18,20,22,24,26,28,30,32,34,36,38,40,42,44,46,48,50,52,54,56,58,60,62,-1,-1,-1,-1,-1,-1,-1,-1,-1,-1,-1,-1,-1,-1,-1,-1,-1,-1,-1,-1,-1,-1,-1,-1,-1,-1,-1,-1,-1,-1,-1,-1],"split_conditions":[-6.778586E-1,4.6389564E-3,2.7653396E0,-1.095512E0,6.400513E-1,1.3463072E0,8.648386E0,1E0,3.7093747E-1,8.45989E-2,-1.8042359E-1,-8.7549895E-1,-4.929848E-1,8.733941E-1,1.7472956E1,7.129605E-1,-3.2541275E-1,1.8245755E0,-1.05378285E-1,6.7220557E-1,5.402143E-1,2.7375537E-1,-3.8937116E-1,-2.3057232E0,2.8027296E-3,1.2528461E0,1E0,-1.24575E0,8.756807E-1,1.2604729E0,2.3448765E-3,-6.657585E-2,5.3613108E-2,2.0726642E-2,-5.9225854E-2,1.0443943E-2,-5.088791E-2,-4.1354526E-2,2.3962189E-2,-8.100296E-2,-2.6280228E-3,1.5177846E-2,-1.3084848E-1,-8.044026E-2,4.3979865E-2,1.9602716E-1,-6.6072084E-2,-6.0103405E-2,3.4882136E-2,-4.8401505E-2,-6.9773174E-3,-1.7071725E-1,-1.2387135E-3,3.688582E-2,-2.172735E-2,5.244437E-2,1.12843895E-2,7.633773E-3,5.5558275E-2,7.25238E-2,-8.5628115E-2,-6.4275765E-1,1.0074856E-1],"split_indices":[1,5,0,3,2,9,0,17,11,13,6,5,14,2,0,12,5,13,5,8,14,9,9,5,21,8,19,7,9,14,21,0,0,0,0,0,0,0,0,0,0,0,0,0,0,0,0,0,0,0,0,0,0,0,0,0,0,0,0,0,0,0,0],"split_type":[0,0,0,0,0,0,0,0,0,0,0,0,0,0,0,0,0,0,0,0,0,0,0,0,0,0,0,0,0,0,0,0,0,0,0,0,0,0,0,0,0,0,0,0,0,0,0,0,0,0,0,0,0,0,0,0,0,0,0,0,0,0,0],"sum_hessian":[9.4534706E5,1.1409743E5,8.312496E5,7.312539E4,4.0972043E4,7.247033E5,1.0654631E5,1.856935E4,5.455604E4,3.283592E4,8.13612E3,6.1194356E5,1.1275978E5,8.865977E4,1.7886537E4,1.4178745E4,4.3906035E3,2.9485223E4,2.5070816E4,2.9140145E4,3.6957798E3,4.272877E3,3.863243E3,1.1267777E5,4.9926578E5,2.286945E4,8.989033E4,5.0289344E4,3.8370426E4,1.0751508E4,7.1350293E3,1.3624767E4,5.539784E2,2.7965422E3,1.5940615E3,2.3299994E4,6.1852275E3,2.2019725E4,3.051091E3,2.7166855E4,1.9732886E3,2.9280967E3,7.6768304E2,8.9348956E2,3.3793875E3,1.0563378E2,3.7576091E3,1.3960138E4,9.871763E4,4.9556777E4,4.49709E5,4.0124084E2,2.2468207E4,8.489536E4,4.9949707E3,1.0483049E4,3.9806297E4,7.2937437E3,3.1076684E4,1.0626927E4,1.2458145E2,1.3140883E0,7.1337153E3],"tree_param":{"num_deleted":"0","num_feature":"22","num_nodes":"63","size_leaf_vector":"1"}},{"base_weights":[1.6342352E-4,-1.3832831E-1,1.1967666E-1,2.11625E-1,-1.9515719E-1,9.3404435E-2,6.571994E-1,4.6727124E-1,-3.8486626E-2,-3.0276766E-1,5.578684E-2,1.13993704E-1,-4.411803E-1,-2.149708E0,6.697621E-1,5.102219E-1,-1.0762174E0,7.067958E-2,-9.581124E-1,-4.9048394E-1,-1.9782116E-1,-3.4852228E-1,1.0891858E-1,1.9412233E-1,-5.05072E-2,-6.400304E-1,1.0799415E-1,-1.9084928E0,-3.296968E-1,5.9407645E-1,9.463945E-1,4.178389E-2,1.1807704E-1,-1.327074E-1,8.233928E-2,-9.882651E-2,1.4859743E-2,-1.1891835E-1,3.1292234E-2,-5.4709394E-2,3.0504588E-2,-3.1341583E-2,4.054322E-3,-6.2399175E-2,-1.2961597E-3,1.8032996E-2,-2.2847077E-2,-4.831054E-2,2.1624856E-2,-1.0854739E-2,4.7671515E-2,-1.0697615E-1,-4.538284E-2,4.6713952E-2,-2.2443626E-2,-2.1785598E-1,-1.5768838E-1,-4.864214E-1,5.986789E-2,9.500604E-2,-4.3634483E-1],"categories":[],"categories_nodes":[],"categories_segments":[],"categories_sizes":[],"default_left":[0,0,0,0,0,0,0,0,0,0,0,0,0,0,0,0,0,0,0,0,0,0,0,0,0,0,0,0,0,0,0,0,0,0,0,0,0,0,0,0,0,0,0,0,0,0,0,0,0,0,0,0,0,0,0,0,0,0,0,0,0],"id":22,"left_children":[1,3,5,7,9,11,13,15,17,19,21,23,25,27,29,31,33,35,37,39,41,43,45,47,49,51,53,55,-1,57,59,-1,-1,-1,-1,-1,-1,-1,-1,-1,-1,-1,-1,-1,-1,-1,-1,-1,-1,-1,-1,-1,-1,-1,-1,-1,-1,-1,-1,-1,-1],"loss_changes":[1.5519883E4,8.638089E3,7.1077827E3,3.8799163E3,1.0090608E4,5.2818086E3,8.2848047E2,1.9899058E3,3.0793977E3,5.151918E3,2.4091414E3,6.0906816E3,1.9435217E3,2.269345E1,4.883252E2,1.8081445E3,3.883927E2,2.262526E3,9.563108E2,4.2234863E3,4.62196E3,1.2040831E3,2.388229E3,4.656083E3,4.631458E3,1.0450005E3,5.650384E2,4.5279846E0,0E0,4.6356055E2,1.01754395E2,0E0,0E0,0E0,0E0,0E0,0E0,0E0,0E0,0E0,0E0,0E0,0E0,0E0,0E0,0E0,0E0,0E0,0E0,0E0,0E0,0E0,0E0,0E0,0E0,0E0,0E0,0E0,0E0,0E0,0E0],"parents":[2147483647,0,0,1,1,2,2,3,3,4,4,5,5,6,6,7,7,8,8,9,9,10,10,11,11,12,12,13,13,14,14,15,15,16,16,17,17,18,18,19,19,20,20,21,21,22,22,23,23,24,24,25,25,26,26,27,27,29,29,30,30],"right_children":[2,4,6,8,10,12,14,16,18,20,22,24,26,28,30,32,34,36,38,40,42,44,46,48,50,52,54,56,-1,58,60,-1,-1,-1,-1,-1,-1,-1,-1,-1,-1,-1,-1,-1,-1,-1,-1,-1,-1,-1,-1,-1,-1,-1,-1,-1,-1,-1,-1,-1,-1],"split_conditions":[-1.557642E-2,-1.0669383E0,5.706863E0,1E0,3.5855896E0,2.469127E0,-8.1958354E-1,1.3248458E0,3.346907E-1,-4.092612E-1,-6.385521E-2,5.5472517E-1,9.0597373E-1,-1.3486437E0,1.4531432E1,9.9479413E-1,1.5832323E0,3.5549179E-3,-2.1291219E-1,1.4073693E0,1E0,-1.7728038E-1,5.5472517E-1,-2.3057232E0,8.45989E-2,-3.476908E0,-6.554645E-1,1.9094477E0,-3.296968E-1,-1.7575756E0,7.9541945E-1,4.178389E-2,1.1807704E-1,-1.327074E-1,8.233928E-2,-9.882651E-2,1.4859743E-2,-1.1891835E-1,3.1292234E-2,-5.4709394E-2,3.0504588E-2,-3.1341583E-2,4.054322E-3,-6.2399175E-2,-1.2961597E-3,1.8032996E-2,-2.2847077E-2,-4.831054E-2,2.1624856E-2,-1.0854739E-2,4.7671515E-2,-1.0697615E-1,-4.538284E-2,4.6713952E-2,-2.2443626E-2,-2.1785598E-1,-1.5768838E-1,-4.864214E-1,5.986789E-2,9.500604E-2,-4.3634483E-1],"split_indices":[1,7,0,16,20,13,4,5,5,13,2,5,6,6,0,5,4,21,14,9,17,13,5,5,13,11,5,7,0,9,14,0,0,0,0,0,0,0,0,0,0,0,0,0,0,0,0,0,0,0,0,0,0,0,0,0,0,0,0,0,0],"split_type":[0,0,0,0,0,0,0,0,0,0,0,0,0,0,0,0,0,0,0,0,0,0,0,0,0,0,0,0,0,0,0,0,0,0,0,0,0,0,0,0,0,0,0,0,0,0,0,0,0,0,0,0,0,0,0,0,0,0,0,0,0],"sum_hessian":[9.376648E5,4.3434562E5,5.033192E5,6.06792E4,3.7366644E5,4.798662E5,2.3452994E4,3.0007156E4,3.0672043E4,2.6152038E5,1.1214607E5,4.6207056E5,1.7795635E4,1.037412E2,2.3349254E4,2.9195406E4,8.1175104E2,2.7418225E4,3.2538179E3,9.377778E4,1.6774258E5,1.3025115E4,9.912095E4,3.107188E5,1.5135175E5,1.3064835E4,4.7308003E3,8.7919395E1,1.5821809E1,1.8335795E4,5.0134595E3,2.5661574E4,3.5338308E3,7.1732477E2,9.442627E1,1.878379E3,2.5539846E4,2.7533328E3,5.0048505E2,8.7548164E4,6.2296226E3,1.1296161E5,5.4780977E4,7.152558E3,5.8725576E3,8.180639E4,1.7314562E4,9.829891E3,3.008889E5,1.3634298E5,1.5008759E4,3.94818E3,9.116655E3,2.273832E3,2.456968E3,4.5386414E1,4.253298E1,1.4558253E1,1.8321236E4,5.010821E3,2.638401E0],"tree_param":{"num_deleted":"0","num_feature":"22","num_nodes":"61","size_leaf_vector":"1"}},{"base_weights":[1.185687E-4,-8.594472E-2,1.7601486E-1,6.322529E-2,-2.2044307E-1,6.3610882E-3,2.8383952E-1,2.9992227E-2,7.108514E-1,-3.7042552E-1,-8.093575E-2,-1.3625298E-1,2.1477672E-1,1.8499795E-1,5.161188E-1,-1.6903624E-1,1.3346776E-1,7.864279E-1,-4.9503453E-2,-6.048066E-1,-2.4742678E-1,2.3713224E-1,-1.5812294E-1,-6.771313E-1,-2.6293602E-2,2.8185996E-1,-5.516793E-1,2.3834836E-1,-1.809138E-1,6.3385236E-1,2.7067727E-1,-2.8024098E-2,3.6981918E-3,-9.310084E-2,1.6617274E-2,6.28249E-2,9.5984794E-2,6.415866E-3,-3.5621366E-1,-4.3497026E-2,-8.44019E-2,-6.537584E-2,-1.7481497E-2,-4.419437E-2,3.3429783E-2,-4.749734E-2,-8.900049E-3,1.1633418E-1,-7.293967E-2,-8.14526E-3,3.939498E-2,-3.6052804E-2,3.3482064E-2,-1.2581587E-1,-7.34866E-3,-2.2745684E-2,2.8296733E-2,2.4984693E-2,-3.8412992E-2,7.213153E-2,2.5109587E-2,-2.2862004E-1,2.930273E-2],"categories":[],"categories_nodes":[],"categories_segments":[],"categories_sizes":[],"default_left":[0,0,0,0,0,0,0,0,0,0,0,0,0,0,0,0,0,0,0,0,0,0,0,0,0,0,0,0,0,0,0,0,0,0,0,0,0,0,0,0,0,0,0,0,0,0,0,0,0,0,0,0,0,0,0,0,0,0,0,0,0,0,0],"id":23,"left_children":[1,3,5,7,9,11,13,15,17,19,21,23,25,27,29,31,33,35,37,39,41,43,45,47,49,51,53,55,57,59,61,-1,-1,-1,-1,-1,-1,-1,-1,-1,-1,-1,-1,-1,-1,-1,-1,-1,-1,-1,-1,-1,-1,-1,-1,-1,-1,-1,-1,-1,-1,-1,-1],"loss_changes":[1.4099743E4,1.2547521E4,5.5975996E3,6.3820396E3,6.8812197E3,3.5343467E3,4.2953145E3,5.80884E3,8.317666E2,4.568799E3,4.183208E3,4.198877E3,2.484067E3,2.5621528E3,1.6136357E3,2.2104172E3,6.460714E3,3.6053564E2,5.23052E2,2.2156465E3,3.0666519E3,2.1957017E3,3.0029775E3,1.1482217E3,1.3600822E3,1.5114304E3,1.313507E3,2.3807368E3,1.462087E3,1.2633135E3,1.0353759E3,0E0,0E0,0E0,0E0,0E0,0E0,0E0,0E0,0E0,0E0,0E0,0E0,0E0,0E0,0E0,0E0,0E0,0E0,0E0,0E0,0E0,0E0,0E0,0E0,0E0,0E0,0E0,0E0,0E0,0E0,0E0,0E0],"parents":[2147483647,0,0,1,1,2,2,3,3,4,4,5,5,6,6,7,7,8,8,9,9,10,10,11,11,12,12,13,13,14,14,15,15,16,16,17,17,18,18,19,19,20,20,21,21,22,22,23,23,24,24,25,25,26,26,27,27,28,28,29,29,30,30],"right_children":[2,4,6,8,10,12,14,16,18,20,22,24,26,28,30,32,34,36,38,40,42,44,46,48,50,52,54,56,58,60,62,-1,-1,-1,-1,-1,-1,-1,-1,-1,-1,-1,-1,-1,-1,-1,-1,-1,-1,-1,-1,-1,-1,-1,-1,-1,-1,-1,-1,-1,-1,-1,-1],"split_conditions":[9.2874813E-1,-3.8731518E-1,-4.868965E-1,5.706863E0,2.913537E0,9.1575485E-1,1.064044E0,-4.0601915E-1,3.207811E0,4.5967624E-3,-7.654817E-1,2.7548006E0,1.2148286E0,-6.345104E-2,7.7475965E-1,4.5296338E-1,-2.5257576E0,1.1589909E1,5.402143E-1,1E0,-8.5481024E-1,-5.056409E-1,-7.24074E-1,9.055034E-3,1.6682744E0,2.8330982E-3,1.4896828E0,1.9623132E-1,-1.315568E0,-1.6863504E-1,-1.696539E0,-2.8024098E-2,3.6981918E-3,-9.310084E-2,1.6617274E-2,6.28249E-2,9.5984794E-2,6.415866E-3,-3.5621366E-1,-4.3497026E-2,-8.44019E-2,-6.537584E-2,-1.7481497E-2,-4.419437E-2,3.3429783E-2,-4.749734E-2,-8.900049E-3,1.1633418E-1,-7.293967E-2,-8.14526E-3,3.939498E-2,-3.6052804E-2,3.3482064E-2,-1.2581587E-1,-7.34866E-3,-2.2745684E-2,2.8296733E-2,2.4984693E-2,-3.8412992E-2,7.213153E-2,2.5109587E-2,-2.2862004E-1,2.930273E-2],"split_indices":[2,7,14,0,20,6,1,13,20,21,5,20,5,13,5,8,5,0,14,16,1,10,1,8,9,21,2,12,5,13,7,0,0,0,0,0,0,0,0,0,0,0,0,0,0,0,0,0,0,0,0,0,0,0,0,0,0,0,0,0,0,0,0],"split_type":[0,0,0,0,0,0,0,0,0,0,0,0,0,0,0,0,0,0,0,0,0,0,0,0,0,0,0,0,0,0,0,0,0,0,0,0,0,0,0,0,0,0,0,0,0,0,0,0,0,0,0,0,0,0,0,0,0,0,0,0,0,0,0],"sum_hessian":[9.313988E5,6.254006E5,3.059982E5,2.9652734E5,3.2887328E5,1.1890749E5,