{"learner":{"attributes":{},"feature_names":[],"feature_types":[],"gradient_booster":{"model":{"gbtree_model_param":{"num_parallel_tree":"1","num_trees":"400"},"iteration_indptr":[0,1,2,3,4,5,6,7,8,9,10,11,12,13,14,15,16,17,18,19,20,21,22,23,24,25,26,27,28,29,30,31,32,33,34,35,36,37,38,39,40,41,42,43,44,45,46,47,48,49,50,51,52,53,54,55,56,57,58,59,60,61,62,63,64,65,66,67,68,69,70,71,72,73,74,75,76,77,78,79,80,81,82,83,84,85,86,87,88,89,90,91,92,93,94,95,96,97,98,99,100,101,102,103,104,105,106,107,108,109,110,111,112,113,114,115,116,117,118,119,120,121,122,123,124,125,126,127,128,129,130,131,132,133,134,135,136,137,138,139,140,141,142,143,144,145,146,147,148,149,150,151,152,153,154,155,156,157,158,159,160,161,162,163,164,165,166,167,168,169,170,171,172,173,174,175,176,177,178,179,180,181,182,183,184,185,186,187,188,189,190,191,192,193,194,195,196,197,198,199,200,201,202,203,204,205,206,207,208,209,210,211,212,213,214,215,216,217,218,219,220,221,222,223,224,225,226,227,228,229,230,231,232,233,234,235,236,237,238,239,240,241,242,243,244,245,246,247,248,249,250,251,252,253,254,255,256,257,258,259,260,261,262,263,264,265,266,267,268,269,270,271,272,273,274,275,276,277,278,279,280,281,282,283,284,285,286,287,288,289,290,291,292,293,294,295,296,297,298,299,300,301,302,303,304,305,306,307,308,309,310,311,312,313,314,315,316,317,318,319,320,321,322,323,324,325,326,327,328,329,330,331,332,333,334,335,336,337,338,339,340,341,342,343,344,345,346,347,348,349,350,351,352,353,354,355,356,357,358,359,360,361,362,363,364,365,366,367,368,369,370,371,372,373,374,375,376,377,378,379,380,381,382,383,384,385,386,387,388,389,390,391,392,393,394,395,396,397,398,399,400],"tree_info":[0,0,0,0,0,0,0,0,0,0,0,0,0,0,0,0,0,0,0,0,0,0,0,0,0,0,0,0,0,0,0,0,0,0,0,0,0,0,0,0,0,0,0,0,0,0,0,0,0,0,0,0,0,0,0,0,0,0,0,0,0,0,0,0,0,0,0,0,0,0,0,0,0,0,0,0,0,0,0,0,0,0,0,0,0,0,0,0,0,0,0,0,0,0,0,0,0,0,0,0,0,0,0,0,0,0,0,0,0,0,0,0,0,0,0,0,0,0,0,0,0,0,0,0,0,0,0,0,0,0,0,0,0,0,0,0,0,0,0,0,0,0,0,0,0,0,0,0,0,0,0,0,0,0,0,0,0,0,0,0,0,0,0,0,0,0,0,0,0,0,0,0,0,0,0,0,0,0,0,0,0,0,0,0,0,0,0,0,0,0,0,0,0,0,0,0,0,0,0,0,0,0,0,0,0,0,0,0,0,0,0,0,0,0,0,0,0,0,0,0,0,0,0,0,0,0,0,0,0,0,0,0,0,0,0,0,0,0,0,0,0,0,0,0,0,0,0,0,0,0,0,0,0,0,0,0,0,0,0,0,0,0,0,0,0,0,0,0,0,0,0,0,0,0,0,0,0,0,0,0,0,0,0,0,0,0,0,0,0,0,0,0,0,0,0,0,0,0,0,0,0,0,0,0,0,0,0,0,0,0,0,0,0,0,0,0,0,0,0,0,0,0,0,0,0,0,0,0,0,0,0,0,0,0,0,0,0,0,0,0,0,0,0,0,0,0,0,0,0,0,0,0,0,0,0,0,0,0,0,0,0,0,0,0,0,0,0,0,0,0,0,0,0,0,0,0,0,0,0,0,0,0,0,0,0,0,0,0,0,0,0,0,0,0,0,0,0,0,0,0],"trees":[{"base_weights":[1.1023154E-8,-5.37372E-1,7.1527666E-1,2.8807643E-1,-1.0092924E0,-1.1733562E-1,8.841701E-1,-3.115863E-1,5.803087E-1,-1.4511042E0,-7.025175E-1,-4.8472217E-1,2.741954E-1,5.3717494E-1,1.0780807E0,3.698546E-1,-1.1009623E0,1.002872E0,2.7213404E-1,-1.2323067E0,-1.7037785E0,-4.4373888E-1,-1.1114475E0,-1.0966196E0,-2.8496268E-1,-5.5471665E-1,3.8746452E-1,-1.0701039E0,5.85326E-1,5.885782E-1,1.194859E0,-2.9253508E-3,9.1694176E-2,-1.4488195E-1,-5.860247E-2,1.06610976E-1,-1.6917114E-1,5.253532E-2,-1.4288462E-2,-1.4645736E-1,-9.695039E-2,-1.8558854E-1,-1.5336739E-1,-8.915027E-2,-1.47692785E-2,-1.2294388E-1,-4.1493542E-2,-1.20698266E-1,3.7733912E-2,-1.2627971E-2,-1.0528066E-1,-1.234286E-1,-1.2659572E-2,1.10619245E-2,6.4794175E-2,-1.6110645E-1,-5.7238083E-2,6.332009E-2,-1.99073E-2,-9.2915975E-2,6.487231E-2,5.7782024E-2,1.2680092E-1],"categories":[],"categories_nodes":[],"categories_segments":[],"categories_sizes":[],"default_left":[0,0,0,0,0,0,0,0,0,0,0,0,0,0,0,0,0,0,0,0,0,0,0,0,0,0,0,0,0,0,0,0,0,0,0,0,0,0,0,0,0,0,0,0,0,0,0,0,0,0,0,0,0,0,0,0,0,0,0,0,0,0,0],"id":0,"left_children":[1,3,5,7,9,11,13,15,17,19,21,23,25,27,29,31,33,35,37,39,41,43,45,47,49,51,53,55,57,59,61,-1,-1,-1,-1,-1,-1,-1,-1,-1,-1,-1,-1,-1,-1,-1,-1,-1,-1,-1,-1,-1,-1,-1,-1,-1,-1,-1,-1,-1,-1,-1,-1],"loss_changes":[4.7672906E5,2.7588394E5,7.482116E4,4.5145125E4,6.107225E4,1.2907017E4,2.9762812E4,4.5405414E4,2.2555438E4,1.0206656E4,2.8142453E4,5.658075E3,4.0785874E3,1.2273328E4,1.6220219E4,9.891732E3,7.0043438E3,1.2448945E4,1.0526193E4,6.039578E3,2.214375E3,2.1590592E4,8.469992E3,1.8537178E3,4.252258E3,1.519266E3,2.7557715E3,1.2410874E3,5.782035E3,4.9901055E3,1.0340344E4,0E0,0E0,0E0,0E0,0E0,0E0,0E0,0E0,0E0,0E0,0E0,0E0,0E0,0E0,0E0,0E0,0E0,0E0,0E0,0E0,0E0,0E0,0E0,0E0,0E0,0E0,0E0,0E0,0E0,0E0,0E0,0E0],"parents":[2147483647,0,0,1,1,2,2,3,3,4,4,5,5,6,6,7,7,8,8,9,9,10,10,11,11,12,12,13,13,14,14,15,15,16,16,17,17,18,18,19,19,20,20,21,21,22,22,23,23,24,24,25,25,26,26,27,27,28,28,29,29,30,30],"right_children":[2,4,6,8,10,12,14,16,18,20,22,24,26,28,30,32,34,36,38,40,42,44,46,48,50,52,54,56,58,60,62,-1,-1,-1,-1,-1,-1,-1,-1,-1,-1,-1,-1,-1,-1,-1,-1,-1,-1,-1,-1,-1,-1,-1,-1,-1,-1,-1,-1,-1,-1,-1,-1],"split_conditions":[6.79022E-1,-5.5956E-1,-2.9094508E-1,-4.0601915E-1,-5.629477E-1,8.4323204E-1,9.6721864E-1,2.2467344E-1,-1.2280962E0,4.6389564E-3,3.346907E-1,-7.1827865E-1,-1.5703155E-1,1.8309653E-3,-4.9308035E-1,-1.05378285E-1,7.932899E-2,1.2148286E0,1E0,-8.2880026E-1,-7.9667395E-1,-1.5485065E-1,5.0453895E-1,1.2525387E0,7.7475965E-1,3.398344E0,1.1858325E0,2.7548006E0,1.6259749E0,1.8309653E-3,-1.6157968E-1,-2.9253508E-3,9.1694176E-2,-1.4488195E-1,-5.860247E-2,1.06610976E-1,-1.6917114E-1,5.253532E-2,-1.4288462E-2,-1.4645736E-1,-9.695039E-2,-1.8558854E-1,-1.5336739E-1,-8.915027E-2,-1.47692785E-2,-1.2294388E-1,-4.1493542E-2,-1.20698266E-1,3.7733912E-2,-1.2627971E-2,-1.0528066E-1,-1.234286E-1,-1.2659572E-2,1.10619245E-2,6.4794175E-2,-1.6110645E-1,-5.7238083E-2,6.332009E-2,-1.99073E-2,-9.2915975E-2,6.487231E-2,5.7782024E-2,1.2680092E-1],"split_indices":[1,6,0,12,0,8,8,4,6,4,4,0,10,20,13,4,8,4,15,0,0,7,1,9,4,19,1,19,12,20,10,0,0,0,0,0,0,0,0,0,0,0,0,0,0,0,0,0,0,0,0,0,0,0,0,0,0,0,0,0,0,0,0],"split_type":[0,0,0,0,0,0,0,0,0,0,0,0,0,0,0,0,0,0,0,0,0,0,0,0,0,0,0,0,0,0,0,0,0,0,0,0,0,0,0,0,0,0,0,0,0,0,0,0,0,0,0,0,0,0,0,0,0,0,0,0,0,0,0],"sum_hessian":[1.240286E6,7.0821756E5,5.3206844E5,2.5761564E5,4.5060194E5,8.9727805E4,4.4234062E5,8.440857E4,1.7320708E5,1.8465758E5,2.6594438E5,4.6291098E4,4.343671E4,1.585771E5,2.8376353E5,4.5301707E4,3.910686E4,7.304579E4,1.0016128E5,9.896609E4,8.569149E4,1.6287566E5,1.0306871E5,1.1391746E4,3.489935E4,5.221497E3,3.8215215E4,4.611873E3,1.5396522E5,5.4658066E4,2.2910545E5,2.6193854E4,1.9107854E4,2.333887E4,1.5767991E4,7.1371414E4,1.6743748E3,6.2206438E4,3.7954848E4,5.253274E4,4.6433355E4,4.5233746E4,4.0457742E4,6.4825848E4,9.8049805E4,8.813723E4,1.493149E4,1.0598372E4,7.9337427E2,2.8923229E4,5.9761226E3,2.0173744E3,3.2041226E3,1.8526234E4,1.9688979E4,2.2088748E3,2.4029985E3,1.4510884E5,8.856368E3,2.082874E3,5.2575195E4,2.428285E4,2.0482261E5],"tree_param":{"num_deleted":"0","num_feature":"21","num_nodes":"63","size_leaf_vector":"1"}},{"base_weights":[-2.7023709E-5,-4.850491E-1,6.452105E-1,2.5971577E-1,-9.1152966E-1,5.9850663E-2,8.4163314E-1,3.5587585E-1,-1.2380977E0,-1.1509076E0,-4.201543E-1,-2.518503E-1,4.280561E-1,3.421548E-1,9.5517766E-1,-1.5472847E-1,5.8338964E-1,-1.6321186E0,-3.895116E-1,-9.476563E-1,-1.458903E0,-7.586957E-1,-1.3378602E-1,-9.974273E-1,-9.9159256E-2,5.137439E-1,-7.8697854E-1,5.69342E-1,-3.3807267E-2,5.417247E-1,1.0652648E0,3.3319365E-2,-9.102792E-2,4.4036288E-2,1.5295468E-1,-1.8120225E-1,-1.1884898E-1,-1.365587E-1,-8.458733E-3,-1.23527825E-1,-6.6803515E-2,-1.7011133E-1,-1.3406794E-1,-1.1798165E-1,-5.054319E-2,1.1065883E-2,-6.6664666E-2,-1.1031797E-1,1.4667158E-2,3.7351425E-3,-7.5154915E-2,7.4491734E-3,6.7780055E-2,-1.00434355E-1,7.75077E-2,6.694379E-2,-1.2020765E-2,-1.1329925E-1,6.332237E-3,2.5571842E-2,7.908114E-2,5.2284665E-2,1.1327242E-1],"categories":[],"categories_nodes":[],"categories_segments":[],"categories_sizes":[],"default_left":[0,0,0,0,0,0,0,0,0,0,0,0,0,0,0,0,0,0,0,0,0,0,0,0,0,0,0,0,0,0,0,0,0,0,0,0,0,0,0,0,0,0,0,0,0,0,0,0,0,0,0,0,0,0,0,0,0,0,0,0,0,0,0],"id":1,"left_children":[1,3,5,7,9,11,13,15,17,19,21,23,25,27,29,31,33,35,37,39,41,43,45,47,49,51,53,55,57,59,61,-1,-1,-1,-1,-1,-1,-1,-1,-1,-1,-1,-1,-1,-1,-1,-1,-1,-1,-1,-1,-1,-1,-1,-1,-1,-1,-1,-1,-1,-1,-1,-1],"loss_changes":[3.871927E5,2.243398E5,6.1044094E4,3.704229E4,5.2826562E4,1.5309815E4,2.2544594E4,2.8074488E4,5.1870723E3,1.8903719E4,1.4262988E4,8.224021E3,6.367448E3,6.2891816E3,1.4741844E4,2.7461453E4,2.2622727E4,8.434551E2,1.4645446E3,1.46315E4,3.4356094E3,7.1899727E3,1.0381877E4,1.4858945E3,5.3401577E3,4.116624E3,1.368801E3,3.1679424E3,2.961228E3,4.851916E3,9.359E3,0E0,0E0,0E0,0E0,0E0,0E0,0E0,0E0,0E0,0E0,0E0,0E0,0E0,0E0,0E0,0E0,0E0,0E0,0E0,0E0,0E0,0E0,0E0,0E0,0E0,0E0,0E0,0E0,0E0,0E0,0E0,0E0],"parents":[2147483647,0,0,1,1,2,2,3,3,4,4,5,5,6,6,7,7,8,8,9,9,10,10,11,11,12,12,13,13,14,14,15,15,16,16,17,17,18,18,19,19,20,20,21,21,22,22,23,23,24,24,25,25,26,26,27,27,28,28,29,29,30,30],"right_children":[2,4,6,8,10,12,14,16,18,20,22,24,26,28,30,32,34,36,38,40,42,44,46,48,50,52,54,56,58,60,62,-1,-1,-1,-1,-1,-1,-1,-1,-1,-1,-1,-1,-1,-1,-1,-1,-1,-1,-1,-1,-1,-1,-1,-1,-1,-1,-1,-1,-1,-1,-1,-1],"split_conditions":[6.79022E-1,-5.5956E-1,-1.0710564E-1,1.2148286E0,-8.9412406E-2,9.3188316E-1,7.08596E-1,-4.0601915E-1,2.7546504E-1,2.2467344E-1,1.23105414E-1,-7.1827865E-1,3.900643E-1,3.346907E-1,-4.9308035E-1,2.2467344E-1,9.9479413E-1,5.072727E-1,2.6970068E-1,-6.778586E-1,-7.840783E-1,-4.0601915E-1,5.5472517E-1,1.0958886E0,7.7475965E-1,1.0489676E0,1.9582078E-2,7.0513576E-1,1.8309653E-3,9.2096865E-1,-1.6157968E-1,3.3319365E-2,-9.102792E-2,4.4036288E-2,1.5295468E-1,-1.8120225E-1,-1.1884898E-1,-1.365587E-1,-8.458733E-3,-1.23527825E-1,-6.6803515E-2,-1.7011133E-1,-1.3406794E-1,-1.1798165E-1,-5.054319E-2,1.1065883E-2,-6.6664666E-2,-1.1031797E-1,1.4667158E-2,3.7351425E-3,-7.5154915E-2,7.4491734E-3,6.7780055E-2,-1.00434355E-1,7.75077E-2,6.694379E-2,-1.2020765E-2,-1.1329925E-1,6.332237E-3,2.5571842E-2,7.908114E-2,5.2284665E-2,1.1327242E-1],"split_indices":[1,6,0,4,0,8,8,12,7,4,7,0,12,4,13,4,4,2,1,0,0,12,4,11,4,1,20,12,20,5,10,0,0,0,0,0,0,0,0,0,0,0,0,0,0,0,0,0,0,0,0,0,0,0,0,0,0,0,0,0,0,0,0],"split_type":[0,0,0,0,0,0,0,0,0,0,0,0,0,0,0,0,0,0,0,0,0,0,0,0,0,0,0,0,0,0,0,0,0,0,0,0,0,0,0,0,0,0,0,0,0,0,0,0,0,0,0,0,0,0,0,0,0,0,0,0,0,0,0],"sum_hessian":[1.2372155E6,7.062961E5,5.309193E5,2.5718072E5,4.4911544E5,1.3339369E5,3.9752562E5,2.4166642E5,1.5514297E4,3.0199462E5,1.471208E5,7.223994E4,6.115375E4,7.3630695E4,3.2389494E5,7.449013E4,1.6717628E5,1.0594204E4,4.9200933E3,1.8193598E5,1.2005863E5,6.741816E4,7.970265E4,1.2278683E4,5.9961258E4,5.7125656E4,4.0280913E3,4.5896027E4,2.773467E4,6.8108125E4,2.5578681E5,4.5261543E4,2.9228592E4,1.4522472E5,2.1951572E4,7.5353335E3,3.0588708E3,1.1703323E3,3.7497607E3,8.968323E4,9.225276E4,3.9375266E4,8.0683375E4,2.5317383E4,4.2100773E4,5.4638527E4,2.5064121E4,1.1239792E4,1.0388907E3,4.9586395E4,1.0374865E4,1.5534471E4,4.1591188E4,3.5363533E3,4.9173785E2,4.007825E4,5.8177773E3,2.2509312E3,2.5483738E4,3.170539E4,3.640273E4,2.8293852E4,2.2749297E5],"tree_param":{"num_deleted":"0","num_feature":"21","num_nodes":"63","size_leaf_vector":"1"}},{"base_weights":[-1.0313769E-4,-3.9247507E-1,6.5693253E-1,2.04836E-1,-8.039945E-1,1.8568249E-1,8.3638877E-1,2.90118E-1,-1.0618157E0,-1.1431775E0,-4.890639E-1,1.7874958E-2,7.4456537E-1,4.7211686E-1,9.607189E-1,6.959479E-1,5.8172848E-2,-1.4236852E0,-2.9987308E-1,-9.355905E-1,-1.3758764E0,-7.9839206E-1,-1.6806707E-1,-1.5291449E0,6.415639E-2,8.151597E-1,-7.717454E-1,5.557015E-1,-4.0104327E-1,6.0783535E-1,1.0626993E0,2.4440682E-2,8.940013E-2,-8.067431E-2,1.4944399E-2,-1.5765272E-1,-9.298949E-2,-7.785165E-2,8.755299E-3,-1.22266784E-1,-7.059839E-2,-1.4219773E-1,-8.343003E-2,-1.15530096E-1,-5.7331648E-2,4.163717E-3,-6.1885715E-2,4.6300698E-2,-1.6323207E-1,-5.5020034E-2,1.6419334E-2,3.3704739E-3,8.988908E-2,-9.5658235E-2,1.6016091E-1,2.2048531E-2,7.711503E-2,-1.128081E-1,6.6347905E-3,7.925364E-2,2.5704388E-2,5.3107776E-2,1.1267128E-1],"categories":[],"categories_nodes":[],"categories_segments":[],"categories_sizes":[],"default_left":[0,0,0,0,0,0,0,0,0,0,0,0,0,0,0,0,0,0,0,0,0,0,0,0,0,0,0,0,0,0,0,0,0,0,0,0,0,0,0,0,0,0,0,0,0,0,0,0,0,0,0,0,0,0,0,0,0,0,0,0,0,0,0],"id":2,"left_children":[1,3,5,7,9,11,13,15,17,19,21,23,25,27,29,31,33,35,37,39,41,43,45,47,49,51,53,55,57,59,61,-1,-1,-1,-1,-1,-1,-1,-1,-1,-1,-1,-1,-1,-1,-1,-1,-1,-1,-1,-1,-1,-1,-1,-1,-1,-1,-1,-1,-1,-1,-1,-1],"loss_changes":[3.1700797E5,1.8924272E5,3.8881703E4,3.3924992E4,4.8691688E4,1.1891775E4,1.5079656E4,2.7697012E4,5.461953E3,1.0600156E4,2.346996E4,6.982318E3,3.1348848E3,6.1840137E3,8.932828E3,9.569547E3,1.4780672E4,1.01224414E3,1.1832551E3,7.6449766E3,2.5822344E3,9.669102E3,1.0965717E4,5.8300146E2,5.8194365E3,1.8306465E3,5.731658E2,5.584576E3,2.5156443E3,3.6059434E3,6.5532188E3,0E0,0E0,0E0,0E0,0E0,0E0,0E0,0E0,0E0,0E0,0E0,0E0,0E0,0E0,0E0,0E0,0E0,0E0,0E0,0E0,0E0,0E0,0E0,0E0,0E0,0E0,0E0,0E0,0E0,0E0,0E0,0E0],"parents":[2147483647,0,0,1,1,2,2,3,3,4,4,5,5,6,6,7,7,8,8,9,9,10,10,11,11,12,12,13,13,14,14,15,15,16,16,17,17,18,18,19,19,20,20,21,21,22,22,23,23,24,24,25,25,26,26,27,27,28,28,29,29,30,30],"right_children":[2,4,6,8,10,12,14,16,18,20,22,24,26,28,30,32,34,36,38,40,42,44,46,48,50,52,54,56,58,60,62,-1,-1,-1,-1,-1,-1,-1,-1,-1,-1,-1,-1,-1,-1,-1,-1,-1,-1,-1,-1,-1,-1,-1,-1,-1,-1,-1,-1,-1,-1,-1,-1],"split_conditions":[8.099945E-1,-4.676785E-1,-1.557642E-2,1.2148286E0,-4.4701758E-1,1.3272622E0,-4.9281037E-1,-1.24575E0,3.8425776E-1,4.6389564E-3,2.2599334E-2,2.0295233E-3,3.117768E-1,1.2148286E0,8.865583E-1,-4.0601915E-1,-6.950947E-1,8.141227E-1,4.5784456E-1,-8.2880026E-1,7.12774E-1,-4.0601915E-1,5.5472517E-1,8.203127E-1,-6.778586E-1,1.0240495E0,2.0919902E0,9.0126497E-1,2.6270692E0,4.4470793E-1,-1.5703155E-1,2.4440682E-2,8.940013E-2,-8.067431E-2,1.4944399E-2,-1.5765272E-1,-9.298949E-2,-7.785165E-2,8.755299E-3,-1.22266784E-1,-7.059839E-2,-1.4219773E-1,-8.343003E-2,-1.15530096E-1,-5.7331648E-2,4.163717E-3,-6.1885715E-2,4.6300698E-2,-1.6323207E-1,-5.5020034E-2,1.6419334E-2,3.3704739E-3,8.988908E-2,-9.5658235E-2,1.6016091E-1,2.2048531E-2,7.711503E-2,-1.128081E-1,6.6347905E-3,7.925364E-2,2.5704388E-2,5.3107776E-2,1.1267128E-1],"split_indices":[1,6,0,4,0,8,13,6,7,4,1,20,12,4,8,12,0,2,10,0,7,12,4,1,0,1,9,5,19,4,10,0,0,0,0,0,0,0,0,0,0,0,0,0,0,0,0,0,0,0,0,0,0,0,0,0,0,0,0,0,0,0,0],"split_type":[0,0,0,0,0,0,0,0,0,0,0,0,0,0,0,0,0,0,0,0,0,0,0,0,0,0,0,0,0,0,0,0,0,0,0,0,0,0,0,0,0,0,0,0,0,0,0,0,0,0,0,0,0,0,0,0,0,0,0,0,0,0,0],"sum_hessian":[1.2296529E6,7.698878E5,4.5976512E5,3.1405075E5,4.5583706E5,1.2679772E5,3.329674E5,2.942407E5,1.9810068E4,2.1946673E5,2.3637031E5,9.751835E4,2.9279365E4,8.472843E4,2.4823898E5,1.0700831E5,1.8723236E5,1.3430604E4,6.3794663E3,1.1599471E5,1.0347203E5,1.20372266E5,1.1599805E5,2.8317346E3,9.468662E4,2.7977299E4,1.3020663E3,7.7326586E4,7.401848E3,5.5656668E4,1.9258231E5,3.2626201E4,7.438212E4,1.7871184E4,1.6936117E5,1.0254389E4,3.1762146E3,2.853328E3,3.5261382E3,5.1544387E4,6.4450324E4,9.535358E4,8.1184507E3,4.655094E4,7.382132E4,7.9169766E4,3.6828285E4,1.3926534E2,2.6924695E3,1.3258389E4,8.142823E4,2.7077266E3,2.5269572E4,1.208542E3,9.352431E1,3.0254973E4,4.7071613E4,2.8958591E3,4.505989E3,3.645886E4,1.9197807E4,2.0698031E4,1.7188428E5],"tree_param":{"num_deleted":"0","num_feature":"21","num_nodes":"63","size_leaf_vector":"1"}},{"base_weights":[-1.8205299E-4,-4.1216174E-1,5.204392E-1,2.415661E-1,-7.5605756E-1,-1.1573914E-1,6.5380067E-1,3.2359636E-1,-1.1411172E0,-9.3642116E-1,-2.8967783E-1,-8.131846E-1,2.4782209E-2,2.4317797E-1,7.6007074E-1,-1.1811776E-1,5.201035E-1,-1.4017338E0,-3.169647E-1,-7.477828E-1,-1.2295223E0,-5.3195994E-2,-6.492745E-1,-8.8384306E-1,7.67668E-1,-2.6360336E-1,2.2779939E-1,-5.0373524E-1,3.1023562E-1,3.867818E-2,8.052005E-1,3.2809954E-2,-8.229915E-2,3.8987886E-2,1.3677941E-1,-1.478414E-1,-6.5555595E-2,-9.0527214E-2,4.1964732E-2,-1.0483583E-1,-5.2000947E-2,-1.2743808E-1,-5.9384763E-2,-5.499745E-2,1.4060776E-2,-7.474778E-2,2.6779074E-2,-9.2223E-2,9.865456E-2,1.2282138E-1,-1.9256295E-1,1.12105146E-1,-3.5542008E-2,-4.6915743E-2,3.2056555E-2,-1.22414075E-1,-2.1745056E-2,1.5400802E-2,5.8137357E-2,-4.28778E-2,3.165679E-2,4.639191E-2,8.918243E-2],"categories":[],"categories_nodes":[],"categories_segments":[],"categories_sizes":[],"default_left":[0,0,0,0,0,0,0,0,0,0,0,0,0,0,0,0,0,0,0,0,0,0,0,0,0,0,0,0,0,0,0,0,0,0,0,0,0,0,0,0,0,0,0,0,0,0,0,0,0,0,0,0,0,0,0,0,0,0,0,0,0,0,0],"id":3,"left_children":[1,3,5,7,9,11,13,15,17,19,21,23,25,27,29,31,33,35,37,39,41,43,45,47,49,51,53,55,57,59,61,-1,-1,-1,-1,-1,-1,-1,-1,-1,-1,-1,-1,-1,-1,-1,-1,-1,-1,-1,-1,-1,-1,-1,-1,-1,-1,-1,-1,-1,-1,-1,-1],"loss_changes":[2.6157311E5,1.5305444E5,4.5707266E4,2.6618633E4,3.7526438E4,9.15023E3,1.9434484E4,1.922984E4,2.822623E3,1.7786219E4,1.0580007E4,1.7495186E3,4.5496646E3,4.586425E3,1.1518594E4,2.1455078E4,1.692552E4,5.703711E2,1.3693601E3,1.3400117E4,3.5913594E3,7.2264E3,4.445422E3,1.0769619E3,8.339016E2,4.082015E3,2.9486687E3,1.555619E3,3.5591177E3,2.7062053E3,9.843328E3,0E0,0E0,0E0,0E0,0E0,0E0,0E0,0E0,0E0,0E0,0E0,0E0,0E0,0E0,0E0,0E0,0E0,0E0,0E0,0E0,0E0,0E0,0E0,0E0,0E0,0E0,0E0,0E0,0E0,0E0,0E0,0E0],"parents":[2147483647,0,0,1,1,2,2,3,3,4,4,5,5,6,6,7,7,8,8,9,9,10,10,11,11,12,12,13,13,14,14,15,15,16,16,17,17,18,18,19,19,20,20,21,21,22,22,23,23,24,24,25,25,26,26,27,27,28,28,29,29,30,30],"right_children":[2,4,6,8,10,12,14,16,18,20,22,24,26,28,30,32,34,36,38,40,42,44,46,48,50,52,54,56,58,60,62,-1,-1,-1,-1,-1,-1,-1,-1,-1,-1,-1,-1,-1,-1,-1,-1,-1,-1,-1,-1,-1,-1,-1,-1,-1,-1,-1,-1,-1,-1,-1,-1],"split_conditions":[6.498267E-1,-6.1656165E-1,-2.9094508E-1,1.2148286E0,5.4642335E-2,3.436896E-1,7.08596E-1,-4.0601915E-1,3.9400315E-1,2.2467344E-1,3.346907E-1,7.646473E-1,3.4683888E0,2.6485547E-3,-9.901151E-1,2.2467344E-1,9.9479413E-1,2.0187151E0,-4.410493E-1,-6.950947E-1,-8.457832E-3,-3.0510154E-1,8.45989E-2,4.5934343E0,4.6389564E-3,-1.5303024E0,-7.656802E-1,-4.9224818E-1,8.6000526E-1,5.670716E-1,-4.9308035E-1,3.2809954E-2,-8.229915E-2,3.8987886E-2,1.3677941E-1,-1.478414E-1,-6.5555595E-2,-9.0527214E-2,4.1964732E-2,-1.0483583E-1,-5.2000947E-2,-1.2743808E-1,-5.9384763E-2,-5.499745E-2,1.4060776E-2,-7.474778E-2,2.6779074E-2,-9.2223E-2,9.865456E-2,1.2282138E-1,-1.9256295E-1,1.12105146E-1,-3.5542008E-2,-4.6915743E-2,3.2056555E-2,-1.22414075E-1,-2.1745056E-2,1.5400802E-2,5.8137357E-2,-4.28778E-2,3.165679E-2,4.639191E-2,8.918243E-2],"split_indices":[1,6,0,4,0,8,8,12,7,4,4,3,19,20,10,4,4,0,13,0,12,7,12,19,4,6,0,13,5,0,13,0,0,0,0,0,0,0,0,0,0,0,0,0,0,0,0,0,0,0,0,0,0,0,0,0,0,0,0,0,0,0,0],"split_type":[0,0,0,0,0,0,0,0,0,0,0,0,0,0,0,0,0,0,0,0,0,0,0,0,0,0,0,0,0,0,0,0,0,0,0,0,0,0,0,0,0,0,0,0,0,0,0,0,0,0,0,0,0,0,0,0,0,0,0,0,0,0,0],"sum_hessian":[1.2195361E6,6.80802E5,5.387342E5,2.3468277E5,4.4611922E5,9.336278E4,4.453714E5,2.2154023E5,1.3142518E4,3.217049E5,1.2441431E5,1.5655502E4,7.770728E4,9.156638E4,3.5380503E5,6.821196E4,1.5332828E5,9.984485E3,3.158032E3,1.957347E5,1.2597022E5,7.50562E4,4.9358113E4,1.4986117E4,6.693848E2,3.2103713E4,4.560357E4,7.5430117E3,8.402337E4,2.0830742E4,3.3297428E5,4.177011E4,2.6441852E4,1.329115E5,2.0416785E4,9.053165E3,9.313201E2,1.7556354E3,1.4023965E3,8.438048E4,1.1135423E5,1.1766576E5,8.304459E3,2.1063121E4,5.3993082E4,4.458405E4,4.774063E3,1.4685231E4,3.008855E2,5.7210126E2,9.728362E1,1.9957234E3,3.010799E4,5.356425E3,4.0247145E4,2.144166E3,5.3988457E3,5.330881E4,3.0714562E4,7.766191E3,1.3064552E4,6.7407516E4,2.6556678E5],"tree_param":{"num_deleted":"0","num_feature":"21","num_nodes":"63","size_leaf_vector":"1"}},{"base_weights":[-2.8822315E-4,-3.1137568E-1,5.7397646E-1,1.5056473E-1,-6.851721E-1,2.5012708E-1,7.6120585E-1,-2.3356827E-1,3.516595E-1,-8.926703E-1,-2.2523849E-1,4.5907807E-2,5.4858965E-1,4.4426683E-1,8.924705E-1,2.2113834E-1,-7.3116237E-1,1.334648E-1,7.3209727E-1,-1.1807821E0,-7.0851815E-1,-7.606232E-1,-1.2609605E-1,-1.4194009E0,9.03997E-2,6.088925E-1,-6.9189775E-1,5.20832E-1,-3.1787542E-1,4.6271944E-1,9.494932E-1,-7.521116E-3,6.63337E-2,-1.1218746E-1,-3.0022357E-2,5.1416796E-2,-3.4722239E-3,-1.2238951E-1,7.900911E-2,-1.3437782E-1,-1.0069207E-1,-4.5260143E-2,-9.806131E-2,-5.4544445E-2,-1.2101008E-1,-7.2919495E-2,-2.6580475E-3,-1.6098712E-1,-3.4074303E-2,-6.0438205E-2,1.5514307E-2,7.833716E-2,2.1749945E-2,-9.851555E-2,7.096528E-2,5.9847932E-2,-3.3768401E-3,-9.0132475E-2,3.0645622E-2,-4.4014095E-3,5.9528984E-2,1.06829576E-1,7.040546E-2],"categories":[],"categories_nodes":[],"categories_segments":[],"categories_sizes":[],"default_left":[0,0,0,0,0,0,0,0,0,0,0,0,0,0,0,0,0,0,0,0,0,0,0,0,0,0,0,0,0,0,0,0,0,0,0,0,0,0,0,0,0,0,0,0,0,0,0,0,0,0,0,0,0,0,0,0,0,0,0,0,0,0,0],"id":4,"left_children":[1,3,5,7,9,11,13,15,17,19,21,23,25,27,29,31,33,35,37,39,41,43,45,47,49,51,53,55,57,59,61,-1,-1,-1,-1,-1,-1,-1,-1,-1,-1,-1,-1,-1,-1,-1,-1,-1,-1,-1,-1,-1,-1,-1,-1,-1,-1,-1,-1,-1,-1,-1,-1],"loss_changes":[2.156206E5,1.351802E5,2.5714375E4,2.7048428E4,4.129672E4,9.469736E3,1.1179547E4,2.722359E4,1.9078365E4,1.5820156E4,7.140683E3,6.0141396E3,4.7219785E3,4.5928555E3,4.656297E3,8.238859E3,9.672811E3,9.352388E3,9.503672E3,3.2937031E3,1.2667234E4,2.0323184E3,6.8126924E3,5.5796826E2,4.0273762E3,4.1103867E3,1.2035542E3,3.0799004E3,2.6177148E3,1.4955732E3,4.891078E3,0E0,0E0,0E0,0E0,0E0,0E0,0E0,0E0,0E0,0E0,0E0,0E0,0E0,0E0,0E0,0E0,0E0,0E0,0E0,0E0,0E0,0E0,0E0,0E0,0E0,0E0,0E0,0E0,0E0,0E0,0E0,0E0],"parents":[2147483647,0,0,1,1,2,2,3,3,4,4,5,5,6,6,7,7,8,8,9,9,10,10,11,11,12,12,13,13,14,14,15,15,16,16,17,17,18,18,19,19,20,20,21,21,22,22,23,23,24,24,25,25,26,26,27,27,28,28,29,29,30,30],"right_children":[2,4,6,8,10,12,14,16,18,20,22,24,26,28,30,32,34,36,38,40,42,44,46,48,50,52,54,56,58,60,62,-1,-1,-1,-1,-1,-1,-1,-1,-1,-1,-1,-1,-1,-1,-1,-1,-1,-1,-1,-1,-1,-1,-1,-1,-1,-1,-1,-1,-1,-1,-1,-1],"split_conditions":[8.627958E-1,-3.8731518E-1,2.0007303E-1,-4.0601915E-1,3.9400315E-1,1.1498127E0,-4.9208772E-1,2.2467344E-1,8.38308E-1,-4.0601915E-1,-6.3217956E-1,2.0295233E-3,1E0,1.2148286E0,-1.5703155E-1,-1.05378285E-1,3.288699E-1,-1.0669383E0,2.8027296E-3,-4.673244E-1,4.7282636E-1,-4.4276124E-1,3.2769367E-3,1.2150983E0,-7.1827865E-1,4.4470793E-1,3.8226082E0,3.6869133E-1,1.51695E0,2.8045874E0,6.647424E-1,-7.521116E-3,6.63337E-2,-1.1218746E-1,-3.0022357E-2,5.1416796E-2,-3.4722239E-3,-1.2238951E-1,7.900911E-2,-1.3437782E-1,-1.0069207E-1,-4.5260143E-2,-9.806131E-2,-5.4544445E-2,-1.2101008E-1,-7.2919495E-2,-2.6580475E-3,-1.6098712E-1,-3.4074303E-2,-6.0438205E-2,1.5514307E-2,7.833716E-2,2.1749945E-2,-9.851555E-2,7.096528E-2,5.9847932E-2,-3.3768401E-3,-9.0132475E-2,3.0645622E-2,-4.4014095E-3,5.9528984E-2,1.06829576E-1,7.040546E-2],"split_indices":[1,6,0,12,7,8,13,4,5,12,0,20,18,4,10,4,1,6,20,7,6,5,20,11,0,4,19,12,1,19,4,0,0,0,0,0,0,0,0,0,0,0,0,0,0,0,0,0,0,0,0,0,0,0,0,0,0,0,0,0,0,0,0],"split_type":[0,0,0,0,0,0,0,0,0,0,0,0,0,0,0,0,0,0,0,0,0,0,0,0,0,0,0,0,0,0,0,0,0,0,0,0,0,0,0,0,0,0,0,0,0,0,0,0,0,0,0,0,0,0,0,0,0,0,0,0,0,0,0],"sum_hessian":[1.2069655E6,7.828726E5,4.2409294E5,3.5015234E5,4.327203E5,1.5536373E5,2.687292E5,1.2031858E5,2.2983375E5,2.9819103E5,1.3452928E5,9.224642E4,6.3117305E4,7.870353E4,1.9002567E5,6.2868895E4,5.7449684E4,1.4606283E5,8.377093E4,1.1627291E5,1.8191811E5,2.1018643E4,1.1351064E5,2.7174736E3,8.952895E4,6.0191758E4,2.9255442E3,7.151901E4,7.1845176E3,2.2261492E4,1.6776417E5,3.764265E4,2.5226246E4,3.0130322E4,2.7319363E4,4.4754906E4,1.0130792E5,2.4116494E3,8.135928E4,6.0008184E4,5.6264727E4,9.374739E4,8.817072E4,1.4215472E4,6.8031714E3,1.6076311E4,9.743433E4,2.3092178E3,4.0825592E2,7.630908E3,8.189805E4,4.1631742E4,1.8560018E4,2.4195742E3,5.0596985E2,6.2735586E4,8.783426E3,3.7136245E3,3.4708933E3,4.6164326E3,1.7645059E4,1.1304323E5,5.4720953E4],"tree_param":{"num_deleted":"0","num_feature":"21","num_nodes":"63","size_leaf_vector":"1"}},{"base_weights":[-3.5917785E-4,-5.317514E-1,2.918716E-1,-9.359123E-1,-2.788249E-1,1.6973201E-2,6.167801E-1,-1.0656912E0,-6.761542E-1,3.8314304E-1,-4.0407994E-1,2.532069E-1,-3.507033E-1,2.822042E-1,7.163659E-1,-1.1171026E0,-3.4848515E-2,-2.190474E-1,-7.854934E-1,6.526292E-1,-1.9894788E-1,-5.980307E-1,2.683599E-2,-7.1787596E-1,3.1824368E-1,-6.307059E-1,-5.8144383E-2,-1.0417035E0,3.322216E-1,4.8122954E-1,8.4798545E-1,1.8878495E-2,-1.13728024E-1,-8.275817E-2,3.831083E-2,4.9294494E-2,-5.4371137E-2,-8.999473E-2,-3.627734E-2,4.9099315E-2,1.3902295E-1,-7.8007475E-2,5.175708E-2,-8.673186E-2,-2.678888E-2,-3.9526444E-2,2.4746057E-2,-1.0340893E-1,-3.8686182E-2,3.70318E-2,-6.492864E-2,5.743627E-3,-7.503303E-2,-3.5331644E-2,1.9276442E-2,-1.376066E-1,4.726758E-2,8.30711E-3,5.8043897E-2,-1.9990294E-3,5.647993E-2,4.0967923E-2,9.112352E-2],"categories":[],"categories_nodes":[],"categories_segments":[],"categories_sizes":[],"default_left":[0,0,0,0,0,0,0,0,0,0,0,0,0,0,0,0,0,0,0,0,0,0,0,0,0,0,0,0,0,0,0,0,0,0,0,0,0,0,0,0,0,0,0,0,0,0,0,0,0,0,0,0,0,0,0,0,0,0,0,0,0,0,0],"id":5,"left_children":[1,3,5,7,9,11,13,15,17,19,21,23,25,27,29,31,33,35,37,39,41,43,45,47,49,51,53,55,57,59,61,-1,-1,-1,-1,-1,-1,-1,-1,-1,-1,-1,-1,-1,-1,-1,-1,-1,-1,-1,-1,-1,-1,-1,-1,-1,-1,-1,-1,-1,-1,-1,-1],"loss_changes":[1.8535761E5,4.329253E4,6.87843E4,5.4948125E3,2.1599107E4,3.6233945E4,1.1759828E4,5.7610234E3,2.7144355E3,6.5018853E3,1.8307324E4,1.6040672E4,1.3367539E4,5.361398E3,8.417391E3,2.7285234E3,1.7116157E3,2.4240757E3,2.1202422E3,3.3771104E3,5.4622524E3,1.3429375E4,6.331798E3,1.6683281E3,1.199349E4,6.8638633E3,5.910434E3,1.4931597E3,4.824586E3,4.0887559E3,4.8339297E3,0E0,0E0,0E0,0E0,0E0,0E0,0E0,0E0,0E0,0E0,0E0,0E0,0E0,0E0,0E0,0E0,0E0,0E0,0E0,0E0,0E0,0E0,0E0,0E0,0E0,0E0,0E0,0E0,0E0,0E0,0E0,0E0],"parents":[2147483647,0,0,1,1,2,2,3,3,4,4,5,5,6,6,7,7,8,8,9,9,10,10,11,11,12,12,13,13,14,14,15,15,16,16,17,17,18,18,19,19,20,20,21,21,22,22,23,23,24,24,25,25,26,26,27,27,28,28,29,29,30,30],"right_children":[2,4,6,8,10,12,14,16,18,20,22,24,26,28,30,32,34,36,38,40,42,44,46,48,50,52,54,56,58,60,62,-1,-1,-1,-1,-1,-1,-1,-1,-1,-1,-1,-1,-1,-1,-1,-1,-1,-1,-1,-1,-1,-1,-1,-1,-1,-1,-1,-1,-1,-1,-1,-1],"split_conditions":[-2.760923E-1,-6.950947E-1,8.627958E-1,-3.025163E-1,-1.0816395E0,-2.889672E-1,-4.9308035E-1,1.0240495E0,-3.9608327E-1,4.6389564E-3,6.519763E-1,2.8027296E-3,2.9036984E0,1.8309653E-3,1.0807543E0,-1.3838881E0,4.1679624E-1,5.834833E-3,3.7443373E0,-1.05378285E-1,9.9479413E-1,-3.6675522E-1,3.307905E0,2.3377968E-1,1.2148286E0,-8.7549895E-1,3.1893808E-1,3.6943538E0,9.2096865E-1,3.2769367E-3,1.074843E0,1.8878495E-2,-1.13728024E-1,-8.275817E-2,3.831083E-2,4.9294494E-2,-5.4371137E-2,-8.999473E-2,-3.627734E-2,4.9099315E-2,1.3902295E-1,-7.8007475E-2,5.175708E-2,-8.673186E-2,-2.678888E-2,-3.9526444E-2,2.4746057E-2,-1.0340893E-1,-3.8686182E-2,3.70318E-2,-6.492864E-2,5.743627E-3,-7.503303E-2,-3.5331644E-2,1.9276442E-2,-1.376066E-1,4.726758E-2,8.30711E-3,5.8043897E-2,-1.9990294E-3,5.647993E-2,4.0967923E-2,9.112352E-2],"split_indices":[0,0,1,12,6,6,13,1,6,4,7,20,19,20,8,6,9,20,19,4,4,12,19,8,4,4,1,19,5,20,1,0,0,0,0,0,0,0,0,0,0,0,0,0,0,0,0,0,0,0,0,0,0,0,0,0,0,0,0,0,0,0,0],"split_type":[0,0,0,0,0,0,0,0,0,0,0,0,0,0,0,0,0,0,0,0,0,0,0,0,0,0,0,0,0,0,0,0,0,0,0,0,0,0,0,0,0,0,0,0,0,0,0,0,0,0,0,0,0,0,0,0,0,0,0,0,0,0,0],"sum_hessian":[1.1936269E6,4.2351206E5,7.701148E5,1.6301748E5,2.6049458E5,4.1716294E5,3.529519E5,1.087042E5,5.4313285E4,4.1446973E4,2.1904761E5,2.5398E5,1.6318292E5,8.0959195E4,2.7199272E5,1.03540234E5,5.163965E3,1.048449E4,4.3828797E4,2.8330771E4,1.3116201E4,1.5105773E5,6.798988E4,1.5941578E4,2.3803842E5,8.338019E4,7.980274E4,2.9465752E3,7.801262E4,9.761308E4,1.7437964E5,1.5753608E3,1.01964875E5,1.782376E3,3.381589E3,3.2834104E3,7.2010796E3,3.4489445E4,9.339352E3,2.3239734E4,5.0910366E3,7.2423013E3,5.8739E3,8.319565E4,6.786208E4,2.3338229E4,4.4651652E4,8.15198E3,7.7895986E3,2.2588166E5,1.2156762E4,1.2348085E4,7.10321E4,3.666693E4,4.3135812E4,2.413734E3,5.3284125E2,3.8933797E4,3.907882E4,1.3949574E4,8.36635E4,2.1991453E4,1.5238819E5],"tree_param":{"num_deleted":"0","num_feature":"21","num_nodes":"63","size_leaf_vector":"1"}},{"base_weights":[-4.3291278E-4,-3.640143E-1,3.5672852E-1,2.730511E-1,-6.210529E-1,6.5925546E-2,5.572651E-1,3.482109E-1,-1.178581E0,-4.3505505E-1,-9.5544773E-1,-1.0767966E-1,3.5363495E-1,3.854478E-1,7.4901724E-1,-2.5867544E-2,5.1567316E-1,-1.2831746E0,-2.2709762E-1,-7.4807584E-1,-2.4531642E-1,-1.0806323E0,-7.179309E-1,2.953475E-2,-5.3679484E-1,3.965527E-1,-8.929194E-1,-3.2345483E-1,4.3579674E-1,4.203084E-1,8.653719E-1,4.9553446E-2,-6.1819103E-2,3.877486E-2,1.2710296E-1,-1.3221116E-1,7.944193E-2,4.4962697E-2,-1.4100187E-1,-1.0417811E-1,-5.338173E-2,-8.525984E-2,-1.3197533E-2,-1.3045736E-1,-9.592797E-2,-8.253014E-2,-2.6148964E-2,9.334405E-3,-7.223546E-2,-1.0039325E-1,-2.7156277E-2,2.1651207E-2,6.7638956E-2,-7.033249E-2,-1.9523282E-1,-1.3551325E-1,-9.195396E-3,4.8229236E-2,-3.0803083E-2,-6.340789E-2,4.7079723E-2,5.8940288E-2,9.564712E-2],"categories":[],"categories_nodes":[],"categories_segments":[],"categories_sizes":[],"default_left":[0,0,0,0,0,0,0,0,0,0,0,0,0,0,0,0,0,0,0,0,0,0,0,0,0,0,0,0,0,0,0,0,0,0,0,0,0,0,0,0,0,0,0,0,0,0,0,0,0,0,0,0,0,0,0,0,0,0,0,0,0,0,0],"id":6,"left_children":[1,3,5,7,9,11,13,15,17,19,21,23,25,27,29,31,33,35,37,39,41,43,45,47,49,51,53,55,57,59,61,-1,-1,-1,-1,-1,-1,-1,-1,-1,-1,-1,-1,-1,-1,-1,-1,-1,-1,-1,-1,-1,-1,-1,-1,-1,-1,-1,-1,-1,-1,-1,-1],"loss_changes":[1.5325269E5,9.576555E4,3.471803E4,1.8343832E4,2.5916906E4,1.2136549E4,1.1608508E4,1.0013762E4,8.2339453E2,1.5902945E4,4.427578E3,8.922991E3,4.892418E3,6.633213E3,6.3683516E3,1.5266926E4,1.0669268E4,6.042656E2,6.5780194E2,6.3585625E3,1.1474771E4,2.6491719E3,2.519162E3,5.5091865E3,4.548961E3,4.4535635E3,6.0999414E2,2.9433433E3,6.0011484E3,2.317873E3,3.0912812E3,0E0,0E0,0E0,0E0,0E0,0E0,0E0,0E0,0E0,0E0,0E0,0E0,0E0,0E0,0E0,0E0,0E0,0E0,0E0,0E0,0E0,0E0,0E0,0E0,0E0,0E0,0E0,0E0,0E0,0E0,0E0,0E0],"parents":[2147483647,0,0,1,1,2,2,3,3,4,4,5,5,6,6,7,7,8,8,9,9,10,10,11,11,12,12,13,13,14,14,15,15,16,16,17,17,18,18,19,19,20,20,21,21,22,22,23,23,24,24,25,25,26,26,27,27,28,28,29,29,30,30],"right_children":[2,4,6,8,10,12,14,16,18,20,22,24,26,28,30,32,34,36,38,40,42,44,46,48,50,52,54,56,58,60,62,-1,-1,-1,-1,-1,-1,-1,-1,-1,-1,-1,-1,-1,-1,-1,-1,-1,-1,-1,-1,-1,-1,-1,-1,-1,-1,-1,-1,-1,-1,-1,-1],"split_conditions":[4.7268036E-1,-8.817639E-1,2.0007303E-1,1.2148286E0,4.453255E-1,1.11505E0,1.1858325E0,-4.0601915E-1,3.9400315E-1,-4.0601915E-1,-3.0659884E-1,5.5472517E-1,1.6259749E0,2.2981614E-3,-4.9301976E-1,4.6389564E-3,9.9479413E-1,-8.457832E-3,6.79022E-1,-4.342547E-1,-7.656802E-1,4.6481565E-3,-5.2934325E-1,1.6259749E0,4.5967624E-3,1.3272622E0,1.2363695E0,-4.8952246E-1,1.910908E0,1.8309653E-3,3.828018E-1,4.9553446E-2,-6.1819103E-2,3.877486E-2,1.2710296E-1,-1.3221116E-1,7.944193E-2,4.4962697E-2,-1.4100187E-1,-1.0417811E-1,-5.338173E-2,-8.525984E-2,-1.3197533E-2,-1.3045736E-1,-9.592797E-2,-8.253014E-2,-2.6148964E-2,9.334405E-3,-7.223546E-2,-1.0039325E-1,-2.7156277E-2,2.1651207E-2,6.7638956E-2,-7.033249E-2,-1.9523282E-1,-1.3551325E-1,-9.195396E-3,4.8229236E-2,-3.0803083E-2,-6.340789E-2,4.7079723E-2,5.8940288E-2,9.564712E-2],"split_indices":[7,6,0,4,6,1,1,12,7,12,12,4,12,20,13,4,4,12,1,0,0,20,3,12,20,8,9,13,12,20,10,0,0,0,0,0,0,0,0,0,0,0,0,0,0,0,0,0,0,0,0,0,0,0,0,0,0,0,0,0,0,0,0],"split_type":[0,0,0,0,0,0,0,0,0,0,0,0,0,0,0,0,0,0,0,0,0,0,0,0,0,0,0,0,0,0,0,0,0,0,0,0,0,0,0,0,0,0,0,0,0,0,0,0,0,0,0,0,0,0,0,0,0,0,0,0,0,0,0],"sum_hessian":[1.1801606E6,5.848242E5,5.953364E5,1.681263E5,4.166979E5,2.4298264E5,3.5235375E5,1.5985062E5,8.275676E3,2.677639E5,1.48934E5,1.5154208E5,9.144058E4,1.858384E5,1.6651534E5,4.9431348E4,1.1041927E5,7.4557407E3,8.1993475E2,1.0105151E5,1.6671239E5,9.752784E4,5.140616E4,1.1482608E5,3.6715996E4,8.83978E4,3.0427769E3,1.2323311E4,1.735151E5,4.353395E4,1.2298139E5,2.628964E4,2.3141705E4,9.442867E4,1.5990599E4,7.3189375E3,1.3680333E2,5.21955E2,2.9797974E2,4.2621785E4,5.8429727E4,2.6219846E4,1.4049255E5,3.427248E4,6.3255363E4,4.1615887E4,9.790277E3,1.0584444E5,8.981641E3,1.3295909E4,2.3420088E4,5.379141E4,3.460639E4,2.5823047E3,4.6047208E2,2.2575857E3,1.0065725E4,1.6330734E5,1.0207759E4,1.988816E3,4.1545133E4,3.0523465E4,9.245793E4],"tree_param":{"num_deleted":"0","num_feature":"21","num_nodes":"63","size_leaf_vector":"1"}},{"base_weights":[-5.100077E-4,-5.4199624E-1,2.0721233E-1,-8.9934117E-1,-3.3362943E-1,-1.1091354E-1,4.186402E-1,-1.0286698E0,-6.2339526E-1,2.0073143E-1,-4.5447293E-1,2.6744485E-1,-3.7446144E-1,2.57954E-1,6.066069E-1,-1.1174898E0,-6.1066586E-1,1.6511221E-1,-6.7561036E-1,4.253582E-1,-2.809698E-1,-6.211058E-1,-3.0034542E-2,3.330984E-1,-9.6036506E-1,-1.3725413E-1,-6.109251E-1,-8.715598E-1,2.919045E-1,2.7582183E-1,7.0460755E-1,-9.441618E-2,-1.2727843E-1,-7.237548E-2,4.0169556E-2,2.9346624E-2,-1.9604683E-1,-7.111861E-2,6.0202997E-2,6.728503E-2,-6.0438067E-3,-8.6756974E-2,5.3688463E-2,7.040869E-3,-7.253679E-2,1.0310394E-2,-7.2463974E-2,5.363036E-2,-1.1778119E-3,-1.3418409E-1,-5.427418E-2,-4.830613E-3,-7.2817825E-2,-8.00055E-2,-3.818506E-2,-1.1550736E-1,-3.932052E-2,1.6278414E-2,4.981991E-2,-2.4519492E-2,4.02356E-2,3.9382096E-2,8.130655E-2],"categories":[],"categories_nodes":[],"categories_segments":[],"categories_sizes":[],"default_left":[0,0,0,0,0,0,0,0,0,0,0,0,0,0,0,0,0,0,0,0,0,0,0,0,0,0,0,0,0,0,0,0,0,0,0,0,0,0,0,0,0,0,0,0,0,0,0,0,0,0,0,0,0,0,0,0,0,0,0,0,0,0,0],"id":7,"left_children":[1,3,5,7,9,11,13,15,17,19,21,23,25,27,29,31,33,35,37,39,41,43,45,47,49,51,53,55,57,59,61,-1,-1,-1,-1,-1,-1,-1,-1,-1,-1,-1,-1,-1,-1,-1,-1,-1,-1,-1,-1,-1,-1,-1,-1,-1,-1,-1,-1,-1,-1,-1,-1],"loss_changes":[1.3113402E5,2.4067781E4,5.6674934E4,4.248242E3,1.3185055E4,3.354647E4,1.52888125E4,3.0089531E3,1.564456E3,4.0749988E3,1.1777535E4,1.113459E4,1.1122551E4,1.0465428E4,7.562508E3,1.7983438E3,1.6269595E3,6.446093E2,1.6201826E3,3.0879824E3,5.7465303E3,8.621527E3,4.3416943E3,9.188623E3,1.1162476E3,5.203235E3,4.3020117E3,1.0795854E3,7.0570996E3,3.5154106E3,6.0660703E3,0E0,0E0,0E0,0E0,0E0,0E0,0E0,0E0,0E0,0E0,0E0,0E0,0E0,0E0,0E0,0E0,0E0,0E0,0E0,0E0,0E0,0E0,0E0,0E0,0E0,0E0,0E0,0E0,0E0,0E0,0E0,0E0],"parents":[2147483647,0,0,1,1,2,2,3,3,4,4,5,5,6,6,7,7,8,8,9,9,10,10,11,11,12,12,13,13,14,14,15,15,16,16,17,17,18,18,19,19,20,20,21,21,22,22,23,23,24,24,25,25,26,26,27,27,28,28,29,29,30,30],"right_children":[2,4,6,8,10,12,14,16,18,20,22,24,26,28,30,32,34,36,38,40,42,44,46,48,50,52,54,56,58,60,62,-1,-1,-1,-1,-1,-1,-1,-1,-1,-1,-1,-1,-1,-1,-1,-1,-1,-1,-1,-1,-1,-1,-1,-1,-1,-1,-1,-1,-1,-1,-1,-1],"split_conditions":[-4.213912E-1,-7.656802E-1,5.0453895E-1,-2.5736886E-1,-9.1861445E-1,-6.8558156E-1,1.1215959E0,3.5355642E-1,-8.699766E-1,4.6389564E-3,3.5618484E0,1.2148286E0,4.6389564E-3,1.8309653E-3,1.11505E0,4.6389564E-3,1.2363695E0,-2.5935373E-1,1.0212123E0,2.4438744E0,-3.6687553E-1,-7.9769444E-1,5.5472517E-1,6.6851303E-3,4.4614318E-1,1.910908E0,2.4986199E-1,1.2007331E0,7.6904106E-1,-4.8144642E-1,-4.9257982E-1,-9.441618E-2,-1.2727843E-1,-7.237548E-2,4.0169556E-2,2.9346624E-2,-1.9604683E-1,-7.111861E-2,6.0202997E-2,6.728503E-2,-6.0438067E-3,-8.6756974E-2,5.3688463E-2,7.040869E-3,-7.253679E-2,1.0310394E-2,-7.2463974E-2,5.363036E-2,-1.1778119E-3,-1.3418409E-1,-5.427418E-2,-4.830613E-3,-7.2817825E-2,-8.00055E-2,-3.818506E-2,-1.1550736E-1,-3.932052E-2,1.6278414E-2,4.981991E-2,-2.4519492E-2,4.02356E-2,3.9382096E-2,8.130655E-2],"split_indices":[0,0,1,12,6,6,8,8,6,4,19,4,4,20,1,4,9,11,7,19,12,2,4,20,2,12,0,0,0,13,13,0,0,0,0,0,0,0,0,0,0,0,0,0,0,0,0,0,0,0,0,0,0,0,0,0,0,0,0,0,0,0,0],"split_type":[0,0,0,0,0,0,0,0,0,0,0,0,0,0,0,0,0,0,0,0,0,0,0,0,0,0,0,0,0,0,0,0,0,0,0,0,0,0,0,0,0,0,0,0,0,0,0,0,0,0,0,0,0,0,0,0,0,0,0,0,0,0,0],"sum_hessian":[1.1658534E6,3.2323903E5,8.426143E5,1.19056375E5,2.0418267E5,3.364196E5,5.0619472E5,8.106199E4,3.7994387E4,3.7658586E4,1.6652408E5,1.3812402E5,1.9829558E5,2.7290234E5,2.3329238E5,6.685464E4,1.4207348E4,2.3595962E3,3.563479E4,2.5682463E4,1.1976122E4,1.1957783E5,4.6946258E4,1.3111381E5,7.0102007E3,9.8992914E4,9.9302664E4,7.9627134E3,2.6493966E5,5.3320758E4,1.7997161E5,3.1596303E4,3.525834E4,1.2780003E4,1.4273441E3,2.2260378E3,1.3355826E2,3.4669855E4,9.649344E2,1.7014121E4,8.668341E3,6.974007E3,5.002115E3,1.5667036E4,1.0391079E5,3.93959E4,7.550359E3,8.250209E4,4.8611727E4,3.6624983E3,3.3477024E3,8.604256E4,1.2950353E4,5.4392387E4,4.4910277E4,4.998664E3,2.964049E3,1.6295033E5,1.01989305E5,1.0418915E4,4.2901844E4,4.6559594E4,1.3341202E5],"tree_param":{"num_deleted":"0","num_feature":"21","num_nodes":"63","size_leaf_vector":"1"}},{"base_weights":[-5.974384E-4,-4.1566765E-1,2.2711655E-1,-7.6472E-1,-2.1274212E-1,1.7021589E-2,4.8098484E-1,-6.0665804E-1,-9.8150826E-1,3.1028298E-1,-3.1270102E-1,1.9898029E-1,-2.8237388E-1,2.2364517E-1,5.814281E-1,-6.9715023E-1,-2.2189575E-1,-1.0490088E0,-2.4682763E-1,5.274171E-1,-1.5616304E-1,-4.4027847E-1,1.4902256E-1,4.0080857E-1,-5.2476257E-2,-5.470932E-1,-5.3155553E-2,4.6549905E-3,4.405928E-1,4.4932106E-1,7.793883E-1,-9.635402E-2,-5.4770816E-2,-9.2371516E-2,-8.82684E-3,-1.1013351E-1,-4.8337337E-2,9.564521E-2,-4.504268E-2,3.8466763E-2,1.2069944E-1,-6.732314E-2,4.9252223E-2,-6.556829E-2,-1.792315E-2,-9.268465E-2,2.3696542E-2,-8.868704E-2,4.4836633E-2,-4.754961E-2,1.5686866E-2,-8.9605324E-2,-3.2036092E-2,-3.4060307E-2,1.0788946E-2,-7.2442204E-2,1.9467287E-2,5.1839817E-2,-5.5596776E-2,5.0357442E-2,-2.112257E-2,8.910329E-2,5.327786E-2],"categories":[],"categories_nodes":[],"categories_segments":[],"categories_sizes":[],"default_left":[0,0,0,0,0,0,0,0,0,0,0,0,0,0,0,0,0,0,0,0,0,0,0,0,0,0,0,0,0,0,0,0,0,0,0,0,0,0,0,0,0,0,0,0,0,0,0,0,0,0,0,0,0,0,0,0,0,0,0,0,0,0,0],"id":8,"left_children":[1,3,5,7,9,11,13,15,17,19,21,23,25,27,29,31,33,35,37,39,41,43,45,47,49,51,53,55,57,59,61,-1,-1,-1,-1,-1,-1,-1,-1,-1,-1,-1,-1,-1,-1,-1,-1,-1,-1,-1,-1,-1,-1,-1,-1,-1,-1,-1,-1,-1,-1,-1,-1],"loss_changes":[1.08863164E5,2.8901422E4,3.96689E4,5.139492E3,1.34900205E4,2.217028E4,8.705211E3,3.0205098E3,3.1364414E3,4.193276E3,1.2760576E4,1.284633E4,9.334583E3,4.4920654E3,6.334664E3,2.7955742E3,1.5492457E3,1.7140039E3,1.3046511E3,2.7401265E3,4.4115796E3,9.543895E3,4.4374883E3,8.599529E3,9.981001E3,5.648135E3,3.816723E3,6.5190415E3,3.6831035E3,5.2067363E3,2.6688984E3,0E0,0E0,0E0,0E0,0E0,0E0,0E0,0E0,0E0,0E0,0E0,0E0,0E0,0E0,0E0,0E0,0E0,0E0,0E0,0E0,0E0,0E0,0E0,0E0,0E0,0E0,0E0,0E0,0E0,0E0,0E0,0E0],"parents":[2147483647,0,0,1,1,2,2,3,3,4,4,5,5,6,6,7,7,8,8,9,9,10,10,11,11,12,12,13,13,14,14,15,15,16,16,17,17,18,18,19,19,20,20,21,21,22,22,23,23,24,24,25,25,26,26,27,27,28,28,29,29,30,30],"right_children":[2,4,6,8,10,12,14,16,18,20,22,24,26,28,30,32,34,36,38,40,42,44,46,48,50,52,54,56,58,60,62,-1,-1,-1,-1,-1,-1,-1,-1,-1,-1,-1,-1,-1,-1,-1,-1,-1,-1,-1,-1,-1,-1,-1,-1,-1,-1,-1,-1,-1,-1,-1,-1],"split_conditions":[-2.6874307E-1,-6.950947E-1,8.627958E-1,4.6389564E-3,-1.0816395E0,-2.6230088E-1,-4.924238E-1,3.7443373E0,8.5225844E-1,4.6389564E-3,9.1756374E-1,4.6389564E-3,2.8045874E0,9.1575485E-1,1.0327234E0,-9.364846E-1,-4.547539E-1,4.6415575E-2,-1.0359998E0,-1.05378285E-1,9.9479413E-1,-3.6687553E-1,2.7446427E0,-2.3057232E0,4.5967624E-3,4.5967624E-3,1.4896314E-1,2.7844715E0,1.2148286E0,3.117768E-1,7.7475965E-1,-9.635402E-2,-5.4770816E-2,-9.2371516E-2,-8.82684E-3,-1.1013351E-1,-4.8337337E-2,9.564521E-2,-4.504268E-2,3.8466763E-2,1.2069944E-1,-6.732314E-2,4.9252223E-2,-6.556829E-2,-1.792315E-2,-9.268465E-2,2.3696542E-2,-8.868704E-2,4.4836633E-2,-4.754961E-2,1.5686866E-2,-8.9605324E-2,-3.2036092E-2,-3.4060307E-2,1.0788946E-2,-7.2442204E-2,1.9467287E-2,5.1839817E-2,-5.5596776E-2,5.0357442E-2,-2.112257E-2,8.910329E-2,5.327786E-2],"split_indices":[0,0,1,4,6,6,13,19,1,4,1,4,19,5,0,0,11,12,5,4,4,12,19,4,20,20,1,19,4,12,4,0,0,0,0,0,0,0,0,0,0,0,0,0,0,0,0,0,0,0,0,0,0,0,0,0,0,0,0,0,0,0,0],"split_type":[0,0,0,0,0,0,0,0,0,0,0,0,0,0,0,0,0,0,0,0,0,0,0,0,0,0,0,0,0,0,0,0,0,0,0,0,0,0,0,0,0,0,0,0,0,0,0,0,0,0,0,0,0,0,0,0,0,0,0,0,0,0,0],"sum_hessian":[1.1517784E6,4.0803097E5,7.437474E5,1.500048E5,2.5802617E5,4.0695925E5,3.3678812E5,8.675492E4,6.3249887E4,4.1400426E4,2.1662575E5,2.531231E5,1.5383616E5,9.455014E4,2.42238E5,7.0235445E4,1.6519473E4,5.792725E4,5.322636E3,2.82498E4,1.3150627E4,1.697286E5,4.689715E4,1.4041792E5,1.1270518E5,7.138907E4,8.244709E4,4.705408E4,4.7496066E4,1.4528595E5,9.695205E4,2.5239314E4,4.499613E4,2.6412976E3,1.3878176E4,5.3021367E4,4.9058833E3,7.697403E2,4.552896E3,2.334715E4,4.9026504E3,7.317664E3,5.8329634E3,9.2993195E4,7.673541E4,3.5430386E3,4.335411E4,5.0007026E3,1.3541722E5,3.7310727E4,7.539445E4,2.8114912E4,4.3274156E4,2.9604764E4,5.2842332E4,9.727593E3,3.7326484E4,4.4056855E4,3.4392095E3,1.3425895E5,1.1026989E4,6.67366E4,3.0215447E4],"tree_param":{"num_deleted":"0","num_feature":"21","num_nodes":"63","size_leaf_vector":"1"}},{"base_weights":[-6.360368E-4,-2.5333366E-1,3.2430848E-1,-1.2670769E-2,-6.738619E-1,1.3126616E-1,5.034343E-1,-1.5985982E-1,3.2606563E-1,-5.5767125E-1,-9.146826E-1,-3.7956622E-1,2.0214312E-1,-4.288981E-1,5.31021E-1,1.7526519E-2,-4.043394E-1,5.479135E-1,4.197403E-2,-7.158763E-1,-3.4599498E-1,-6.6865325E-1,-1.0583026E0,-1.1520596E0,-1.9635847E-1,2.4238332E-1,-7.290868E-1,-2.057317E-1,-1.3159851E0,1.3601658E-1,5.893068E-1,-4.471853E-2,1.18297925E-2,-2.1257E-2,-8.049952E-2,-1.12993576E-1,5.9495497E-2,-4.374685E-2,3.99378E-2,-8.736578E-2,-3.5714753E-2,-6.380459E-2,-1.993344E-2,-6.898825E-2,1.3578531E-1,-1.1064028E-1,-5.361727E-2,-1.3771555E-1,-2.732279E-2,-5.076782E-2,2.404682E-2,3.4059625E-2,-2.4730505E-3,1.3436912E-1,-8.161091E-2,-5.04797E-2,2.5638128E-2,-1.4658411E-1,4.0643804E-2,-3.824354E-2,3.884407E-2,4.514872E-2,7.228436E-2],"categories":[],"categories_nodes":[],"categories_segments":[],"categories_sizes":[],"default_left":[0,0,0,0,0,0,0,0,0,0,0,0,0,0,0,0,0,0,0,0,0,0,0,0,0,0,0,0,0,0,0,0,0,0,0,0,0,0,0,0,0,0,0,0,0,0,0,0,0,0,0,0,0,0,0,0,0,0,0,0,0,0,0],"id":9,"left_children":[1,3,5,7,9,11,13,15,17,19,21,23,25,27,29,31,33,35,37,39,41,43,45,47,49,51,53,55,57,59,61,-1,-1,-1,-1,-1,-1,-1,-1,-1,-1,-1,-1,-1,-1,-1,-1,-1,-1,-1,-1,-1,-1,-1,-1,-1,-1,-1,-1,-1,-1,-1,-1],"loss_changes":[9.3443016E4,6.4787484E4,1.7214234E4,2.0299934E4,6.5192812E3,8.675359E3,6.641664E3,1.2308703E4,7.7727656E3,5.263324E3,2.6787773E3,4.1316074E3,7.8849824E3,1.4689408E3,5.7741406E3,7.7027188E3,9.169336E3,5.466504E3,9.266861E3,5.090824E3,2.87946E3,1.2035186E3,1.2018711E3,1.1067153E3,3.209457E3,5.291378E3,1.5732695E3,8.1979065E2,3.855918E2,4.2207256E3,4.0218828E3,0E0,0E0,0E0,0E0,0E0,0E0,0E0,0E0,0E0,0E0,0E0,0E0,0E0,0E0,0E0,0E0,0E0,0E0,0E0,0E0,0E0,0E0,0E0,0E0,0E0,0E0,0E0,0E0,0E0,0E0,0E0,0E0],"parents":[2147483647,0,0,1,1,2,2,3,3,4,4,5,5,6,6,7,7,8,8,9,9,10,10,11,11,12,12,13,13,14,14,15,15,16,16,17,17,18,18,19,19,20,20,21,21,22,22,23,23,24,24,25,25,26,26,27,27,28,28,29,29,30,30],"right_children":[2,4,6,8,10,12,14,16,18,20,22,24,26,28,30,32,34,36,38,40,42,44,46,48,50,52,54,56,58,60,62,-1,-1,-1,-1,-1,-1,-1,-1,-1,-1,-1,-1,-1,-1,-1,-1,-1,-1,-1,-1,-1,-1,-1,-1,-1,-1,-1,-1,-1,-1,-1,-1],"split_conditions":[6.4185953E-1,-2.8851398E-4,4.1686076E-1,8.0761594E-1,1.0815916E0,3.2769367E-3,-2.0768015E0,4.6389564E-3,4.6389564E-3,-1.21246025E-1,2.941147E-1,2.6173925E0,1.8245755E0,-2.6230088E-1,2.8330982E-3,-6.778586E-1,1E0,-2.3057232E0,-4.0613922E-1,-2.1582367E-1,-5.4516697E-1,2.722192E-1,5.700929E-1,8.9229107E-1,1.3272622E0,4.4470793E-1,1.5889113E0,1.3463072E0,2.0919902E0,4.4983616E-1,1.1858325E0,-4.471853E-2,1.18297925E-2,-2.1257E-2,-8.049952E-2,-1.12993576E-1,5.9495497E-2,-4.374685E-2,3.99378E-2,-8.736578E-2,-3.5714753E-2,-6.380459E-2,-1.993344E-2,-6.898825E-2,1.3578531E-1,-1.1064028E-1,-5.361727E-2,-1.3771555E-1,-2.732279E-2,-5.076782E-2,2.404682E-2,3.4059625E-2,-2.4730505E-3,1.3436912E-1,-8.161091E-2,-5.04797E-2,2.5638128E-2,-1.4658411E-1,4.0643804E-2,-3.824354E-2,3.884407E-2,4.514872E-2,7.228436E-2],"split_indices":[7,6,0,5,6,20,10,4,4,7,10,19,12,6,20,0,15,4,12,12,0,3,8,5,8,4,19,8,9,10,1,0,0,0,0,0,0,0,0,0,0,0,0,0,0,0,0,0,0,0,0,0,0,0,0,0,0,0,0,0,0,0,0],"split_type":[0,0,0,0,0,0,0,0,0,0,0,0,0,0,0,0,0,0,0,0,0,0,0,0,0,0,0,0,0,0,0,0,0,0,0,0,0,0,0,0,0,0,0,0,0,0,0,0,0,0,0,0,0,0,0,0,0,0,0,0,0,0,0],"sum_hessian":[1.1379829E6,6.4015656E5,4.9782638E5,4.0715056E5,2.3300597E5,2.3960636E5,2.5822002E5,2.8382316E5,1.23327414E5,1.5717555E5,7.583041E4,2.9193723E4,2.1041264E5,7.42046E3,2.5079955E5,1.6448162E5,1.1934153E5,6.924942E4,5.4077992E4,8.994731E4,6.722824E4,2.7952238E4,4.787817E4,5.595418E3,2.3598305E4,2.0169764E5,8.714996E3,5.929895E3,1.4905647E3,3.2249203E4,2.1855034E5,2.9310682E4,1.3517095E5,8.071144E4,3.8630094E4,1.887952E3,6.736147E4,2.3095764E4,3.0982227E4,6.2469574E4,2.7477738E4,2.2473182E4,4.475506E4,2.7663105E4,2.891331E2,4.3838516E4,4.0396543E3,4.454035E3,1.1413829E3,1.3778449E4,9.8198545E3,1.4747388E5,5.422376E4,3.5056125E2,8.364436E3,3.5999963E3,2.329899E3,1.371398E3,1.1916679E2,1.0559864E4,2.168934E4,1.07552625E5,1.1099772E5],"tree_param":{"num_deleted":"0","num_feature":"21","num_nodes":"63","size_leaf_vector":"1"}},{"base_weights":[-7.000585E-4,-2.7000538E-1,2.5526693E-1,2.0210162E-1,-4.683722E-1,4.3768633E-2,4.0613464E-1,2.6270503E-1,-1.0348215E0,-3.1957307E-1,-7.541352E-1,1.4431344E-1,-2.6471075E-1,-3.125127E-1,4.3667173E-1,1.7649643E-1,9.083839E-1,-1.1463208E0,-2.2308543E-2,-6.0369813E-1,-1.5423535E-1,-9.922915E-1,-6.280809E-1,1.9955306E-1,-6.4604455E-1,-5.7543844E-1,-9.861819E-2,-5.309481E-1,9.712376E-2,5.5031145E-1,2.386234E-1,3.3746168E-2,-7.042443E-2,1.0508019E-1,-1.6456614E-1,-1.3027965E-1,-6.578808E-2,3.9429154E-2,-1.8101576E-1,-8.9217305E-2,-4.5011625E-2,-1.0909452E-1,-1.1179629E-2,-7.597425E-2,-1.12127125E-1,-8.181486E-2,-3.8472738E-2,4.281251E-3,3.6136083E-2,1.0543203E-1,-7.861383E-2,1.6269492E-1,-6.1994053E-2,-5.386689E-2,5.8249547E-3,-3.061131E-2,-1.2159449E-1,4.893886E-2,-2.9353116E-2,2.7773336E-2,6.3070476E-2,-2.8263068E-2,3.0955432E-2],"categories":[],"categories_nodes":[],"categories_segments":[],"categories_sizes":[],"default_left":[0,0,0,0,0,0,0,0,0,0,0,0,0,0,0,0,0,0,0,0,0,0,0,0,0,0,0,0,0,0,0,0,0,0,0,0,0,0,0,0,0,0,0,0,0,0,0,0,0,0,0,0,0,0,0,0,0,0,0,0,0,0,0],"id":10,"left_children":[1,3,5,7,9,11,13,15,17,19,21,23,25,27,29,31,33,35,37,39,41,43,45,47,49,51,53,55,57,59,61,-1,-1,-1,-1,-1,-1,-1,-1,-1,-1,-1,-1,-1,-1,-1,-1,-1,-1,-1,-1,-1,-1,-1,-1,-1,-1,-1,-1,-1,-1,-1,-1],"loss_changes":[7.754314E4,5.1336246E4,1.8402535E4,1.215773E4,1.641243E4,7.447556E3,7.387297E3,8.605791E3,8.551748E2,1.1923617E4,3.9670703E3,7.906532E3,3.0462192E3,1.2278103E3,7.267004E3,1.9337197E4,6.6258057E3,5.206758E2,5.61162E2,4.1363086E3,6.3784043E3,1.3711172E3,3.9971836E3,4.2928506E3,2.818959E3,2.0161426E3,2.6553354E3,1.377918E3,7.315432E2,4.4957812E3,4.352834E3,0E0,0E0,0E0,0E0,0E0,0E0,0E0,0E0,0E0,0E0,0E0,0E0,0E0,0E0,0E0,0E0,0E0,0E0,0E0,0E0,0E0,0E0,0E0,0E0,0E0,0E0,0E0,0E0,0E0,0E0,0E0,0E0],"parents":[2147483647,0,0,1,1,2,2,3,3,4,4,5,5,6,6,7,7,8,8,9,9,10,10,11,11,12,12,13,13,14,14,15,15,16,16,17,17,18,18,19,19,20,20,21,21,22,22,23,23,24,24,25,25,26,26,27,27,28,28,29,29,30,30],"right_children":[2,4,6,8,10,12,14,16,18,20,22,24,26,28,30,32,34,36,38,40,42,44,46,48,50,52,54,56,58,60,62,-1,-1,-1,-1,-1,-1,-1,-1,-1,-1,-1,-1,-1,-1,-1,-1,-1,-1,-1,-1,-1,-1,-1,-1,-1,-1,-1,-1,-1,-1,-1,-1],"split_conditions":[4.6296787E-1,-8.817639E-1,2.0007303E-1,1.2148286E0,4.453255E-1,5.5472517E-1,-1.8529586E0,9.9479413E-1,3.9400315E-1,-4.0601915E-1,-4.092612E-1,1.6259749E0,7.789085E-1,9.0597373E-1,5.5472517E-1,3.346907E-1,1E0,-4.2107803E-1,2.5397143E0,-5.067287E-1,2.6485547E-3,2.2467344E-1,1E0,3.5618484E0,1.8192137E0,-1.6131423E-1,-4.898737E-1,3.9989762E0,-4.3543E-1,-4.9308035E-1,1.8309653E-3,3.3746168E-2,-7.042443E-2,1.0508019E-1,-1.6456614E-1,-1.3027965E-1,-6.578808E-2,3.9429154E-2,-1.8101576E-1,-8.9217305E-2,-4.5011625E-2,-1.0909452E-1,-1.1179629E-2,-7.597425E-2,-1.12127125E-1,-8.181486E-2,-3.8472738E-2,4.281251E-3,3.6136083E-2,1.0543203E-1,-7.861383E-2,1.6269492E-1,-6.1994053E-2,-5.386689E-2,5.8249547E-3,-3.061131E-2,-1.2159449E-1,4.893886E-2,-2.9353116E-2,2.7773336E-2,6.3070476E-2,-2.8263068E-2,3.0955432E-2],"split_indices":[7,6,0,4,6,4,10,4,7,12,12,12,1,5,4,4,15,13,19,7,20,4,16,19,19,8,13,12,4,13,20,0,0,0,0,0,0,0,0,0,0,0,0,0,0,0,0,0,0,0,0,0,0,0,0,0,0,0,0,0,0,0,0],"split_type":[0,0,0,0,0,0,0,0,0,0,0,0,0,0,0,0,0,0,0,0,0,0,0,0,0,0,0,0,0,0,0,0,0,0,0,0,0,0,0,0,0,0,0,0,0,0,0,0,0,0,0,0,0,0,0,0,0,0,0,0,0,0,0],"sum_hessian":[1.1248995E6,5.481673E5,5.767321E5,1.6218114E5,3.8598622E5,2.401176E5,3.3661456E5,1.546069E5,7.5742227E3,2.5382142E5,1.3216478E5,1.8109317E5,5.9024414E4,1.3720178E4,3.2289438E5,1.3639698E5,1.8209936E4,6.82276E3,7.514633E2,9.336883E4,1.604526E5,4.5740203E4,8.642458E4,1.6926375E5,1.1829417E4,2.0559332E4,3.8465082E4,8.948281E3,4.7718965E3,2.0516777E5,1.1772662E5,1.1532133E5,2.107565E4,1.7248707E4,9.612286E2,5.1660923E3,1.6566671E3,6.100828E2,1.413805E2,3.243706E4,6.0931766E4,6.9533945E3,1.534992E5,1.6320832E4,2.9419371E4,4.8523586E4,3.7900992E4,8.597878E4,8.328498E4,8.99946E2,1.0929471E4,4.0649536E2,2.0152838E4,1.0107827E4,2.8357254E4,6.7380967E3,2.210184E3,2.3809158E3,2.3909807E3,4.673035E4,1.584374E5,1.410074E4,1.0362588E5],"tree_param":{"num_deleted":"0","num_feature":"21","num_nodes":"63","size_leaf_vector":"1"}},{"base_weights":[-7.6789287E-4,-5.52211E-1,1.1133628E-1,-3.818489E-1,-7.944395E-1,-3.6188446E-2,3.6530638E-1,-6.169989E-1,-1.9222996E-1,-8.746885E-1,-1.2516795E-1,1.6038977E-1,-2.3587382E-1,1.1067389E-1,4.6106604E-1,-7.307274E-1,-2.9105565E-1,3.593657E-1,-2.8854305E-1,-9.459526E-1,-3.8611242E-1,-6.3507324E-1,1.261826E-1,2.0810328E-1,-5.90288E-1,-4.711434E-1,-5.9973415E-2,-2.6491696E-1,1.7879269E-1,2.3487013E-2,5.2227473E-1,6.2632165E-3,-7.88103E-2,-8.302451E-2,-9.9651795E-3,3.8648003E-3,9.2066266E-2,-4.2711392E-2,3.3353434E-3,-9.8567806E-2,-3.9597746E-2,-5.6964904E-2,1.4887162E-1,-9.730121E-2,2.6629433E-2,-1.1189884E-1,2.5957614E-2,-8.453625E-2,2.3907892E-2,-1.0737007E-1,-2.389309E-2,-8.0799975E-2,-2.6336892E-2,3.3927817E-2,-1.4347026E-2,-9.89024E-2,-1.5244901E-2,2.2409579E-2,-3.878342E-2,-1.8421957E-1,4.7720624E-3,2.9939571E-2,6.199471E-2],"categories":[],"categories_nodes":[],"categories_segments":[],"categories_sizes":[],"default_left":[0,0,0,0,0,0,0,0,0,0,0,0,0,0,0,0,0,0,0,0,0,0,0,0,0,0,0,0,0,0,0,0,0,0,0,0,0,0,0,0,0,0,0,0,0,0,0,0,0,0,0,0,0,0,0,0,0,0,0,0,0,0,0],"id":11,"left_children":[1,3,5,7,9,11,13,15,17,19,21,23,25,27,29,31,33,35,37,39,41,43,45,47,49,51,53,55,57,59,61,-1,-1,-1,-1,-1,-1,-1,-1,-1,-1,-1,-1,-1,-1,-1,-1,-1,-1,-1,-1,-1,-1,-1,-1,-1,-1,-1,-1,-1,-1,-1,-1],"loss_changes":[6.873307E4,7.751301E3,3.4619414E4,4.917257E3,4.165551E3,2.29434E4,8.278484E3,1.8247051E3,3.2436155E3,2.410996E3,1.0645374E3,1.0549662E4,1.1999383E4,2.3740073E3,6.6082266E3,1.6612969E3,1.3142972E3,1.6338353E3,2.3185244E3,1.3200977E3,3.034975E3,8.3562036E2,9.244494E2,9.037069E3,2.9895103E3,8.681574E3,5.5308916E3,1.1599705E3,2.0162983E3,1.3690275E3,4.7117266E3,0E0,0E0,0E0,0E0,0E0,0E0,0E0,0E0,0E0,0E0,0E0,0E0,0E0,0E0,0E0,0E0,0E0,0E0,0E0,0E0,0E0,0E0,0E0,0E0,0E0,0E0,0E0,0E0,0E0,0E0,0E0,0E0],"parents":[2147483647,0,0,1,1,2,2,3,3,4,4,5,5,6,6,7,7,8,8,9,9,10,10,11,11,12,12,13,13,14,14,15,15,16,16,17,17,18,18,19,19,20,20,21,21,22,22,23,23,24,24,25,25,26,26,27,27,28,28,29,29,30,30],"right_children":[2,4,6,8,10,12,14,16,18,20,22,24,26,28,30,32,34,36,38,40,42,44,46,48,50,52,54,56,58,60,62,-1,-1,-1,-1,-1,-1,-1,-1,-1,-1,-1,-1,-1,-1,-1,-1,-1,-1,-1,-1,-1,-1,-1,-1,-1,-1,-1,-1,-1,-1,-1,-1],"split_conditions":[-6.0932636E-1,4.6389564E-3,9.2874813E-1,-8.2880026E-1,8.9528143E-1,-4.676785E-1,9.3188316E-1,3.526135E0,-9.352079E-1,5.60643E-1,3.6653706E-1,1.2148286E0,2.72502E0,3.3143088E-3,-1.5703155E-1,-8.817639E-1,-3.7940192E-1,-4.3539828E-1,3.5618484E0,2.2472392E-1,-3.6939672E-1,3.966772E0,3.0316561E-3,2.4079531E-3,5.0706152E-2,4.7112256E-3,-7.654817E-1,2.3292503E0,7.0513576E-1,-2.8558092E0,-4.9085304E-1,6.2632165E-3,-7.88103E-2,-8.302451E-2,-9.9651795E-3,3.8648003E-3,9.2066266E-2,-4.2711392E-2,3.3353434E-3,-9.8567806E-2,-3.9597746E-2,-5.6964904E-2,1.4887162E-1,-9.730121E-2,2.6629433E-2,-1.1189884E-1,2.5957614E-2,-8.453625E-2,2.3907892E-2,-1.0737007E-1,-2.389309E-2,-8.0799975E-2,-2.6336892E-2,3.3927817E-2,-1.4347026E-2,-9.89024E-2,-1.5244901E-2,2.2409579E-2,-3.878342E-2,-1.8421957E-1,4.7720624E-3,2.9939571E-2,6.199471E-2],"split_indices":[0,4,1,0,1,6,8,19,2,5,9,4,19,20,10,6,11,3,19,12,13,19,20,20,11,20,4,19,12,4,13,0,0,0,0,0,0,0,0,0,0,0,0,0,0,0,0,0,0,0,0,0,0,0,0,0,0,0,0,0,0,0,0],"split_type":[0,0,0,0,0,0,0,0,0,0,0,0,0,0,0,0,0,0,0,0,0,0,0,0,0,0,0,0,0,0,0,0,0,0,0,0,0,0,0,0,0,0,0,0,0,0,0,0,0,0,0,0,0,0,0,0,0,0,0,0,0,0,0],"sum_hessian":[1.1118406E6,1.8784122E5,9.239994E5,1.1028154E5,7.755969E4,5.844868E5,3.3951256E5,4.922921E4,6.105233E4,6.925532E4,8.304367E3,2.9453503E5,2.8995178E5,9.278693E4,2.4672562E5,3.6494332E4,1.2734879E4,9.075159E3,5.1977168E4,6.0438742E4,8.816581E3,2.741422E3,5.5629453E3,2.769337E5,1.7601346E4,1.24041984E5,1.659098E5,1.4244308E4,7.8542625E4,3.0277088E4,2.1644853E5,2.4612588E3,3.403307E4,3.335462E3,9.399417E3,5.7759346E3,3.299224E3,3.6335176E4,1.5641993E4,5.6366523E4,4.072218E3,8.031074E3,7.8550714E2,1.9938229E3,7.4759937E2,5.375703E2,5.025375E3,7.9094927E3,2.690242E5,7.407594E3,1.0193752E4,4.7320418E4,7.672156E4,2.8695459E4,1.3721433E5,1.9139365E3,1.2330371E4,7.272843E4,5.8141978E3,3.8726855E2,2.988982E4,6.595332E4,1.504952E5],"tree_param":{"num_deleted":"0","num_feature":"21","num_nodes":"63","size_leaf_vector":"1"}},{"base_weights":[-8.3837705E-4,-2.6439777E-1,2.0403597E-1,-6.7502475E-1,-1.5395212E-1,9.638509E-2,4.6474725E-1,-8.183049E-1,-4.205349E-1,2.6704693E-1,-2.3689811E-1,-4.561273E-1,1.4693864E-1,2.253143E-1,5.7213855E-1,-9.297289E-1,-4.7792754E-1,1.6112939E-1,-4.842748E-1,4.4783738E-1,-1.2068202E-1,-3.672775E-1,6.987684E-2,-9.2212063E-1,-2.9529458E-1,1.6107282E-1,-1.4252275E0,-7.1253663E-1,2.578056E-1,7.769233E-2,6.3547313E-1,-9.389322E-2,2.5086698E-1,-6.606906E-2,2.4055334E-2,8.211062E-2,-2.8979197E-2,-9.341385E-2,-3.90626E-2,5.2564323E-2,-6.424523E-2,-5.594028E-2,4.7915395E-2,-6.123342E-2,-2.2567168E-2,-3.2188367E-2,1.9163955E-2,-9.743243E-2,1.1388274E-1,-6.992824E-2,-5.943814E-3,-3.458934E-3,2.7158339E-2,-2.1056299E-1,-1.20678104E-1,-3.1747654E-2,-2.1866722E-1,3.928487E-2,4.2478164E-4,1.6714586E-2,-1.040432E-1,1.2300555E-1,6.0333412E-2],"categories":[],"categories_nodes":[],"categories_segments":[],"categories_sizes":[],"default_left":[0,0,0,0,0,0,0,0,0,0,0,0,0,0,0,0,0,0,0,0,0,0,0,0,0,0,0,0,0,0,0,0,0,0,0,0,0,0,0,0,0,0,0,0,0,0,0,0,0,0,0,0,0,0,0,0,0,0,0,0,0,0,0],"id":12,"left_children":[1,3,5,7,9,11,13,15,17,19,21,23,25,27,29,31,33,35,37,39,41,43,45,47,49,51,53,55,57,59,61,-1,-1,-1,-1,-1,-1,-1,-1,-1,-1,-1,-1,-1,-1,-1,-1,-1,-1,-1,-1,-1,-1,-1,-1,-1,-1,-1,-1,-1,-1,-1,-1],"loss_changes":[5.9356547E4,2.1803996E4,1.7358379E4,3.715414E3,1.3230348E4,1.2226861E4,4.647465E3,2.4722031E3,1.3610615E3,4.371366E3,1.2659633E4,2.7499175E3,8.912045E3,1.7056692E3,3.9075273E3,1.5566172E3,2.1117651E3,1.0793541E3,1.3934224E3,3.6081777E3,5.2191367E3,7.7075527E3,4.5030854E3,1.0140469E3,2.5994043E3,8.594532E3,5.285952E2,1.0908754E3,1.8522986E3,1.4174249E3,2.1129688E3,0E0,0E0,0E0,0E0,0E0,0E0,0E0,0E0,0E0,0E0,0E0,0E0,0E0,0E0,0E0,0E0,0E0,0E0,0E0,0E0,0E0,0E0,0E0,0E0,0E0,0E0,0E0,0E0,0E0,0E0,0E0,0E0],"parents":[2147483647,0,0,1,1,2,2,3,3,4,4,5,5,6,6,7,7,8,8,9,9,10,10,11,11,12,12,13,13,14,14,15,15,16,16,17,17,18,18,19,19,20,20,21,21,22,22,23,23,24,24,25,25,26,26,27,27,28,28,29,29,30,30],"right_children":[2,4,6,8,10,12,14,16,18,20,22,24,26,28,30,32,34,36,38,40,42,44,46,48,50,52,54,56,58,60,62,-1,-1,-1,-1,-1,-1,-1,-1,-1,-1,-1,-1,-1,-1,-1,-1,-1,-1,-1,-1,-1,-1,-1,-1,-1,-1,-1,-1,-1,-1,-1,-1],"split_conditions":[-8.9412406E-2,-7.656802E-1,1.1858325E0,-3.025163E-1,-1.0816395E0,2.8027296E-3,1.1937224E0,2.3967378E-1,-7.2614074E-1,4.6389564E-3,3.5618484E0,1.4865687E-2,4.2960367E0,-1.7064322E0,-1.5703155E-1,2.4158154E-1,7.97196E-1,6.907046E-3,2.2199357E0,2.6181225E-2,9.9479413E-1,4.9751922E-3,3.5457185E-1,1E0,4.4983616E-1,-4.0601915E-1,-4.9085304E-1,9.016321E-1,5.5472517E-1,-2.1931984E-1,9.9619216E-1,-9.389322E-2,2.5086698E-1,-6.606906E-2,2.4055334E-2,8.211062E-2,-2.8979197E-2,-9.341385E-2,-3.90626E-2,5.2564323E-2,-6.424523E-2,-5.594028E-2,4.7915395E-2,-6.123342E-2,-2.2567168E-2,-3.2188367E-2,1.9163955E-2,-9.743243E-2,1.1388274E-1,-6.992824E-2,-5.943814E-3,-3.458934E-3,2.7158339E-2,-2.1056299E-1,-1.20678104E-1,-3.1747654E-2,-2.1866722E-1,3.928487E-2,4.2478164E-4,1.6714586E-2,-1.040432E-1,1.2300555E-1,6.0333412E-2],"split_indices":[0,0,1,12,6,20,8,1,6,4,19,8,12,10,10,3,11,20,19,20,4,20,7,14,10,12,13,9,4,10,7,0,0,0,0,0,0,0,0,0,0,0,0,0,0,0,0,0,0,0,0,0,0,0,0,0,0,0,0,0,0,0,0],"split_type":[0,0,0,0,0,0,0,0,0,0,0,0,0,0,0,0,0,0,0,0,0,0,0,0,0,0,0,0,0,0,0,0,0,0,0,0,0,0,0,0,0,0,0,0,0,0,0,0,0,0,0,0,0,0,0,0,0,0,0,0,0,0,0],"sum_hessian":[1.0992634E6,4.807741E5,6.1848925E5,1.0190295E5,3.7887112E5,4.3774175E5,1.8074755E5,6.519523E4,3.6707727E4,6.2359293E4,3.1651184E5,3.6694152E4,4.010476E5,5.5967957E4,1.24779586E5,4.9115363E4,1.6079864E4,3.6250913E3,3.3082637E4,4.2528793E4,1.98305E4,2.221134E5,9.439843E4,9.413871E3,2.7280281E4,3.9747506E5,3.5725073E3,1.8733503E3,5.4094605E4,1.4168655E4,1.1061093E5,4.8984977E4,1.3038683E2,1.2819097E4,3.2607673E3,1.4711168E3,2.1539746E3,5.698688E3,2.7383947E4,3.969647E4,2.8323225E3,1.14534795E4,8.377021E3,8.134246E4,1.4077095E5,2.2382643E4,7.201579E4,9.181823E3,2.320476E2,1.0055208E4,1.7225074E4,1.4346564E5,2.5400942E5,8.661239E2,2.7063833E3,1.4783706E3,3.9497974E2,3.5295773E4,1.8798832E4,1.3119874E4,1.0487814E3,5.6703467E3,1.04940586E5],"tree_param":{"num_deleted":"0","num_feature":"21","num_nodes":"63","size_leaf_vector":"1"}},{"base_weights":[-8.3511753E-4,-3.532043E-1,1.2708041E-1,-6.308121E-1,-2.1058755E-1,-7.818412E-2,2.634992E-1,-4.752336E-1,-8.7235713E-1,2.3076883E-1,-3.1128553E-1,3.7994257E-1,-1.9137855E-1,9.033667E-2,3.666134E-1,-5.602678E-1,-1.5991029E-1,-1.0030379E0,-4.6587604E-1,-2.5130185E-1,4.7171336E-1,-4.437021E-1,-1.9898275E-2,-2.1185222E-1,4.872343E-1,-4.4758208E-2,-4.3299717E-1,-8.903342E-2,3.3132184E-1,1.5768532E-2,4.3501547E-1,6.7633963E-3,-6.177482E-2,2.5126575E-2,-4.052118E-2,-1.06641605E-1,-3.155569E-2,-5.8105927E-2,1.3325825E-1,-1.24209955E-1,-1.5620475E-2,5.23144E-2,-1.3812678E-1,-2.946463E-2,-7.272071E-2,-7.0147105E-2,7.075865E-3,1.8572388E-2,-1.2599514E-1,7.38168E-2,1.2001624E-2,-1.4108893E-3,-1.05059974E-1,-6.783455E-2,-1.4921971E-2,-4.7390964E-2,2.8864432E-3,3.9896574E-2,-6.111308E-2,7.7610174E-3,-4.6985444E-2,4.6777453E-2,-2.2797717E-2],"categories":[],"categories_nodes":[],"categories_segments":[],"categories_sizes":[],"default_left":[0,0,0,0,0,0,0,0,0,0,0,0,0,0,0,0,0,0,0,0,0,0,0,0,0,0,0,0,0,0,0,0,0,0,0,0,0,0,0,0,0,0,0,0,0,0,0,0,0,0,0,0,0,0,0,0,0,0,0,0,0,0,0],"id":13,"left_children":[1,3,5,7,9,11,13,15,17,19,21,23,25,27,29,31,33,35,37,39,41,43,45,47,49,51,53,55,57,59,61,-1,-1,-1,-1,-1,-1,-1,-1,-1,-1,-1,-1,-1,-1,-1,-1,-1,-1,-1,-1,-1,-1,-1,-1,-1,-1,-1,-1,-1,-1,-1,-1],"loss_changes":[4.9058855E4,1.1476727E4,2.2360629E4,3.6966367E3,8.511153E3,1.6533297E4,8.565574E3,1.6044326E3,2.0467812E3,4.132373E3,6.016366E3,4.0109072E3,9.05685E3,7.7393594E3,7.215711E3,1.7010713E3,1.282189E3,1.2703555E3,1.9434523E3,1.1169397E3,2.261312E3,4.5301914E3,3.010434E3,4.0402515E3,4.927335E3,4.9049727E3,6.7220566E3,4.657667E3,4.870884E3,1.4733112E3,5.4649805E3,0E0,0E0,0E0,0E0,0E0,0E0,0E0,0E0,0E0,0E0,0E0,0E0,0E0,0E0,0E0,0E0,0E0,0E0,0E0,0E0,0E0,0E0,0E0,0E0,0E0,0E0,0E0,0E0,0E0,0E0,0E0,0E0],"parents":[2147483647,0,0,1,1,2,2,3,3,4,4,5,5,6,6,7,7,8,8,9,9,10,10,11,11,12,12,13,13,14,14,15,15,16,16,17,17,18,18,19,19,20,20,21,21,22,22,23,23,24,24,25,25,26,26,27,27,28,28,29,29,30,30],"right_children":[2,4,6,8,10,12,14,16,18,20,22,24,26,28,30,32,34,36,38,40,42,44,46,48,50,52,54,56,58,60,62,-1,-1,-1,-1,-1,-1,-1,-1,-1,-1,-1,-1,-1,-1,-1,-1,-1,-1,-1,-1,-1,-1,-1,-1,-1,-1,-1,-1,-1,-1,-1,-1],"split_conditions":[-4.213912E-1,-7.656802E-1,4.9495676E-1,4.6389564E-3,-7.829057E-1,-1.24575E0,-4.868965E-1,3.6943538E0,2.6970068E-1,-6.80982E-1,3.503077E0,3.797859E-3,2.2467344E-1,9.1575485E-1,5.3076607E-1,-8.817639E-1,-6.554645E-1,1.0813304E-1,1.6852765E0,-1.6935145E0,1.3248458E0,4.535935E-1,-3.1127166E-2,1E0,6.5823495E-3,3.7936516E0,-4.0613922E-1,2.72502E0,1.2148286E0,3.9663672E-2,1E0,6.7633963E-3,-6.177482E-2,2.5126575E-2,-4.052118E-2,-1.06641605E-1,-3.155569E-2,-5.8105927E-2,1.3325825E-1,-1.24209955E-1,-1.5620475E-2,5.23144E-2,-1.3812678E-1,-2.946463E-2,-7.272071E-2,-7.0147105E-2,7.075865E-3,1.8572388E-2,-1.2599514E-1,7.38168E-2,1.2001624E-2,-1.4108893E-3,-1.05059974E-1,-6.783455E-2,-1.4921971E-2,-4.7390964E-2,2.8864432E-3,3.9896574E-2,-6.111308E-2,7.7610174E-3,-4.6985444E-2,4.6777453E-2,-2.2797717E-2],"split_indices":[0,0,1,4,2,6,13,19,1,3,19,20,4,5,8,6,4,12,6,5,4,10,1,15,20,12,12,19,4,6,18,0,0,0,0,0,0,0,0,0,0,0,0,0,0,0,0,0,0,0,0,0,0,0,0,0,0,0,0,0,0,0,0],"split_type":[0,0,0,0,0,0,0,0,0,0,0,0,0,0,0,0,0,0,0,0,0,0,0,0,0,0,0,0,0,0,0,0,0,0,0,0,0,0,0,0,0,0,0,0,0,0,0,0,0,0,0,0,0,0,0,0,0,0,0,0,0,0,0],"sum_hessian":[1.0884172E6,2.8988062E5,7.985366E5,9.837919E4,1.9150145E5,3.1881997E5,4.7971666E5,5.983962E4,3.8539566E4,3.557518E4,1.5592627E5,6.3166543E4,2.5565344E5,1.7904434E5,3.006723E5,4.7129332E4,1.271029E4,2.9162545E4,9.377022E3,1.1855401E4,2.3719781E4,1.072071E5,4.871917E4,9.694286E3,5.3472258E4,1.591054E5,9.654803E4,1.0264456E5,7.639977E4,4.9056285E4,2.5161603E5,3.9525422E3,4.317679E4,4.7493584E3,7.960931E3,2.6700504E4,2.4620413E3,8.81325E3,5.637723E2,1.0371791E3,1.0818222E4,2.30799E4,6.398791E2,7.026602E4,3.694108E4,5.7186606E3,4.300051E4,7.0288506E3,2.6654353E3,3.1765027E4,2.170723E4,1.544016E5,4.7038057E3,5.1779305E4,4.476873E4,2.4068896E4,7.8575664E4,7.128399E4,5.1157847E3,4.351563E4,5.540656E3,2.3976912E5,1.1846908E4],"tree_param":{"num_deleted":"0","num_feature":"21","num_nodes":"63","size_leaf_vector":"1"}},{"base_weights":[-8.6964795E-4,-2.1189772E-1,1.8579872E-1,-5.8926666E-1,-1.2451122E-1,9.253442E-2,4.1062564E-1,-4.3862677E-1,-8.299452E-1,-1.3150854E-2,-3.6349955E-1,-3.8472044E-1,1.367119E-1,1.5786684E-1,5.04127E-1,-5.981327E-1,-2.7288538E-1,-9.023268E-1,-6.357961E-2,5.215258E-1,-6.304525E-2,-9.082355E-1,-2.6780072E-1,-7.7239835E-1,-2.3276764E-1,-1.2575309E0,1.4977776E-1,-8.349718E-1,1.9989197E-1,2.3765612E-1,5.966378E-1,-6.914573E-2,-3.146358E-2,1.2811797E-3,-5.395153E-2,-9.522484E-2,-2.679404E-2,-1.24961875E-1,2.8978413E-2,-1.7611043E-1,5.4780062E-2,-7.699547E-2,-2.9738208E-3,-9.507485E-2,1.0903012E-1,-5.0720353E-2,7.666041E-3,-8.187335E-2,1.2145437E-1,-6.355198E-2,-5.517599E-4,-1.7069675E-1,-9.39379E-2,-2.2568973E-3,2.468761E-2,-1.3355446E-1,6.677242E-2,-1.0258826E-1,2.2404842E-2,3.0210891E-3,4.6174895E-2,7.1007356E-2,3.390393E-2],"categories":[],"categories_nodes":[],"categories_segments":[],"categories_sizes":[],"default_left":[0,0,0,0,0,0,0,0,0,0,0,0,0,0,0,0,0,0,0,0,0,0,0,0,0,0,0,0,0,0,0,0,0,0,0,0,0,0,0,0,0,0,0,0,0,0,0,0,0,0,0,0,0,0,0,0,0,0,0,0,0,0,0],"id":14,"left_children":[1,3,5,7,9,11,13,15,17,19,21,23,25,27,29,31,33,35,37,39,41,43,45,47,49,51,53,55,57,59,61,-1,-1,-1,-1,-1,-1,-1,-1,-1,-1,-1,-1,-1,-1,-1,-1,-1,-1,-1,-1,-1,-1,-1,-1,-1,-1,-1,-1,-1,-1,-1,-1],"loss_changes":[4.2417117E4,1.666701E4,1.1980668E4,3.4450781E3,1.0921928E4,8.514723E3,3.9591094E3,1.545085E3,2.0291602E3,7.4681826E3,6.7998516E3,2.0154121E3,6.7337803E3,1.8877191E3,3.0144316E3,7.8780664E2,2.1837246E3,1.058291E3,1.3238822E3,1.4340176E3,6.0286997E3,1.6571035E3,9.149771E3,8.8796826E2,2.2499023E3,4.8911816E2,6.1282344E3,1.3829332E3,1.285394E3,1.4650547E3,2.6522344E3,0E0,0E0,0E0,0E0,0E0,0E0,0E0,0E0,0E0,0E0,0E0,0E0,0E0,0E0,0E0,0E0,0E0,0E0,0E0,0E0,0E0,0E0,0E0,0E0,0E0,0E0,0E0,0E0,0E0,0E0,0E0,0E0],"parents":[2147483647,0,0,1,1,2,2,3,3,4,4,5,5,6,6,7,7,8,8,9,9,10,10,11,11,12,12,13,13,14,14,15,15,16,16,17,17,18,18,19,19,20,20,21,21,22,22,23,23,24,24,25,25,26,26,27,27,28,28,29,29,30,30],"right_children":[2,4,6,8,10,12,14,16,18,20,22,24,26,28,30,32,34,36,38,40,42,44,46,48,50,52,54,56,58,60,62,-1,-1,-1,-1,-1,-1,-1,-1,-1,-1,-1,-1,-1,-1,-1,-1,-1,-1,-1,-1,-1,-1,-1,-1,-1,-1,-1,-1,-1,-1,-1,-1],"split_conditions":[-1.557642E-2,-7.656802E-1,1.1858325E0,4.6389564E-3,3.346907E-1,2.8027296E-3,-4.9308035E-1,-3.025163E-1,7.97196E-1,-1.4283766E0,2.8027296E-3,1.3167138E-1,-3.476908E0,1.7562136E-3,3.828018E-1,1E0,3.117768E-1,2.2472392E-1,2.5567216E-1,-2.3057232E0,-1.5757587E0,1.9225003E0,-4.05779E-1,1E0,4.4983616E-1,7.5279886E-1,-4.0601915E-1,3.6943538E0,-2.6726947E0,1.1298468E0,7.7475965E-1,-6.914573E-2,-3.146358E-2,1.2811797E-3,-5.395153E-2,-9.522484E-2,-2.679404E-2,-1.24961875E-1,2.8978413E-2,-1.7611043E-1,5.4780062E-2,-7.699547E-2,-2.9738208E-3,-9.507485E-2,1.0903012E-1,-5.0720353E-2,7.666041E-3,-8.187335E-2,1.2145437E-1,-6.355198E-2,-5.517599E-4,-1.7069675E-1,-9.39379E-2,-2.2568973E-3,2.468761E-2,-1.3355446E-1,6.677242E-2,-1.0258826E-1,2.2404842E-2,3.0210891E-3,4.6174895E-2,7.1007356E-2,3.390393E-2],"split_indices":[0,0,1,4,4,20,13,12,11,6,20,8,10,20,10,16,12,12,7,4,7,8,12,14,10,2,12,19,10,0,4,0,0,0,0,0,0,0,0,0,0,0,0,0,0,0,0,0,0,0,0,0,0,0,0,0,0,0,0,0,0,0,0],"split_type":[0,0,0,0,0,0,0,0,0,0,0,0,0,0,0,0,0,0,0,0,0,0,0,0,0,0,0,0,0,0,0,0,0,0,0,0,0,0,0,0,0,0,0,0,0,0,0,0,0,0,0,0,0,0,0,0,0,0,0,0,0,0,0],"sum_hessian":[1.0767859E6,5.0541522E5,5.713706E5,9.503055E4,4.103847E5,4.0384584E5,1.675248E5,5.8449816E4,3.658073E4,2.7994225E5,1.3044244E5,3.42145E4,3.6963134E5,4.523782E4,1.2228698E5,2.9783857E4,2.8665959E4,3.342375E4,3.1569807E3,2.3892865E4,2.5604938E5,1.949047E4,1.1095196E5,9.633195E3,2.4581303E4,3.430883E3,3.6620044E5,1.8363115E3,4.3401508E4,3.1514668E4,9.077231E4,2.2406426E4,7.3774326E3,1.3838642E4,1.4827318E4,3.0984959E4,2.438791E3,7.2409E2,2.4328906E3,2.7114426E2,2.362172E4,1.1520293E4,2.4452908E5,1.9085018E4,4.0545297E2,6.5457848E4,4.5494117E4,9.414245E3,2.1895035E2,8.86615E3,1.5715152E4,1.4202312E3,2.0106519E3,1.3196578E5,2.3423467E5,1.3775411E3,4.587704E2,8.379862E2,4.2563523E4,1.63658E4,1.5148868E4,6.30194E4,2.775291E4],"tree_param":{"num_deleted":"0","num_feature":"21","num_nodes":"63","size_leaf_vector":"1"}},{"base_weights":[-8.7717565E-4,-2.3799686E-1,1.4521104E-1,-4.3039986E-1,1.2890445E-1,1.816889E-2,3.0560097E-1,-2.577278E-1,-6.597205E-1,1.9283476E-1,-9.537368E-1,-2.1322104E-1,1.04363725E-1,-7.501856E-2,3.616686E-1,-1.11445546E-1,-4.9514142E-1,-9.488811E-1,-5.128257E-1,1.0054903E-1,8.941676E-1,1.0207157E-1,-1.0487059E0,4.651576E-1,-2.6439977E-1,4.2773816E-1,3.4790292E-2,-3.9156064E-1,4.470929E-2,1.7554078E-1,4.534438E-1,-1.650443E-2,4.56495E-2,-9.602217E-2,-4.211786E-2,-1.0132112E-1,-1.2879649E-2,-8.2000844E-2,-2.08934E-2,2.4850631E-2,-6.455031E-2,-3.176685E-2,1.229093E-1,-1.3845499E-1,7.1391605E-2,-1.1061195E-1,8.003238E-2,5.1822867E-2,-2.0774566E-1,-6.430715E-2,-1.6003523E-2,-7.5626396E-2,5.629958E-2,-7.700082E-2,5.921472E-3,-2.5726376E-2,-1.3990287E-1,-6.805271E-2,1.1070012E-2,1.3609628E-1,1.5052433E-2,5.550472E-2,2.697452E-2],"categories":[],"categories_nodes":[],"categories_segments":[],"categories_sizes":[],"default_left":[0,0,0,0,0,0,0,0,0,0,0,0,0,0,0,0,0,0,0,0,0,0,0,0,0,0,0,0,0,0,0,0,0,0,0,0,0,0,0,0,0,0,0,0,0,0,0,0,0,0,0,0,0,0,0,0,0,0,0,0,0,0,0],"id":15,"left_children":[1,3,5,7,9,11,13,15,17,19,21,23,25,27,29,31,33,35,37,39,41,43,45,47,49,51,53,55,57,59,61,-1,-1,-1,-1,-1,-1,-1,-1,-1,-1,-1,-1,-1,-1,-1,-1,-1,-1,-1,-1,-1,-1,-1,-1,-1,-1,-1,-1,-1,-1,-1,-1],"loss_changes":[3.6966664E4,2.871905E4,1.3455052E4,1.0567398E4,9.686656E3,7.349043E3,6.228424E3,5.2872764E3,4.868699E3,8.552923E3,7.825581E2,3.472192E3,6.0400107E3,1.4202218E3,4.345332E3,2.8676934E3,1.9961562E3,2.0370781E3,7.096205E3,1.2891035E4,6.237329E3,5.875808E2,7.609424E2,9.477877E2,3.6749058E3,7.6126494E3,4.3428877E3,1.391084E3,1.3013767E3,2.4911353E3,3.1798281E3,0E0,0E0,0E0,0E0,0E0,0E0,0E0,0E0,0E0,0E0,0E0,0E0,0E0,0E0,0E0,0E0,0E0,0E0,0E0,0E0,0E0,0E0,0E0,0E0,0E0,0E0,0E0,0E0,0E0,0E0,0E0,0E0],"parents":[2147483647,0,0,1,1,2,2,3,3,4,4,5,5,6,6,7,7,8,8,9,9,10,10,11,11,12,12,13,13,14,14,15,15,16,16,17,17,18,18,19,19,20,20,21,21,22,22,23,23,24,24,25,25,26,26,27,27,28,28,29,29,30,30],"right_children":[2,4,6,8,10,12,14,16,18,20,22,24,26,28,30,32,34,36,38,40,42,44,46,48,50,52,54,56,58,60,62,-1,-1,-1,-1,-1,-1,-1,-1,-1,-1,-1,-1,-1,-1,-1,-1,-1,-1,-1,-1,-1,-1,-1,-1,-1,-1,-1,-1,-1,-1,-1,-1],"split_conditions":[2.1981025E-1,6.2385565E-1,9.7943425E-1,4.6389564E-3,1.2148286E0,-3.337812E-1,-1.6157968E-1,6.203747E-1,1E0,9.9479413E-1,-6.860882E-1,-1.3838881E0,-8.7549895E-1,2.9234664E0,9.851266E-1,-1.05378285E-1,-1.6076672E0,1.0553808E0,-4.05779E-1,3.346907E-1,4.930809E-3,3.3969924E-2,1.5209726E0,-2.6781678E-1,2.8142202E0,-2.3057232E0,1.7562136E-3,-2.1931984E-1,-3.3091426E-1,6.217049E-1,5.5472517E-1,-1.650443E-2,4.56495E-2,-9.602217E-2,-4.211786E-2,-1.0132112E-1,-1.2879649E-2,-8.2000844E-2,-2.08934E-2,2.4850631E-2,-6.455031E-2,-3.176685E-2,1.229093E-1,-1.3845499E-1,7.1391605E-2,-1.1061195E-1,8.003238E-2,5.1822867E-2,-2.0774566E-1,-6.430715E-2,-1.6003523E-2,-7.5626396E-2,5.629958E-2,-7.700082E-2,5.921472E-3,-2.5726376E-2,-1.3990287E-1,-6.805271E-2,1.1070012E-2,1.3609628E-1,1.5052433E-2,5.550472E-2,2.697452E-2],"split_indices":[1,5,8,4,4,0,10,6,16,4,10,6,4,19,9,4,7,11,12,4,20,0,9,13,19,4,20,10,2,7,4,0,0,0,0,0,0,0,0,0,0,0,0,0,0,0,0,0,0,0,0,0,0,0,0,0,0,0,0,0,0,0,0],"split_type":[0,0,0,0,0,0,0,0,0,0,0,0,0,0,0,0,0,0,0,0,0,0,0,0,0,0,0,0,0,0,0,0,0,0,0,0,0,0,0,0,0,0,0,0,0,0,0,0,0,0,0,0,0,0,0,0,0,0,0,0,0,0,0],"sum_hessian":[1.0671529E6,4.068245E5,6.603284E5,2.6687506E5,1.3994942E5,3.6847038E5,2.91858E5,1.5224267E5,1.1463239E5,1.3214692E5,7.8024966E3,1.0000516E5,2.6846522E5,3.7472496E4,2.543855E5,9.420178E4,5.80409E4,3.8614586E4,7.6017805E4,1.16781266E5,1.536566E4,6.4390375E2,7.1585933E3,7.014833E3,9.299033E4,4.753223E4,2.2093298E5,1.0283152E4,2.7189346E4,8.4009695E4,1.703758E5,8.607889E4,8.1228896E3,7.9622246E3,5.0078676E4,3.5805637E4,2.808948E3,3.780336E4,3.8214445E4,9.745469E4,1.9326576E4,3.3271885E3,1.2038472E4,1.8737318E2,4.5653055E2,6.943398E3,2.1519499E2,6.8721885E3,1.4264453E2,2.0090322E4,7.290001E4,4.87279E3,4.265944E4,6.5065933E3,2.1442639E5,9.074733E3,1.208419E3,2.2669001E3,2.4922445E4,1.7351458E3,8.2274555E4,1.0969927E5,6.067652E4],"tree_param":{"num_deleted":"0","num_feature":"21","num_nodes":"63","size_leaf_vector":"1"}},{"base_weights":[-9.1973646E-4,-1.5304889E-1,1.9110571E-1,1.2126429E-3,-4.5096263E-1,6.131977E-2,3.2001626E-1,-2.2223932E-1,1.2107143E-1,-3.710209E-1,-7.5035393E-1,9.299621E-2,-5.8683467E-1,9.964435E-2,4.1024747E-1,2.0452118E-2,-5.2418363E-1,2.78725E-1,-1.3884303E-1,-3.106792E-1,-8.6657274E-1,2.0319958E-1,-8.0191046E-1,1.8535884E-1,-1.6120146E-1,6.287749E-1,-6.9979084E-1,-1.4828435E-1,2.416308E-1,3.3830315E-1,6.260973E-1,-4.6836402E-2,2.494976E-2,-8.135161E-2,-2.3861371E-2,1.5902715E-2,8.626231E-2,-9.014969E-2,-2.6717912E-3,-7.255079E-2,-2.5025725E-2,-1.0319882E-1,-3.291374E-2,-4.894428E-2,1.3859998E-1,-8.471107E-2,-3.3511873E-2,6.3611753E-3,2.9944707E-2,-5.2219875E-2,-6.1099376E-3,7.677604E-2,-2.1948306E-1,-7.7568375E-2,6.791537E-2,-3.0702522E-2,3.921033E-2,3.0907422E-2,-5.944685E-2,4.4139754E-2,1.5697712E-2,2.186388E-3,6.711647E-2],"categories":[],"categories_nodes":[],"categories_segments":[],"categories_sizes":[],"default_left":[0,0,0,0,0,0,0,0,0,0,0,0,0,0,0,0,0,0,0,0,0,0,0,0,0,0,0,0,0,0,0,0,0,0,0,0,0,0,0,0,0,0,0,0,0,0,0,0,0,0,0,0,0,0,0,0,0,0,0,0,0,0,0],"id":16,"left_children":[1,3,5,7,9,11,13,15,17,19,21,23,25,27,29,31,33,35,37,39,41,43,45,47,49,51,53,55,57,59,61,-1,-1,-1,-1,-1,-1,-1,-1,-1,-1,-1,-1,-1,-1,-1,-1,-1,-1,-1,-1,-1,-1,-1,-1,-1,-1,-1,-1,-1,-1,-1,-1],"loss_changes":[3.0849006E4,2.7078418E4,7.809871E3,1.0397168E4,4.810758E3,4.77583E3,4.656662E3,9.931738E3,1.0353655E4,4.7438613E3,2.0827246E3,5.2068926E3,1.4886843E3,2.3949968E3,2.580045E3,8.41285E3,4.9898203E3,1.099208E4,8.157677E3,3.5448135E3,1.5306211E3,1.7814932E3,8.476582E2,2.2594248E3,2.1358477E3,3.63527E2,1.0384116E3,2.125354E3,2.4395828E3,2.3295635E3,1.131041E3,0E0,0E0,0E0,0E0,0E0,0E0,0E0,0E0,0E0,0E0,0E0,0E0,0E0,0E0,0E0,0E0,0E0,0E0,0E0,0E0,0E0,0E0,0E0,0E0,0E0,0E0,0E0,0E0,0E0,0E0,0E0,0E0],"parents":[2147483647,0,0,1,1,2,2,3,3,4,4,5,5,6,6,7,7,8,8,9,9,10,10,11,11,12,12,13,13,14,14,15,15,16,16,17,17,18,18,19,19,20,20,21,21,22,22,23,23,24,24,25,25,26,26,27,27,28,28,29,29,30,30],"right_children":[2,4,6,8,10,12,14,16,18,20,22,24,26,28,30,32,34,36,38,40,42,44,46,48,50,52,54,56,58,60,62,-1,-1,-1,-1,-1,-1,-1,-1,-1,-1,-1,-1,-1,-1,-1,-1,-1,-1,-1,-1,-1,-1,-1,-1,-1,-1,-1,-1,-1,-1,-1,-1],"split_conditions":[6.4185953E-1,-2.8851398E-4,4.3231836E-1,-4.0601915E-1,1.4108144E0,1.6259749E0,-4.9208772E-1,3.346907E-1,1E0,1.2148286E0,-2.0856886E0,5.5472517E-1,-1.3838881E0,9.0126497E-1,1.4644582E0,5.4237023E-3,3.288699E-1,9.9479413E-1,3.851585E-3,-1.4013646E0,3.682094E-1,-2.3057232E0,5.700929E-1,3.526135E0,2.8330982E-3,1.0227051E0,5.5472517E-1,1.5774714E0,1.2148286E0,5.5472517E-1,1.8309653E-3,-4.6836402E-2,2.494976E-2,-8.135161E-2,-2.3861371E-2,1.5902715E-2,8.626231E-2,-9.014969E-2,-2.6717912E-3,-7.255079E-2,-2.5025725E-2,-1.0319882E-1,-3.291374E-2,-4.894428E-2,1.3859998E-1,-8.471107E-2,-3.3511873E-2,6.3611753E-3,2.9944707E-2,-5.2219875E-2,-6.1099376E-3,7.677604E-2,-2.1948306E-1,-7.7568375E-2,6.791537E-2,-3.0702522E-2,3.921033E-2,3.0907422E-2,-5.944685E-2,4.4139754E-2,1.5697712E-2,2.186388E-3,6.711647E-2],"split_indices":[7,6,0,12,6,12,13,4,15,4,4,4,6,5,1,20,1,4,20,11,1,4,8,19,20,5,4,1,4,4,20,0,0,0,0,0,0,0,0,0,0,0,0,0,0,0,0,0,0,0,0,0,0,0,0,0,0,0,0,0,0,0,0],"split_type":[0,0,0,0,0,0,0,0,0,0,0,0,0,0,0,0,0,0,0,0,0,0,0,0,0,0,0,0,0,0,0,0,0,0,0,0,0,0,0,0,0,0,0,0,0,0,0,0,0,0,0,0,0,0,0,0,0,0,0,0,0,0,0],"sum_hessian":[1.0560125E6,5.8921575E5,4.6679678E5,3.8820294E5,2.0101283E5,2.3260934E5,2.3418744E5,1.3553153E5,2.526714E5,1.586526E5,4.2360246E4,2.2177181E5,1.0837521E4,6.803282E4,1.6615462E5,7.5138766E4,6.0392766E4,1.5727481E5,9.53966E4,1.4143245E5,1.7220135E4,2.1726934E3,4.0187555E4,1.6266708E5,5.9104742E4,9.2103046E2,9.916491E3,2.4773934E4,4.3258887E4,1.2462034E5,4.153428E4,2.3973916E4,5.1164848E4,2.999784E4,3.0394924E4,1.30519805E5,2.6755008E4,1.2226592E4,8.317001E4,1.7979898E4,1.23452555E5,1.3166686E4,4.0534502E3,1.3706394E3,8.0205396E2,3.6638934E4,3.54862E3,7.869295E4,8.3974125E4,1.2830394E4,4.6274348E4,8.785156E2,4.2514835E1,9.399604E3,5.1688763E2,1.9149213E4,5.62472E3,4.003048E4,3.2284036E3,7.944807E4,4.5172273E4,2.882958E3,3.865132E4],"tree_param":{"num_deleted":"0","num_feature":"21","num_nodes":"63","size_leaf_vector":"1"}},{"base_weights":[-9.362718E-4,-3.7374553E-1,6.8830274E-2,-2.329218E-1,-5.9652483E-1,-8.681573E-3,2.9650062E-1,-2.8527042E-1,2.9598072E-1,-6.649096E-1,1.0950859E-1,-1.07778676E-1,1.9369657E-1,-8.379035E-1,3.215429E-1,-1.2933427E-1,-4.5522997E-1,5.012277E-1,-1.1781468E0,-7.4020565E-1,-2.1966682E-1,-5.91459E-1,3.5833445E-1,1.940442E-1,-1.7845517E-1,2.3178186E-1,-4.3405154E-1,-2.775179E0,-5.7992554E-1,4.9387968E-1,1.4368063E-1,1.2187127E-2,-3.939696E-2,-9.549622E-2,-3.882795E-2,1.4751158E-2,1.9108418E-1,-1.2779917E-1,1.5115015E-1,-8.0807835E-2,-4.4902913E-2,-1.1765801E-1,1.5891718E-2,-1.2215449E-1,6.876105E-2,-8.839412E-2,4.9491566E-2,-5.7246305E-2,2.9060995E-2,-1.2278154E-2,-4.5899536E-2,-2.3978658E-3,3.0130977E-2,-5.677343E-2,5.390965E-2,-2.3893526E-1,-3.0227834E-1,-9.057001E-2,1.52356075E-2,5.4672766E-2,-9.380475E-4,2.8009927E-2,-1.7908346E-2],"categories":[],"categories_nodes":[],"categories_segments":[],"categories_sizes":[],"default_left":[0,0,0,0,0,0,0,0,0,0,0,0,0,0,0,0,0,0,0,0,0,0,0,0,0,0,0,0,0,0,0,0,0,0,0,0,0,0,0,0,0,0,0,0,0,0,0,0,0,0,0,0,0,0,0,0,0,0,0,0,0,0,0],"id":17,"left_children":[1,3,5,7,9,11,13,15,17,19,21,23,25,27,29,31,33,35,37,39,41,43,45,47,49,51,53,55,57,59,61,-1,-1,-1,-1,-1,-1,-1,-1,-1,-1,-1,-1,-1,-1,-1,-1,-1,-1,-1,-1,-1,-1,-1,-1,-1,-1,-1,-1,-1,-1,-1,-1],"loss_changes":[2.7197234E4,5.171176E3,1.5544059E4,2.7963965E3,3.0824082E3,1.3178409E4,6.355635E3,2.4355708E3,2.7527993E3,1.9510938E3,9.836297E2,9.409771E3,5.1641514E3,2.4134128E3,6.70926E3,3.1862666E3,1.4708389E3,3.9812517E3,3.0056372E2,9.835039E2,3.0506953E3,1.1915765E3,7.065718E2,6.195171E3,5.5823604E3,3.6212822E3,1.6076394E3,4.7001465E1,1.0177394E3,2.9566934E3,4.7429614E3,0E0,0E0,0E0,0E0,0E0,0E0,0E0,0E0,0E0,0E0,0E0,0E0,0E0,0E0,0E0,0E0,0E0,0E0,0E0,0E0,0E0,0E0,0E0,0E0,0E0,0E0,0E0,0E0,0E0,0E0,0E0,0E0],"parents":[2147483647,0,0,1,1,2,2,3,3,4,4,5,5,6,6,7,7,8,8,9,9,10,10,11,11,12,12,13,13,14,14,15,15,16,16,17,17,18,18,19,19,20,20,21,21,22,22,23,23,24,24,25,25,26,26,27,27,28,28,29,29,30,30],"right_children":[2,4,6,8,10,12,14,16,18,20,22,24,26,28,30,32,34,36,38,40,42,44,46,48,50,52,54,56,58,60,62,-1,-1,-1,-1,-1,-1,-1,-1,-1,-1,-1,-1,-1,-1,-1,-1,-1,-1,-1,-1,-1,-1,-1,-1,-1,-1,-1,-1,-1,-1,-1,-1],"split_conditions":[-6.0932636E-1,4.6389564E-3,8.638311E-1,-1.05378285E-1,1.0240495E0,8.865583E-1,-2.3057232E0,3.176464E-1,5.5124685E-3,5.60643E-1,3.4646514E-1,-8.7549895E-1,1E0,-2.9658265E0,4.6389564E-3,2.2472392E-1,4.265055E-3,5.3045675E-3,9.0126497E-1,3.6581042E0,1E0,3.9820597E0,3.2769367E-3,-2.3057232E0,5.2971864E-1,-4.8345628E-1,3.808731E0,8.627958E-1,2.7366443E0,1.910908E0,1E0,1.2187127E-2,-3.939696E-2,-9.549622E-2,-3.882795E-2,1.4751158E-2,1.9108418E-1,-1.2779917E-1,1.5115015E-1,-8.0807835E-2,-4.4902913E-2,-1.1765801E-1,1.5891718E-2,-1.2215449E-1,6.876105E-2,-8.839412E-2,4.9491566E-2,-5.7246305E-2,2.9060995E-2,-1.2278154E-2,-4.5899536E-2,-2.3978658E-3,3.0130977E-2,-5.677343E-2,5.390965E-2,-2.3893526E-1,-3.0227834E-1,-9.057001E-2,1.52356075E-2,5.4672766E-2,-9.380475E-4,2.8009927E-2,-1.7908346E-2],"split_indices":[0,4,5,4,1,8,4,10,20,5,9,4,18,4,4,12,20,20,5,19,16,19,20,4,6,13,19,1,0,12,15,0,0,0,0,0,0,0,0,0,0,0,0,0,0,0,0,0,0,0,0,0,0,0,0,0,0,0,0,0,0,0,0],"split_type":[0,0,0,0,0,0,0,0,0,0,0,0,0,0,0,0,0,0,0,0,0,0,0,0,0,0,0,0,0,0,0,0,0,0,0,0,0,0,0,0,0,0,0,0,0,0,0,0,0,0,0,0,0,0,0,0,0,0,0,0,0,0,0],"sum_hessian":[1.0456587E6,1.6483434E5,8.808244E5,1.00995125E5,6.3839223E4,6.5710844E5,2.2371589E5,9.189972E4,9.095401E3,5.820197E4,5.6372534E3,4.4111244E5,2.15996E5,4.831223E3,2.1888467E5,4.792802E4,4.39717E4,7.9843745E3,1.111027E3,4.978248E4,8.41949E3,1.4764808E3,4.1607725E3,8.369453E4,3.574179E5,2.0364175E5,1.2354255E4,5.6660065E2,4.2646226E3,1.1116823E5,1.07716445E5,2.4588184E4,2.3339836E4,5.193452E3,3.877825E4,6.383628E3,1.6007465E3,1.0717659E3,3.9261124E1,4.0370434E4,9.412047E3,2.386142E3,6.0333477E3,9.8922235E2,4.8725845E2,4.1159894E2,3.7491736E3,9.36369E3,7.433084E4,2.9823428E5,5.9183625E4,4.3526996E4,1.6011475E5,1.0862478E4,1.491778E3,2.2564395E2,3.4095673E2,2.9513853E3,1.3132374E3,1.0060363E5,1.0564598E4,7.571505E4,3.2001396E4],"tree_param":{"num_deleted":"0","num_feature":"21","num_nodes":"63","size_leaf_vector":"1"}},{"base_weights":[-9.039533E-4,-1.6077651E-1,1.3896582E-1,-5.282838E-1,-1.0373797E-1,-3.4708214E-1,1.6481066E-1,-6.4407384E-1,-1.8891412E-1,-6.4445186E-1,-6.741306E-2,1.3651103E-1,-4.7537884E-1,2.643158E-1,2.6456024E-2,-8.244531E-1,-3.2962292E-1,-1.0856769E0,-5.308049E-2,-7.7190334E-1,3.8424495E-1,2.4221061E-1,-1.2016194E-1,3.5712725E-1,-5.6340843E-1,-3.818106E-1,-1.3511307E0,-4.9640322E-1,2.9048076E-1,1.3329196E-1,-2.561609E-1,-8.2949065E-2,3.5006425E-1,6.1743534E-3,-5.3920556E-2,1.95622E-1,-1.2799291E-1,-2.0539692E-2,5.851989E-2,-9.375035E-2,-4.802469E-2,-1.4518788E-1,6.470785E-2,4.6926957E-2,-3.3721426E-3,-1.77345E-2,1.8415906E-2,7.857514E-2,4.561869E-3,-1.2966658E-1,-6.1706332E-3,1.834883E-2,-4.8882104E-2,-1.46329E-1,7.249336E-2,-2.8928196E-2,-1.2809864E-1,5.5661917E-2,2.3190418E-2,-5.1600817E-3,3.772298E-2,-7.770019E-2,1.4323671E-4],"categories":[],"categories_nodes":[],"categories_segments":[],"categories_sizes":[],"default_left":[0,0,0,0,0,0,0,0,0,0,0,0,0,0,0,0,0,0,0,0,0,0,0,0,0,0,0,0,0,0,0,0,0,0,0,0,0,0,0,0,0,0,0,0,0,0,0,0,0,0,0,0,0,0,0,0,0,0,0,0,0,0,0],"id":18,"left_children":[1,3,5,7,9,11,13,15,17,19,21,23,25,27,29,31,33,35,37,39,41,43,45,47,49,51,53,55,57,59,61,-1,-1,-1,-1,-1,-1,-1,-1,-1,-1,-1,-1,-1,-1,-1,-1,-1,-1,-1,-1,-1,-1,-1,-1,-1,-1,-1,-1,-1,-1,-1,-1],"loss_changes":[2.3191773E4,1.0144809E4,6.9489414E3,2.5549238E3,8.22857E3,1.7328999E3,7.2310527E3,2.7495137E3,2.0149828E3,3.4579736E3,6.411619E3,9.045732E2,1.808251E3,6.081205E3,6.6344844E3,6.7411523E2,1.449706E3,1.2883103E3,1.3969232E3,1.1328994E3,1.4042898E3,3.5803171E3,5.837135E3,5.9463324E2,5.164324E2,1.2065737E3,4.971162E2,1.6505403E3,4.6043594E3,7.191753E3,8.087125E3,0E0,0E0,0E0,0E0,0E0,0E0,0E0,0E0,0E0,0E0,0E0,0E0,0E0,0E0,0E0,0E0,0E0,0E0,0E0,0E0,0E0,0E0,0E0,0E0,0E0,0E0,0E0,0E0,0E0,0E0,0E0,0E0],"parents":[2147483647,0,0,1,1,2,2,3,3,4,4,5,5,6,6,7,7,8,8,9,9,10,10,11,11,12,12,13,13,14,14,15,15,16,16,17,17,18,18,19,19,20,20,21,21,22,22,23,23,24,24,25,25,26,26,27,27,28,28,29,29,30,30],"right_children":[2,4,6,8,10,12,14,16,18,20,22,24,26,28,30,32,34,36,38,40,42,44,46,48,50,52,54,56,58,60,62,-1,-1,-1,-1,-1,-1,-1,-1,-1,-1,-1,-1,-1,-1,-1,-1,-1,-1,-1,-1,-1,-1,-1,-1,-1,-1,-1,-1,-1,-1,-1,-1],"split_conditions":[-1.557642E-2,-8.2880026E-1,-1.8529586E0,1.5919466E-1,2.8027296E-3,3.0596927E-3,3.346907E-1,-2.4175939E-1,2.8045874E0,1.4644582E0,-1.1435965E0,-4.3543E-1,4.568962E0,-2.3057232E0,1E0,2.4158154E-1,1.0813304E-1,-1.1624286E0,7.97196E-1,2.8442633E0,-4.9308035E-1,6.4492E-3,1.11505E0,-1.1121222E0,7.932857E-1,1.6909325E-1,2.1080477E0,3.4980863E-2,-1.0955335E0,-4.092612E-1,2.4438744E0,-8.2949065E-2,3.5006425E-1,6.1743534E-3,-5.3920556E-2,1.95622E-1,-1.2799291E-1,-2.0539692E-2,5.851989E-2,-9.375035E-2,-4.802469E-2,-1.4518788E-1,6.470785E-2,4.6926957E-2,-3.3721426E-3,-1.77345E-2,1.8415906E-2,7.857514E-2,4.561869E-3,-1.2966658E-1,-6.1706332E-3,1.834883E-2,-4.8882104E-2,-1.46329E-1,7.249336E-2,-2.8928196E-2,-1.2809864E-1,5.5661917E-2,2.3190418E-2,-5.1600817E-3,3.772298E-2,-7.770019E-2,1.4323671E-4],"split_indices":[0,0,10,1,20,20,4,12,19,1,6,4,12,4,15,3,12,7,11,19,13,20,1,6,2,2,7,20,4,12,19,0,0,0,0,0,0,0,0,0,0,0,0,0,0,0,0,0,0,0,0,0,0,0,0,0,0,0,0,0,0,0,0],"split_type":[0,0,0,0,0,0,0,0,0,0,0,0,0,0,0,0,0,0,0,0,0,0,0,0,0,0,0,0,0,0,0,0,0,0,0,0,0,0,0,0,0,0,0,0,0,0,0,0,0,0,0,0,0,0,0,0,0,0,0,0,0,0,0],"sum_hessian":[1.03713506E6,4.8396175E5,5.531733E5,6.5020082E4,4.1894166E5,2.7928414E4,5.252449E5,4.8478668E4,1.6541412E4,2.6371557E4,3.925701E5,5.8558164E3,2.2072598E4,3.0551588E5,2.1972905E5,3.0805824E4,1.7672846E4,2.1750317E3,1.4366381E4,2.346463E4,2.9069258E3,5.7144074E4,3.3542603E5,4.45278E3,1.4030366E3,1.9943232E4,2.129365E3,1.0158214E4,2.9535766E5,1.5945267E5,6.0276375E4,3.0770793E4,3.5031055E1,6.163699E3,1.1509146E4,1.3001341E2,2.0450184E3,1.1599097E4,2.7672837E3,1.4965262E4,8.499369E3,3.6344177E2,2.5434841E3,3.1347854E4,2.5796223E4,2.8236838E5,5.305765E4,1.8734542E3,2.5793254E3,5.693397E2,8.336969E2,3.17422E3,1.6769014E4,2.0205027E3,1.0886241E2,8.037715E3,2.120499E3,5.3279168E4,2.4207848E5,9.070419E4,6.8748484E4,1.994551E4,4.0330867E4],"tree_param":{"num_deleted":"0","num_feature":"21","num_nodes":"63","size_leaf_vector":"1"}},{"base_weights":[-8.9435495E-4,-1.4403573E-1,1.3781863E-1,-3.1253445E-1,6.8814866E-2,-1.351162E-1,1.9311184E-1,-4.6076867E-1,-1.4878865E-1,2.2987159E-1,-1.532921E-1,8.135879E-3,-3.9505625E-1,2.404838E-2,2.8259453E-1,-6.713817E-1,-2.8515756E-1,-1.8250307E-1,1.4445008E0,-6.9228984E-2,6.970953E-1,8.489636E-2,-4.5399132E-1,-3.6510655E-1,1.043934E-1,-5.695486E-1,7.389309E-3,-1.8693392E-1,1.6596387E-1,1.9286437E-1,5.16493E-1,-1.0026812E-1,-5.3858645E-2,-3.0654341E-2,1.7441393E-1,-9.527254E-3,-4.3786135E-2,-9.077698E-2,2.068965E-1,-4.7606044E-2,3.2913215E-2,5.0109584E-2,1.16087034E-1,4.7723178E-2,-1.1051049E-2,-3.1168848E-2,-9.531244E-2,-1.2355908E-1,-2.3508387E-2,8.47888E-2,6.4327302E-3,-1.0087581E-1,-3.8302727E-2,-5.8544196E-2,1.609808E-2,-3.6696263E-2,1.8218527E-2,8.543601E-2,5.5819033E-3,2.250726E-2,-3.348621E-2,6.1842036E-2,2.948506E-2],"categories":[],"categories_nodes":[],"categories_segments":[],"categories_sizes":[],"default_left":[0,0,0,0,0,0,0,0,0,0,0,0,0,0,0,0,0,0,0,0,0,0,0,0,0,0,0,0,0,0,0,0,0,0,0,0,0,0,0,0,0,0,0,0,0,0,0,0,0,0,0,0,0,0,0,0,0,0,0,0,0,0,0],"id":19,"left_children":[1,3,5,7,9,11,13,15,17,19,21,23,25,27,29,31,33,35,37,39,41,43,45,47,49,51,53,55,57,59,61,-1,-1,-1,-1,-1,-1,-1,-1,-1,-1,-1,-1,-1,-1,-1,-1,-1,-1,-1,-1,-1,-1,-1,-1,-1,-1,-1,-1,-1,-1,-1,-1],"loss_changes":[2.044091E4,1.8171143E4,7.890249E3,6.86399E3,8.0080815E3,3.2796836E3,6.577041E3,5.489422E3,7.2179727E3,1.8134602E4,6.739665E3,2.0401395E3,2.1975107E3,4.5053135E3,5.9663984E3,2.9684941E3,3.5131606E3,2.9309624E3,4.0919258E3,1.2822678E4,4.6033887E3,4.025565E3,2.9538818E3,1.3174006E3,1.3447026E3,1.7878511E3,8.619557E2,4.0211099E3,6.820959E3,3.4923867E3,1.7804941E3,0E0,0E0,0E0,0E0,0E0,0E0,0E0,0E0,0E0,0E0,0E0,0E0,0E0,0E0,0E0,0E0,0E0,0E0,0E0,0E0,0E0,0E0,0E0,0E0,0E0,0E0,0E0,0E0,0E0,0E0,0E0,0E0],"parents":[2147483647,0,0,1,1,2,2,3,3,4,4,5,5,6,6,7,7,8,8,9,9,10,10,11,11,12,12,13,13,14,14,15,15,16,16,17,17,18,18,19,19,20,20,21,21,22,22,23,23,24,24,25,25,26,26,27,27,28,28,29,29,30,30],"right_children":[2,4,6,8,10,12,14,16,18,20,22,24,26,28,30,32,34,36,38,40,42,44,46,48,50,52,54,56,58,60,62,-1,-1,-1,-1,-1,-1,-1,-1,-1,-1,-1,-1,-1,-1,-1,-1,-1,-1,-1,-1,-1,-1,-1,-1,-1,-1,-1,-1,-1,-1,-1,-1],"split_conditions":[4.916896E-1,5.9906816E-1,4.853806E-1,-3.6687553E-1,6.3230544E-3,2.2467344E-1,-4.868965E-1,-4.5439965E-1,4.1839543E-1,5.180761E-3,-3.2541275E-1,4.101537E-3,1.1451286E0,5.180761E-3,1.0964538E0,4.7112256E-3,9.84033E-1,4.6389564E-3,3.4381151E-3,-3.6051148E-1,8.847769E-1,1E0,4.5804217E-1,-5.976758E-1,-1.5589377E0,4.38419E-3,-4.1643205E-1,3.526135E0,5.5124685E-3,1E0,7.7475965E-1,-1.0026812E-1,-5.3858645E-2,-3.0654341E-2,1.7441393E-1,-9.527254E-3,-4.3786135E-2,-9.077698E-2,2.068965E-1,-4.7606044E-2,3.2913215E-2,5.0109584E-2,1.16087034E-1,4.7723178E-2,-1.1051049E-2,-3.1168848E-2,-9.531244E-2,-1.2355908E-1,-2.3508387E-2,8.47888E-2,6.4327302E-3,-1.0087581E-1,-3.8302727E-2,-5.8544196E-2,1.609808E-2,-3.6696263E-2,1.8218527E-2,8.543601E-2,5.5819033E-3,2.250726E-2,-3.348621E-2,6.1842036E-2,2.948506E-2],"split_indices":[8,5,1,12,20,4,13,7,10,20,4,20,9,20,0,20,7,4,20,12,4,15,10,0,6,20,13,19,20,18,4,0,0,0,0,0,0,0,0,0,0,0,0,0,0,0,0,0,0,0,0,0,0,0,0,0,0,0,0,0,0,0,0],"split_type":[0,0,0,0,0,0,0,0,0,0,0,0,0,0,0,0,0,0,0,0,0,0,0,0,0,0,0,0,0,0,0,0,0,0,0,0,0,0,0,0,0,0,0,0,0,0,0,0,0,0,0,0,0,0,0,0,0,0,0,0,0,0,0],"sum_hessian":[1.0294781E6,5.0665166E5,5.2282647E5,2.82788E5,2.2386366E5,8.807496E4,4.347515E5,1.4842312E5,1.3436486E5,1.2976613E5,9.409752E4,5.6783008E4,3.1291957E4,1.5046772E5,2.8428378E5,6.748478E4,8.093835E4,1.3158145E5,2.7834126E3,7.911822E4,5.0647914E4,5.25068E4,4.1590723E4,1.1641157E4,4.514185E4,2.182755E4,9.464405E3,6.0509457E4,8.995826E4,2.0546381E5,7.881998E4,1.9308111E4,4.8176668E4,8.009511E4,8.4323773E2,9.807899E4,3.350246E4,5.838136E2,2.199599E3,3.9142867E4,3.997535E4,3.5603383E4,1.5044531E4,1.7456473E4,3.505033E4,3.2365066E4,9.225657E3,1.5117428E3,1.0129414E4,2.307224E3,4.2834625E4,6.505164E3,1.5322388E4,1.9469131E3,7.5174927E3,4.0672477E4,1.9836982E4,1.2407243E4,7.755101E4,1.936458E5,1.1818022E4,5.3989758E4,2.4830219E4],"tree_param":{"num_deleted":"0","num_feature":"21","num_nodes":"63","size_leaf_vector":"1"}},{"base_weights":[-8.3939487E-4,8.3648376E-2,-2.063712E-1,3.7646063E-2,3.374236E-1,-3.4512863E-1,1.05070636E-1,7.055814E-2,-3.55776E-1,5.3293396E-2,4.4708383E-1,-2.878966E-1,-7.5063115E-1,-2.9191247E-1,2.1493405E-1,3.107283E-2,5.000386E-1,-1.0392383E0,-2.0847763E-1,-1.5228608E-1,3.2148194E-1,1.1406676E0,3.8831556E-1,-8.6466485E-1,-2.475517E-1,1.23345904E-1,-8.004586E-1,1.903341E0,-3.544717E-1,1.5530677E0,1.9292344E-1,1.1403994E-2,-2.9597396E-2,-4.7900405E-2,8.4548764E-2,-5.5738576E-2,-1.192732E-1,-1.0678735E-1,-1.0516E-2,6.6012517E-3,-4.421488E-2,7.759716E-2,1.7192706E-2,1.2337833E-1,-3.0315787E-2,9.130316E-3,5.0145824E-2,-1.1053377E-1,-6.509321E-2,-6.627158E-2,-1.9824747E-2,-5.9156626E-2,1.6527872E-1,-8.4711164E-2,-3.8021996E-3,-1.548944E-1,2.1055627E-1,-6.65481E-2,-6.458079E-3,1.920318E-1,-3.674802E-2,-1.710517E-2,2.726912E-2],"categories":[],"categories_nodes":[],"categories_segments":[],"categories_sizes":[],"default_left":[0,0,0,0,0,0,0,0,0,0,0,0,0,0,0,0,0,0,0,0,0,0,0,0,0,0,0,0,0,0,0,0,0,0,0,0,0,0,0,0,0,0,0,0,0,0,0,0,0,0,0,0,0,0,0,0,0,0,0,0,0,0,0],"id":20,"left_children":[1,3,5,7,9,11,13,15,17,19,21,23,25,27,29,31,33,35,37,39,41,43,45,47,49,51,53,55,57,59,61,-1,-1,-1,-1,-1,-1,-1,-1,-1,-1,-1,-1,-1,-1,-1,-1,-1,-1,-1,-1,-1,-1,-1,-1,-1,-1,-1,-1,-1,-1,-1,-1],"loss_changes":[1.771897E4,8.442003E3,1.2845959E4,7.9265366E3,3.4574912E3,4.7721914E3,3.995941E3,9.579782E3,4.7573765E3,1.7038444E3,3.2631084E3,4.19313E3,1.107665E3,2.7280786E3,2.113276E3,1.4037748E4,1.6086728E4,6.190449E2,3.4520808E3,1.1069894E3,9.113451E2,8.4113477E2,2.4804385E3,6.052871E2,3.4474482E3,1.5018698E3,8.558379E2,3.8753015E2,1.7409487E3,8.196748E2,2.0498247E3,0E0,0E0,0E0,0E0,0E0,0E0,0E0,0E0,0E0,0E0,0E0,0E0,0E0,0E0,0E0,0E0,0E0,0E0,0E0,0E0,0E0,0E0,0E0,0E0,0E0,0E0,0E0,0E0,0E0,0E0,0E0,0E0],"parents":[2147483647,0,0,1,1,2,2,3,3,4,4,5,5,6,6,7,7,8,8,9,9,10,10,11,11,12,12,13,13,14,14,15,15,16,16,17,17,18,18,19,19,20,20,21,21,22,22,23,23,24,24,25,25,26,26,27,27,28,28,29,29,30,30],"right_children":[2,4,6,8,10,12,14,16,18,20,22,24,26,28,30,32,34,36,38,40,42,44,46,48,50,52,54,56,58,60,62,-1,-1,-1,-1,-1,-1,-1,-1,-1,-1,-1,-1,-1,-1,-1,-1,-1,-1,-1,-1,-1,-1,-1,-1,-1,-1,-1,-1,-1,-1,-1,-1],"split_conditions":[9.508785E-3,1.3463072E0,8.053163E-1,1.2148286E0,1.3354088E0,1.7591038E0,3.01504E0,9.9479413E-1,-1.5485065E-1,-3.580945E-1,1.1723484E0,2.548106E-3,-2.0856886E0,2.6385286E-1,3.9315188E-1,3.346907E-1,-4.1442433E-1,2.2304133E-3,-1.24575E0,4.4696844E-1,5.912938E-1,1.1834962E0,-4.9308035E-1,-3.4775716E-1,-1.5142591E0,5.768729E-1,9.6852325E-2,5.8928174E-1,-1.8919516E-1,4.659387E-1,4.0735728E-1,1.1403994E-2,-2.9597396E-2,-4.7900405E-2,8.4548764E-2,-5.5738576E-2,-1.192732E-1,-1.0678735E-1,-1.0516E-2,6.6012517E-3,-4.421488E-2,7.759716E-2,1.7192706E-2,1.2337833E-1,-3.0315787E-2,9.130316E-3,5.0145824E-2,-1.1053377E-1,-6.509321E-2,-6.627158E-2,-1.9824747E-2,-5.9156626E-2,1.6527872E-1,-8.4711164E-2,-3.8021996E-3,-1.548944E-1,2.1055627E-1,-6.65481E-2,-6.458079E-3,1.920318E-1,-3.674802E-2,-1.710517E-2,2.726912E-2],"split_indices":[6,8,7,4,1,6,19,4,7,13,7,20,4,8,8,4,12,20,6,10,1,11,13,0,7,9,1,11,13,1,1,0,0,0,0,0,0,0,0,0,0,0,0,0,0,0,0,0,0,0,0,0,0,0,0,0,0,0,0,0,0,0,0],"split_type":[0,0,0,0,0,0,0,0,0,0,0,0,0,0,0,0,0,0,0,0,0,0,0,0,0,0,0,0,0,0,0,0,0,0,0,0,0,0,0,0,0,0,0,0,0,0,0,0,0,0,0,0,0,0,0,0,0,0,0,0,0,0,0],"sum_hessian":[1.02038644E6,7.2313044E5,2.97256E5,6.1216356E5,1.1096691E5,2.0563766E5,9.1618336E4,5.649066E5,4.725694E4,3.0901773E4,8.006513E4,1.8020544E5,2.5432215E4,1.9858717E4,7.1759625E4,5.173444E5,4.756221E4,8.377838E3,3.8879105E4,1.7492986E4,1.3408787E4,6.2526704E3,7.381247E4,1.1779931E4,1.684255E5,1.3716632E3,2.406055E4,5.4942816E2,1.930929E4,1.1601284E3,7.059949E4,4.1265928E5,1.0468512E5,1.2404899E4,3.515731E4,2.0251257E3,6.3527124E3,4.171472E3,3.4707633E4,9.978697E3,7.5142886E3,3.3188333E3,1.0089954E4,5.8739883E3,3.7868182E2,2.0361914E4,5.345055E4,5.5388105E3,6.24112E3,1.7877377E4,1.5054812E5,9.3515405E2,4.3650916E2,2.2673086E4,1.3874648E3,3.0034016E1,5.1939417E2,9.314713E3,9.994577E3,9.738982E2,1.8623029E2,1.2690843E4,5.7908652E4],"tree_param":{"num_deleted":"0","num_feature":"21","num_nodes":"63","size_leaf_vector":"1"}},{"base_weights":[-8.046782E-4,-1.01963654E-1,1.5314911E-1,1.9578628E-1,-1.6206597E-1,-3.532064E-1,1.797325E-1,3.354504E-1,-9.267897E-2,-3.225672E-1,-3.4692563E-2,1.1774496E-1,-4.7297683E-1,-3.2597312E-1,2.0283566E-1,2.2566476E-1,9.4715834E-1,1.2690137E-1,-6.107938E-1,-6.034471E-1,-1.964804E-1,-3.0345732E-1,4.180001E-2,1.1718432E0,-1.3346627E-2,8.0614954E-1,-5.231184E-1,-6.580217E-1,1.7496852E-2,1.3368824E-1,3.5993618E-1,5.9597082E-2,-7.8020133E-3,1.0304754E-1,-6.818248E-2,-2.2964414E-2,6.0393106E-2,-1.3380288E-2,-9.3253195E-2,-8.380105E-2,-2.8979102E-2,1.3903858E-2,-3.8596462E-2,-9.034179E-3,-5.1208504E-2,-3.4684982E-2,8.267352E-3,-1.4326422E-1,1.5915275E-1,2.491518E-2,-5.8771748E-2,-2.2512455E-1,1.0597793E-1,-6.8466745E-2,-1.857921E-2,4.9745175E-1,-6.7667864E-2,-4.371966E-2,2.269384E-2,3.2003887E-2,6.390769E-3,1.4675801E-2,4.525253E-2],"categories":[],"categories_nodes":[],"categories_segments":[],"categories_sizes":[],"default_left":[0,0,0,0,0,0,0,0,0,0,0,0,0,0,0,0,0,0,0,0,0,0,0,0,0,0,0,0,0,0,0,0,0,0,0,0,0,0,0,0,0,0,0,0,0,0,0,0,0,0,0,0,0,0,0,0,0,0,0,0,0,0,0],"id":21,"left_children":[1,3,5,7,9,11,13,15,17,19,21,23,25,27,29,31,33,35,37,39,41,43,45,47,49,51,53,55,57,59,61,-1,-1,-1,-1,-1,-1,-1,-1,-1,-1,-1,-1,-1,-1,-1,-1,-1,-1,-1,-1,-1,-1,-1,-1,-1,-1,-1,-1,-1,-1,-1,-1],"loss_changes":[1.5768742E4,1.0934643E4,5.404376E3,4.134581E3,1.0393586E4,1.129697E3,4.4568604E3,4.6434346E3,3.8088877E3,7.966506E3,5.8274424E3,5.612225E2,1.02448E3,1.9007684E3,3.962794E3,6.592924E3,1.4286758E3,3.9995366E3,1.5292244E3,5.127256E3,9.870574E3,2.7921758E3,3.5052632E3,4.933119E2,5.4489764E2,4.6972684E2,8.3718164E2,8.93865E2,7.8034894E2,3.2939082E3,2.2005547E3,0E0,0E0,0E0,0E0,0E0,0E0,0E0,0E0,0E0,0E0,0E0,0E0,0E0,0E0,0E0,0E0,0E0,0E0,0E0,0E0,0E0,0E0,0E0,0E0,0E0,0E0,0E0,0E0,0E0,0E0,0E0,0E0],"parents":[2147483647,0,0,1,1,2,2,3,3,4,4,5,5,6,6,7,7,8,8,9,9,10,10,11,11,12,12,13,13,14,14,15,15,16,16,17,17,18,18,19,19,20,20,21,21,22,22,23,23,24,24,25,25,26,26,27,27,28,28,29,29,30,30],"right_children":[2,4,6,8,10,12,14,16,18,20,22,24,26,28,30,32,34,36,38,40,42,44,46,48,50,52,54,56,58,60,62,-1,-1,-1,-1,-1,-1,-1,-1,-1,-1,-1,-1,-1,-1,-1,-1,-1,-1,-1,-1,-1,-1,-1,-1,-1,-1,-1,-1,-1,-1,-1,-1],"split_conditions":[3.1543285E-1,-1.0669383E0,-1.8529586E0,4.6389564E-3,2.9331117E0,3.0596927E-3,1.8309653E-3,-1.05378285E-1,1E0,4.7112256E-3,1.5919466E-1,-8.229419E-1,-3.884886E-1,1.1451286E0,1.1858325E0,1E0,5.5124685E-3,9.9479413E-1,3.346907E-1,-3.6051148E-1,6.5309554E-3,2.5298485E-1,8.976199E-2,-3.7596776E0,-4.6195439E-1,-4.8597693E-1,8.9229107E-1,-2.4600122E0,4.3896043E-1,6.23367E-1,1.1937224E0,5.9597082E-2,-7.8020133E-3,1.0304754E-1,-6.818248E-2,-2.2964414E-2,6.0393106E-2,-1.3380288E-2,-9.3253195E-2,-8.380105E-2,-2.8979102E-2,1.3903858E-2,-3.8596462E-2,-9.034179E-3,-5.1208504E-2,-3.4684982E-2,8.267352E-3,-1.4326422E-1,1.5915275E-1,2.491518E-2,-5.8771748E-2,-2.2512455E-1,1.0597793E-1,-6.8466745E-2,-1.857921E-2,4.9745175E-1,-6.7667864E-2,-4.371966E-2,2.269384E-2,3.2003887E-2,6.390769E-3,1.4675801E-2,4.525253E-2],"split_indices":[0,6,10,4,19,20,20,4,15,20,1,1,12,9,1,15,20,4,4,12,20,10,8,10,13,6,5,7,10,2,8,0,0,0,0,0,0,0,0,0,0,0,0,0,0,0,0,0,0,0,0,0,0,0,0,0,0,0,0,0,0,0,0],"split_type":[0,0,0,0,0,0,0,0,0,0,0,0,0,0,0,0,0,0,0,0,0,0,0,0,0,0,0,0,0,0,0,0,0,0,0,0,0,0,0,0,0,0,0,0,0,0,0,0,0,0,0,0,0,0,0,0,0,0,0,0,0,0,0],"sum_hessian":[1.0125148E6,6.1102606E5,4.0148878E5,1.0262321E5,5.0840284E5,2.0025947E4,3.814628E5,6.9145414E4,3.3477797E4,2.2494795E5,2.8345488E5,4.0603188E3,1.5965629E4,1.6665182E4,3.6479766E5,5.86251E4,1.0520311E4,2.3513418E4,9.96438E3,6.969241E4,1.5525555E5,6.279944E4,2.2065544E5,4.48226E2,3.6120928E3,6.016737E2,1.5363955E4,8.47301E3,8.192172E3,2.53307E5,1.1149064E5,2.6414697E4,3.2210404E4,1.0008764E4,5.1154715E2,1.3456311E4,1.0057108E4,4.014348E3,5.9500317E3,3.9872574E4,2.981983E4,5.6034953E4,9.92206E4,3.10663E4,3.1733139E4,2.0996896E4,1.9965855E5,6.186838E1,3.8635764E2,2.4794863E3,1.1326063E3,4.5485832E1,5.561879E2,1.0388004E4,4.975951E3,2.7095945E1,8.445914E3,2.5831396E3,5.609032E3,6.901015E4,1.8429684E5,3.376117E4,7.772947E4],"tree_param":{"num_deleted":"0","num_feature":"21","num_nodes":"63","size_leaf_vector":"1"}},{"base_weights":[-7.638023E-4,-3.2522976E-1,4.154982E-2,-2.1077088E-1,-5.239293E-1,-1.4026905E-2,2.1676914E-1,-2.5542864E-1,2.2275166E-1,-7.7950823E-1,-3.603924E-1,-7.520988E-2,1.5954207E-1,-7.4283504E-1,2.39287E-1,-1.3779983E-1,-4.0128857E-1,1.0221812E-2,9.887102E-1,-8.15027E-1,8.3249557E-1,-9.726539E-1,-2.8273344E-1,1.6593032E-1,-1.3323063E-1,-2.1457502E-3,3.257703E-1,-2.3385248E0,-5.2037895E-1,3.833548E-1,9.361211E-2,-1.3632484E-3,-5.8026522E-2,-1.2189716E-1,-3.3746444E-2,2.2747224E-2,-9.7927436E-2,1.2419976E-1,-1.491482E-1,-8.239984E-2,2.3504066E-1,-1.5094104E-1,1.7712456E-1,3.758233E-1,-1.0291181E-1,-3.5395153E-2,4.5291305E-2,-5.115339E-2,2.5124429E-2,-5.1884647E-3,-2.857538E-2,4.244457E-3,-6.4640485E-2,4.384083E-2,6.307357E-3,-2.0560868E-1,-2.522181E-1,-1.5095346E-1,-3.129804E-2,3.2323044E-2,7.298989E-2,-5.4919706E-3,3.067549E-2],"categories":[],"categories_nodes":[],"categories_segments":[],"categories_sizes":[],"default_left":[0,0,0,0,0,0,0,0,0,0,0,0,0,0,0,0,0,0,0,0,0,0,0,0,0,0,0,0,0,0,0,0,0,0,0,0,0,0,0,0,0,0,0,0,0,0,0,0,0,0,0,0,0,0,0,0,0,0,0,0,0,0,0],"id":22,"left_children":[1,3,5,7,9,11,13,15,17,19,21,23,25,27,29,31,33,35,37,39,41,43,45,47,49,51,53,55,57,59,61,-1,-1,-1,-1,-1,-1,-1,-1,-1,-1,-1,-1,-1,-1,-1,-1,-1,-1,-1,-1,-1,-1,-1,-1,-1,-1,-1,-1,-1,-1,-1,-1],"loss_changes":[1.3793866E4,2.6359648E3,8.655173E3,1.4239033E3,1.7703633E3,7.1656934E3,4.6248887E3,1.1439468E3,1.1181874E3,9.470762E2,1.2281279E3,6.9802773E3,4.7267124E3,1.7407559E3,4.388758E3,2.0279354E3,1.5530176E3,1.1563329E3,9.390978E2,4.6122754E2,7.871821E2,7.805779E2,1.2014188E3,5.5926196E3,4.989467E3,2.5611187E3,2.5658223E3,2.5944824E1,8.833567E2,2.190414E3,3.291894E3,0E0,0E0,0E0,0E0,0E0,0E0,0E0,0E0,0E0,0E0,0E0,0E0,0E0,0E0,0E0,0E0,0E0,0E0,0E0,0E0,0E0,0E0,0E0,0E0,0E0,0E0,0E0,0E0,0E0,0E0,0E0,0E0],"parents":[2147483647,0,0,1,1,2,2,3,3,4,4,5,5,6,6,7,7,8,8,9,9,10,10,11,11,12,12,13,13,14,14,15,15,16,16,17,17,18,18,19,19,20,20,21,21,22,22,23,23,24,24,25,25,26,26,27,27,28,28,29,29,30,30],"right_children":[2,4,6,8,10,12,14,16,18,20,22,24,26,28,30,32,34,36,38,40,42,44,46,48,50,52,54,56,58,60,62,-1,-1,-1,-1,-1,-1,-1,-1,-1,-1,-1,-1,-1,-1,-1,-1,-1,-1,-1,-1,-1,-1,-1,-1,-1,-1,-1,-1,-1,-1,-1,-1],"split_conditions":[-6.778586E-1,4.6389564E-3,8.638311E-1,8.2985026E-1,-9.4332695E-1,9.8746985E-1,-2.3057232E0,3.4582394E-1,-7.248649E-1,1.0879453E0,2.8330982E-3,-8.7549895E-1,-4.427799E-1,-2.9658265E0,4.6389564E-3,1.8245755E0,3.4381151E-3,-7.833736E-1,1E0,2.4158154E-1,-4.0986153E-1,-1.696539E0,2.2472392E-1,-2.3057232E0,1E0,1E0,-3.84286E-1,8.695948E-1,6.1062473E-1,-1.05378285E-1,-1.0525753E0,-1.3632484E-3,-5.8026522E-2,-1.2189716E-1,-3.3746444E-2,2.2747224E-2,-9.7927436E-2,1.2419976E-1,-1.491482E-1,-8.239984E-2,2.3504066E-1,-1.5094104E-1,1.7712456E-1,3.758233E-1,-1.0291181E-1,-3.5395153E-2,4.5291305E-2,-5.115339E-2,2.5124429E-2,-5.1884647E-3,-2.857538E-2,4.244457E-3,-6.4640485E-2,4.384083E-2,6.307357E-3,-2.0560868E-1,-2.522181E-1,-1.5095346E-1,-3.129804E-2,3.2323044E-2,7.298989E-2,-5.4919706E-3,3.067549E-2],"split_indices":[0,4,5,11,2,1,4,10,2,1,20,4,13,4,4,12,20,3,18,3,12,6,12,4,15,18,12,7,1,4,6,0,0,0,0,0,0,0,0,0,0,0,0,0,0,0,0,0,0,0,0,0,0,0,0,0,0,0,0,0,0,0,0],"split_type":[0,0,0,0,0,0,0,0,0,0,0,0,0,0,0,0,0,0,0,0,0,0,0,0,0,0,0,0,0,0,0,0,0,0,0,0,0,0,0,0,0,0,0,0,0,0,0,0,0,0,0,0,0,0,0,0,0,0,0,0,0,0,0],"sum_hessian":[1.0046985E6,1.1590652E5,8.8879194E5,7.354419E4,4.2362344E4,6.7476756E5,2.1402439E5,6.667619E4,6.8679966E3,1.6528104E4,2.5834238E4,4.9890453E5,1.7586302E5,4.9063667E3,2.0911803E5,3.6911133E4,2.9765057E4,5.377046E3,1.4909508E3,1.617226E4,3.558439E2,2.9066602E3,2.2927578E4,9.675966E4,4.0214488E5,8.914953E4,8.6713484E4,5.9914624E2,4.3072207E3,1.0513814E5,1.0397988E5,2.8823527E4,8.087604E3,2.1537817E3,2.7611273E4,4.4096484E3,9.6739734E2,1.3532506E3,1.3770023E2,1.6127293E4,4.496753E1,1.01649734E2,2.5419417E2,3.3509212E1,2.873151E3,2.0904344E4,2.0232341E3,1.0821656E4,8.5938E4,2.6226894E5,1.3987595E5,8.337961E4,5.7699175E3,6.0690293E4,2.6023197E4,2.4088823E2,3.5825803E2,7.454816E2,3.561739E3,8.959552E4,1.5542623E4,6.1278062E4,4.2701816E4],"tree_param":{"num_deleted":"0","num_feature":"21","num_nodes":"63","size_leaf_vector":"1"}},{"base_weights":[-7.162646E-4,-1.09787226E-1,1.0656549E-1,-7.5516164E-2,-5.584903E-1,1.24934055E-1,-4.1229284E-1,1.9579484E-1,-1.2741278E-1,-9.6752274E-1,-1.75127E-1,-4.3411527E-2,1.8387683E-1,-3.3490387E-1,-1.3041543E0,4.0353203E-1,-1.5491067E-2,-2.0703961E-1,4.4892214E-2,-9.9116826E-1,3.417078E-1,-3.2066363E-1,5.791625E-1,-4.190436E-1,1.2266888E-1,-4.0099657E-1,2.0059754E-1,-7.266667E-1,-1.6166854E-1,-1.6158752E0,6.34098E-2,5.2353244E-2,-1.835477E-2,-9.325467E-2,1.0870962E-2,-2.3814892E-2,3.209916E-2,1.1287993E-2,-3.219124E-2,-7.758759E-2,-1.1581468E-1,-1.2661183E-1,2.4455447E-1,-7.370447E-2,-7.812686E-3,-1.3457665E-1,7.1664535E-2,-6.948935E-2,-2.3769619E-2,2.6129162E-2,-4.942128E-3,-1.0618033E-1,-1.52906375E-2,3.0722102E-2,9.691261E-3,-2.730449E-2,-1.20326936E-1,5.127874E-2,-2.7954733E-2,-1.0597128E-1,-2.2597876E-1,5.0270505E-2,-2.6871446E-1],"categories":[],"categories_nodes":[],"categories_segments":[],"categories_sizes":[],"default_left":[0,0,0,0,0,0,0,0,0,0,0,0,0,0,0,0,0,0,0,0,0,0,0,0,0,0,0,0,0,0,0,0,0,0,0,0,0,0,0,0,0,0,0,0,0,0,0,0,0,0,0,0,0,0,0,0,0,0,0,0,0,0,0],"id":23,"left_children":[1,3,5,7,9,11,13,15,17,19,21,23,25,27,29,31,33,35,37,39,41,43,45,47,49,51,53,55,57,59,61,-1,-1,-1,-1,-1,-1,-1,-1,-1,-1,-1,-1,-1,-1,-1,-1,-1,-1,-1,-1,-1,-1,-1,-1,-1,-1,-1,-1,-1,-1,-1,-1],"loss_changes":[1.1682258E4,7.6127114E3,4.796974E3,6.4758926E3,5.5082285E3,4.823511E3,1.1873496E3,3.2414316E3,5.297074E3,5.2645996E2,1.9909155E3,7.864485E3,3.521126E3,1.0746638E3,5.857136E2,2.6234937E3,4.170318E3,4.3376133E3,3.0431804E3,5.9922656E2,1.0254468E3,1.5351547E3,7.772687E2,1.9332393E3,2.0853423E3,1.6404452E3,3.8697178E3,1.049394E3,8.732689E2,3.982522E2,3.1062943E2,0E0,0E0,0E0,0E0,0E0,0E0,0E0,0E0,0E0,0E0,0E0,0E0,0E0,0E0,0E0,0E0,0E0,0E0,0E0,0E0,0E0,0E0,0E0,0E0,0E0,0E0,0E0,0E0,0E0,0E0,0E0,0E0],"parents":[2147483647,0,0,1,1,2,2,3,3,4,4,5,5,6,6,7,7,8,8,9,9,10,10,11,11,12,12,13,13,14,14,15,15,16,16,17,17,18,18,19,19,20,20,21,21,22,22,23,23,24,24,25,25,26,26,27,27,28,